34 128
34 0.0027568368 0.0018616737 0.0042019985 0.00014257073 0.0034813671 0.002435081 -0.0029743395 -0.003267319 0.001271352 -0.003809016 -0.003403045 -0.0034965859 -0.0033605555 -0.0020887554 0.002452469 -0.00057629414 -0.0002546268 -0.0039468817 0.00021860993 -0.00013874928 0.00279005 0.00309848 0.002770799 0.0033495806 0.0027982143 0.0022473298 -0.0029178725 -0.0009229342 -0.0036988687 -0.0038591835 -0.0038108164 -0.0027589218 -0.003341207 -0.00053377694 -0.003856695 0.001399814 -0.002167011 0.00049409195 0.0030115952 0.0015710505 0.0034241166 0.0015958267 9.401565e-05 0.0021908907 -0.0012535003 0.0017577071 0.0009459485 -0.000248305 0.003195909 0.0017654055 -0.001063505 0.0037082818 -0.0009923589 -0.0033897364 -0.0030864745 -0.0038647868 0.002713256 -0.00079266896 0.0008136354 0.0021555922 0.001661927 0.0029134785 0.00210781 0.0024597032 0.0022315627 0.0029893287 -0.0005892401 -0.0007373466 0.0039778305 -0.0019523121 -0.00010974994 0.003808036 -0.0028819495 -0.000897596 -0.003406801 -0.0019367393 0.0028260467 0.0040783603 0.0021157344 -0.0025106561 0.0029058664 -0.0019725685 -0.0018542793 0.0013043343 0.0032470697 -0.0026092778 -0.0035290192 0.0006888462 -0.0013619785 0.0016351644 -0.0025629846 0.0036696037 5.750341e-05 -0.003233772 0.003006677 0.00092147157 0.00046154737 0.0009466893 0.0035267947 0.0029425935 -0.004002967 -0.0033282312 -0.001170639 -0.0036885813 0.0008594456 -0.0025821864 -0.00401629 -0.0018203176 0.00040614756 -0.002267097 -0.0006518244 0.0015816411 0.0022060985 0.0018097761 -0.001984708 -0.00050155027 0.0010788287 0.00358943 -0.00044377256 -0.0040562423 0.0003073534 -0.001303587 8.6029984e-05 -0.003665674 -0.0025275447 0.0035409548 -0.002903346 -0.004088716
33 0.0031175856 0.0023244265 -0.002253107 -0.0043121437 7.039841e-05 -0.0031153737 -0.0019356069 0.003893753 -0.0026689768 -0.0027035864 0.00172437 -0.0033778055 -0.0023931027 -0.0038882575 -0.00026329057 0.001336719 -0.0035008867 0.0012527305 -0.0030846328 -0.0034232035 -0.0012894413 0.0008614813 -0.0008555324 0.00035310525 -0.00038152392 0.0028842485 -0.003997634 -0.00029170024 -0.00035004626 -0.003511815 0.0034033584 0.003601488 0.0021620237 0.0025183696 0.0035081217 -0.0005285655 0.0027318408 0.0026813396 0.0024631482 0.0038817204 0.0031434505 -0.0009820373 0.002906659 8.218779e-05 -0.003775957 -0.00016443568 -0.002126673 0.0023327852 -0.0011066756 0.0015671302 0.00094699615 -0.0011426645 -0.0031322492 -0.0013748467 0.0017210364 0.0036792255 -0.0020326183 0.0032014882 -0.000701409 -0.0029250795 0.003461851 0.00027109252 -0.0028506923 0.004105023 0.00015424282 0.0036925378 0.0010397779 0.0006689201 -0.00027269093 -0.0012508831 3.6349098e-07 0.0009847045 -0.00053561426 0.0030719447 -0.0001451264 0.0005596817 0.0017811694 0.0019835406 -0.0036277487 -0.0002713575 0.0026524554 -0.00040822965 0.00028914213 0.0036196914 0.0036018314 -0.0011770076 0.002616991 -0.0009980293 -0.0010542384 -0.0037249683 0.0015356664 0.0037390487 -0.002172576 -0.0026895073 1.58436e-05 -0.000643138 0.00036627965 0.0027879463 0.0041435715 0.0005295321 -0.0011393592 0.0021580372 0.0010548867 0.00035589628 -0.0018395963 0.0012157867 -0.0015288801 -0.0016816516 0.0015815906 0.0018002307 0.00041768447 0.0017131697 -0.0019156297 0.00031129824 -0.0018625043 0.003089091 0.00089866016 -0.003299406 0.0028108838 -0.003274323 -0.0004984029 0.0003668078 0.0008521002 0.0013136917 -0.0035975024 -0.0025318405 -0.0016906605 0.002718679
32 -0.001069697 0.0014061809 0.0006465959 -0.0033910226 -0.0036077048 -0.0029048075 -0.0037901725 -0.0018444231 -0.003522309 9.527858e-05 0.002953631 -0.0030841306 -4.0876253e-05 0.0017368739 0.0026598405 0.0019429948 -0.0024321435 -0.0005679345 0.00346575 0.001444095 -0.0014463331 -0.0005237804 0.0030838829 -0.0001595385 -0.001410117 0.0024598995 0.00016970914 -0.0034756025 -0.0013962177 0.0025929976 0.0025029113 0.0013341598 -0.00038946615 0.0024559316 0.0007517296 -0.0015043998 -0.0018129854 0.00093314546 -0.002960379 0.0009971567 -0.0013315367 -0.0012520743 0.0019285401 -0.0032568346 0.001979627 8.427552e-05 -0.0035469888 -0.0034375472 -0.0029558605 0.0026442697 -0.0012817867 -0.00054213166 -0.001460661 -0.0014213523 -0.0030419272 -0.0018112274 -0.0027995873 0.002751124 0.0031048385 -0.00244173 0.002993331 -8.656562e-05 0.003669255 -0.0012464363 -0.00036534053 0.0039145206 0.0034391442 -0.0020120493 0.0028364004 -0.001929022 -0.0006021313 0.0022129344 -0.00079260825 0.0024379618 0.0020838745 -0.0015681889 0.0009881085 -0.0017201689 0.0009781155 -0.0021165027 -0.0030333672 0.0014079595 0.0029545648 -0.0015657134 0.0011755395 5.406776e-05 0.003549416 0.003435465 -0.0016642048 -0.0012022095 -0.0003498927 -0.00023169011 0.00045647536 -0.0024437972 0.0021151365 -0.0032122643 0.0011236672 -0.0022617478 -0.0035179376 -0.0019775983 0.0036629438 0.000620396 0.00044516652 -0.00079226727 -0.0032922393 0.0013581876 0.0020770333 0.0018136366 -0.0027547127 -0.0013655556 -0.0032932975 -0.00018806952 0.0034170975 -0.0013903432 -0.003344807 -0.0023386634 -0.0030615171 0.002294438 -0.0031819167 0.0030055153 0.0036274693 -0.0031677496 0.0031357012 0.0015391302 0.0016321394 0.0023244428 -0.0035284383 -0.0019322612
17 -0.001989977 0.0017567035 0.00250045 -0.00414512 0.00014719865 -0.0010399754 0.0019834281 0.0008617106 0.0026562898 0.0030172395 0.0028330123 -0.001927506 0.0023483739 0.00115135 -0.00315436 0.0024529777 -0.002183962 -0.0018688156 -0.0033813706 0.0021241216 0.0006917766 0.0025180827 0.00077996205 -0.0008088864 0.0039589847 0.0016707485 0.0031756656 0.0015184875 0.0034633437 -0.0034801913 -0.0027709466 -0.0016719971 -0.002569216 0.0038645826 0.002484426 0.0013575819 0.0032877538 0.0031174142 0.001545468 8.913142e-05 -0.001339425 -0.00022856287 0.0017908212 -0.003451749 0.0018016413 -0.0024191136 0.0023936697 0.0009529241 0.0018506831 -3.167762e-05 0.0021719912 2.6322434e-05 -0.0020147075 0.0007726001 0.0012401162 -0.0021026772 -0.00031746374 0.002763331 -0.0015909373 0.0025904954 0.0026334983 -0.0034697773 0.0009613428 -0.0011484702 0.0028903943 -0.00034742532 -0.00019094495 -0.0029093192 -0.0019959519 0.003186168 0.0009859814 -0.0029931988 -0.0010895767 -0.00019371949 -0.0008071544 -0.0039895047 -0.0017424012 0.002024238 -0.0019027164 0.0026630638 -0.0011322164 -0.00042920007 -0.0018284654 -0.0032213314 -0.0036436203 -0.0013707454 -0.00055271195 -0.0030606436 -0.0010471552 -0.0035474552 0.00021162562 0.0004481866 -0.0034599586 -0.00060346985 -0.0037219252 0.0029459551 -0.002044755 -0.002144832 -8.1262435e-05 0.003957633 -0.0019725843 0.0031082358 0.0009070499 0.00058915664 -0.0022066035 0.0023630438 -0.0005752592 -0.00095167523 -0.0035961177 0.00040944514 0.003325547 -0.0036307788 -0.0014666205 -0.0026727496 0.0032866036 -0.0026487473 -0.002376881 0.0025719607 0.0036471297 0.0028766782 -0.0003331865 0.0030799601 -0.0023763643 -0.0011855774 -0.0037003795 0.0018051798 0.0013452846 -0.00039853167
11 0.0017056118 -0.0023853027 0.003655142 -0.0015195912 0.002607496 -0.0027333868 0.0033321255 0.0010272488 -0.0013023827 0.002062916 -0.00046232512 -0.003839682 0.00231384 -0.0035305854 -0.0014832211 0.0028303515 -4.9379996e-05 -0.0005104526 0.0033754318 -3.5128556e-05 0.0034584054 0.00124339 -0.0027587612 -0.0035698758 -0.00017854733 0.0003048343 0.00026607784 -0.0035772482 -0.0006136582 -0.0009156368 -0.002064493 0.0027227362 -0.0022458776 0.00073616276 0.0013489715 0.00071885396 -0.003013006 0.0006020288 0.0004577534 0.00086269155 0.00226185 -0.0016702405 0.0020624907 0.0014209511 0.001952528 0.0031259472 -0.0024276504 0.0035149981 -0.0021393888 -0.0001600702 -0.0022735908 0.003340131 0.0002666898 -0.0013062007 0.0038231157 0.0034188447 0.0008751355 -0.0018686655 -0.0012666432 0.0004101764 -0.0015555633 0.0002840318 0.0032832474 -0.0036063588 -0.0020105836 -0.0019601092 0.0034905137 0.0038664516 -0.0033927625 0.0035672304 0.0010898465 -0.0013795219 -0.0023884089 0.001721322 -0.0010274865 -0.0006355747 0.0015867571 -0.0022108948 -0.0010570565 -0.0029762452 0.0001849385 -0.00012401583 0.0028483262 -0.0011171926 -0.0011835312 0.0032426112 -0.003660883 0.000452632 0.00290162 0.0024812832 -0.0016647897 0.0027409703 0.0024204866 0.0022510425 0.0007236774 -0.0031531353 0.0006084112 -0.003335685 0.0016793043 0.0006825999 -0.001934678 0.0024514294 0.0020796012 0.0032637117 -0.0016847348 -0.00045460102 -0.0036080782 0.0021669385 0.0021470143 -0.0007418735 0.00086594035 0.003696226 0.0024377434 0.0006574621 -0.0015025479 -0.0030158134 0.00060697866 -0.0025234665 -0.0026739098 -0.0036504448 0.0030289679 0.0006340878 0.0030090315 -0.0035102975 -0.0009936146 -0.003369033 -0.0033332743 -0.00011384187
28 0.0026594023 0.0021394258 0.0029176523 -0.0032043252 0.0024814054 -0.0003130439 0.0037758294 0.0013348627 0.0011348459 0.002204241 -0.0009238169 -0.0029645227 -0.00045364982 -0.00035637675 -0.000363936 -0.0007585055 0.0034965845 0.0007834559 0.0018878412 0.0011398125 -0.0029306596 0.001923343 0.0038917647 0.0016856167 -0.0030745564 -0.0033839105 0.0026896272 -0.0031125415 -0.00080535567 -0.0014651106 -0.0021517742 -0.0032446845 0.0011738549 0.0018311167 0.0028606933 -0.00023265147 0.0019339283 0.0031155124 0.00051826035 0.0039294423 -0.0018824212 0.002307676 0.001880155 0.0025633222 -0.0016961973 0.0027388441 0.0021282665 -0.0006548458 0.0033501387 0.0022640815 -0.00088508544 -0.00085193035 -0.0029068205 0.0015915174 0.0031779723 0.003689363 -0.0030049023 -0.0019744614 -0.0026969386 0.0018650563 0.0024013962 -0.0027288182 0.00140334 -0.00019159215 0.0035186207 -0.0024873293 -0.0027151455 -0.0036736138 -0.00065065245 0.0034573176 -0.003499805 0.0037347106 -0.0022026068 -0.00029206913 -0.0023889842 -8.773063e-05 -0.00013020725 0.0009939075 -0.0015471438 0.0020111047 -0.00346832 0.0015705508 0.0036121435 -0.0018679902 -0.00062631135 -0.0013707913 -3.6955684e-05 -0.0033490947 -0.00088449504 0.0005583365 -0.0027156458 0.00078278035 -0.0024897251 -0.0024062525 -0.0008464407 -0.0024505 -0.002662192 -0.0038125638 -0.002018383 -0.003730075 0.00058654475 0.0011221924 0.0020033738 5.1679206e-05 -0.0026411999 -0.0032759102 -0.002944796 -0.002670621 0.00028821832 0.0031349845 -0.0028169712 -0.0029812206 0.002234997 0.0012737336 0.002447651 -0.0016447309 0.00092803536 0.0015872266 -0.0024857023 -0.0006829369 -0.0007636333 -0.0019584948 -0.0020681596 -0.0010949244 -0.0030027733 -0.002733848 0.002282225 0.0006096215
13 -0.0037454593 -0.0011809114 -0.0023068537 -0.0011218615 0.003847639 0.0010992984 0.0015737497 0.0036099385 -0.00072105986 -0.002772769 0.00071117043 0.00043715068 0.0016171158 0.00048494636 0.0026959802 0.0012400374 -0.0032924085 -0.003633814 0.00043469816 -0.0038252065 -0.0021402382 -0.003446801 -0.0011149539 -0.0027095296 0.0005009737 -0.00017826901 0.003124317 -0.0018091265 -0.0027286517 0.0007203439 0.0018254266 0.0005629451 0.0033078014 -0.0020821022 -0.00057093194 -0.0010767536 0.0013420642 -0.0023767527 -0.0025600328 -0.003537637 -0.0011060642 -0.0017403964 -0.0013986777 -0.0028176915 0.0036177684 -0.0025082317 -0.0005099807 -0.0026549683 0.0007471912 0.0026924247 -0.00321576 -0.00073575834 0.0010974414 -0.0032075096 -0.0036088363 -0.0015139811 -0.0024416954 -0.0025219868 6.257708e-05 -0.0011874029 0.0038032476 -0.00084149936 -0.0016480932 0.0031419666 0.0035389874 -0.0010307815 0.002038008 0.0024609629 -0.003327583 0.002136937 -0.0021210636 0.0027411112 -0.002648924 0.00021808803 -0.00056038954 -0.0038724234 -0.0017823786 -0.0007758905 -0.0006055127 -0.003194785 0.00027119307 0.0012722817 -0.0025794806 -0.0007501064 -0.0032939592 0.0032589051 -0.0012584411 0.0035408114 -0.0033000235 0.0003302081 0.0037080285 -0.0025611836 -0.0034439405 -0.0011383352 0.0010635356 0.0011630298 0.00010895099 0.00033559834 -0.0034296652 0.0027841995 0.0028252094 0.00024501412 -0.0017771261 0.0012080561 -0.0027957472 0.00033090374 -0.0019546186 -0.0036798203 0.0009984142 -0.00348124 0.0009768843 -0.00062649127 -0.001134448 0.0030694252 0.0031633114 -0.00095633895 0.0037562177 0.0032297177 -0.0033552232 -0.0010200609 -0.0026866223 -0.0013884837 -0.0037143212 -0.0033914542 -0.0029514753 0.00017355871 0.0033742222 -0.0036518576
30 -0.0030358688 -0.0005268801 0.0017324041 -0.0037113326 0.0016489156 -0.0008581679 -0.00079745654 0.0035856306 -0.001235359 0.0030766246 9.342191e-05 0.001084495 -0.00073067826 0.00036215284 -0.0028590956 0.0035018253 0.00052919163 -0.0018829542 0.001172127 0.0019648238 -0.0035537062 0.0039327885 -0.0019047698 -0.0026730679 -0.0018831799 -0.0017184204 -0.0015769217 0.003376005 0.00021184685 -0.0020040714 0.0018151035 -0.003177117 0.001542684 -0.0012690489 0.0026285106 -0.002623507 -0.0021111686 0.0009017667 0.0032603103 0.0019668785 -0.0009366244 -0.0027959603 -0.0017259452 -0.0026491303 -0.003169309 -0.00066518487 -0.0013251489 0.00172336 0.003626045 0.0030928133 -0.0019528624 0.00076297467 -0.0024821064 -0.00340104 -5.386069e-05 -0.003580293 0.0018921517 -4.9260303e-05 0.00048834103 0.0031215216 -0.0004794698 0.0016975916 0.0008438623 -0.00068648043 0.00356474 -0.00019102864 0.0024703932 0.002789836 0.0005169499 0.0013391211 -0.002302389 0.0007815897 -0.002064179 -0.003399625 0.0027519702 -0.0035313184 0.00040278857 0.0038438516 0.0002912484 -0.0013873553 -0.001623708 -0.0008802419 -0.00012198605 0.0003438267 0.0034559697 0.0009866852 -0.0022175661 0.0019191107 -0.0036076927 -0.0020444198 0.0007387041 0.0016862506 -0.003160452 0.003552242 -0.0029015932 -0.0037223496 0.0017323944 0.0012050769 0.0028965927 0.0032483933 -0.000585597 0.0014803676 -0.002224936 0.00018488277 0.0003400535 -0.00049628847 -0.0032929478 0.0025928402 0.0016821984 -0.0014010322 -0.0013987111 0.0013104504 -0.0016935394 -0.0022783384 -0.0011772724 -0.00013957814 -0.0036608025 -0.00056479755 0.00068726036 0.00021288132 0.0011407274 -0.003120516 -0.003939322 0.0019250404 0.0020142484 -0.00050102925 -0.003253179 0.0035169064
8 -0.0030752718 -0.0014608864 0.003527291 -0.0024475676 -0.0037859564 0.0021807018 -3.3181426e-05 -0.0018245076 -0.003323278 0.002464426 0.0015644787 0.0012995682 0.0021223284 0.0013487404 0.00035589593 0.001711077 -0.0010746561 -0.002043627 0.00015874048 0.0023469029 -0.0022591343 -0.0033826507 -0.002762818 -0.0023067703 0.003830865 0.002864254 -0.0023892696 0.0008407678 -0.0017808358 -0.0015423856 -0.0011110697 0.0026448811 -0.0010064476 -0.0012732631 0.002489716 0.0035671315 -0.0030618305 -0.0014668651 -0.0013512864 -6.6592285e-05 0.0023047207 -0.0032903692 0.0029911275 0.0018739621 0.000782842 0.0004170294 0.0031594632 0.0024234436 -0.0036416831 -0.0022259373 -0.0023656904 0.0005622507 -0.0003294442 -0.003863497 0.00029052258 -0.0021488178 0.00112693 -0.001824051 -0.0038586035 -0.0032097513 0.0013928274 -0.0017530741 -0.0034063493 0.003440004 -0.0029256125 0.0039054553 0.0012917842 -0.003368568 -0.00076428 -0.0024772026 0.0012189248 -0.0015317948 -0.00021211694 -0.0022486213 0.001966101 -0.0031683277 0.0012314742 0.00044536847 -0.0012081173 0.0020163713 -0.0027238333 -0.0008412023 -0.0011994661 -0.0034005567 -0.0035843241 -0.0009873671 0.00019679853 -0.00027020506 0.001951514 -0.000117531454 0.0036785672 0.00087923364 -0.00054098637 0.0007610192 -0.003200192 0.0029762785 0.0011443447 0.0019522794 -0.00094831514 -0.0012729042 -0.001149457 0.00091432274 0.0022715623 0.0035535505 -0.00012537827 0.0018027269 0.0027237267 0.00025288537 -0.0018660458 -0.0014880381 -0.00062500336 -0.0010762858 0.0012062549 0.00012436003 -0.0030288287 -0.0037354508 0.0025777575 0.0011096798 0.003494316 0.0022462357 0.0019997358 -0.003217843 -0.0018365222 -0.003218949 9.2902555e-05 -0.0036916006 0.00246588 0.0017517265
7 -0.0019314882 -0.003626891 0.00085250556 -0.004073853 0.002238227 -0.0032843591 0.0038772656 0.0036454494 -0.0010062105 -0.0010718949 -0.0021617727 0.0014143817 -0.0008570645 -0.0005431865 0.0008487575 -0.0033585888 0.0014101525 0.0019181763 0.0030760951 -0.0007942513 -0.0018959007 -0.0016265948 -0.00081880647 0.0009696106 -0.003378815 7.571706e-05 0.0030804737 -0.00019338822 0.0024974465 0.0018034223 0.00032493586 0.00056059373 -0.0025955215 -0.0015591327 -0.0028957517 0.001532612 -0.0005978636 -0.0008884404 -0.0011649051 -0.0030078457 0.0038611365 0.0011209426 -0.0035731674 0.0013106914 -0.00056284154 -0.0019642648 -0.0035505786 0.002074774 0.0034984786 0.00150631 -0.002454024 0.0035025442 0.0004439045 -1.3108599e-05 0.0036348628 0.0006658257 0.0027358353 0.00078882795 0.0034120642 -0.0016026403 -8.2655824e-05 -0.001269139 -0.0034081938 0.0020276872 -0.0013502752 0.0021513912 0.00084061985 0.0022677248 -0.0012358703 0.003393316 0.0014522807 -0.0010066313 0.0017410946 -0.0005703668 0.0010334963 -0.0001536462 0.0002078976 0.00033586446 0.0001726239 0.002577543 -0.002622127 -0.0023507131 -0.0038067135 -0.0022644626 0.0024824417 0.0034596217 -0.003371086 -0.00085193897 -0.0015378799 -0.0008541327 -0.003257435 0.00089975214 -0.0018792029 -0.0013679214 0.0038221285 -0.0028377196 -0.00051710167 0.0028449427 0.0008566629 -0.0032525882 0.00037912317 -0.00028934827 0.003081283 0.0025297285 -0.002472796 -0.0038412223 0.0023505054 0.00059051986 0.0007985373 -0.0019630806 0.00236749 0.0035888301 -0.0001712213 0.002016006 -0.0005826497 0.0027887062 0.0005537831 0.003627949 -0.0031227062 -4.9844828e-05 0.0007297797 -0.0011789887 -0.0028818706 0.00032826443 0.0016135263 0.0009433825 -0.0035489039 -0.0015013466
4 -9.845053e-07 -0.0024351967 0.002201593 0.0016814504 -0.003766892 0.00022435197 -0.0014026703 0.00033579025 0.00019808285 -0.0030147631 0.001384622 0.0011007455 -0.003844624 -7.7874814e-05 0.003298214 -0.0011776381 0.00071746844 -0.0017688142 0.0012902069 0.0026674133 -3.880857e-05 0.0020961475 -0.0023928785 -0.002695813 0.002686657 0.001586533 -0.0037057397 -0.00023764357 -0.000920081 -0.0005769436 -0.0015901483 -0.002800204 -3.0848867e-05 0.0005642423 0.00019212614 0.00081513263 0.00031315992 0.003082641 0.0018937313 0.0019627726 -0.00035341235 -0.0030964224 0.003782847 -0.00091682083 0.0011952484 0.0037845883 7.839163e-05 0.0027010958 -0.0018528518 0.0035516182 -0.0023378239 0.0019816447 0.0007056869 0.0005523631 0.0013086213 0.00061772286 0.0017234078 0.0013672595 -0.00019725984 -0.00031184155 0.0035136552 0.0028321615 -0.0019880508 -0.0022857618 -0.00018494653 0.003289289 -0.0010399777 0.0026367533 0.0027143927 -0.002888924 -0.0031005992 0.0007710104 0.001392062 0.0018528989 0.00030039152 -0.0017760621 0.0010731013 -0.0021187312 0.0011265513 0.0024879233 -0.0020135322 -0.00034019648 -0.0026975821 -0.0010281913 -0.0031790603 0.0005159084 0.0036242206 -0.0006089231 0.002216383 -1.1382043e-05 -0.0009389385 0.00058497436 0.00046281246 0.002378842 0.0026123032 -0.0004270673 0.0016028243 0.003657363 0.000615069 0.001301148 0.0036440068 0.002704397 0.0018316589 -0.0017810006 -0.0028322488 0.00071944995 -0.003778809 0.0030101824 0.0032973867 0.0025995478 0.003813149 0.0018935836 -0.00050964963 -0.0035344816 -0.0010340688 -0.0015391556 -0.00011658304 -0.0006753174 0.0038006417 0.0036572241 -0.0011241793 0.0012220772 -0.0028035392 -0.0005735965 0.0029341052 0.0029511398 0.0031556978 -0.0029752888
14 -0.0034977242 0.0014437783 0.0024473087 0.0011019385 -0.0013918364 -0.0021872805 0.0038378784 -0.0038807543 0.0016668597 0.0023221953 -0.00034690974 -0.0031421292 -0.0028170012 0.002058532 -0.0015284178 0.00028182913 4.854372e-05 -0.0033693016 -0.002924853 0.0010378462 0.00285865 0.0025919932 -0.00059710414 0.0022422953 -0.0030949179 -0.003396838 0.0008727876 0.00090708036 0.0019930901 0.0027195597 -0.002274644 -0.0020862906 -0.0026468765 0.0026589986 -0.0035244927 0.0030126427 -0.0012336926 0.0037905064 -0.00038271016 -0.00024004662 -0.0005574343 -0.0028783784 0.00093093485 0.0017542597 0.0035283193 0.0025336638 -0.0033661756 -0.0025932249 -0.0020217896 0.0027845819 -0.00037534995 -0.0016983937 -0.0005524821 -0.0009787253 -0.0030021507 -0.0005399965 -0.001855803 0.0036083262 0.0016779384 -0.002253234 -0.003835566 0.0022109416 0.0008369 0.0002736463 0.002755725 0.003896563 -0.00092239195 0.0036834867 -0.0026010298 -0.0021756676 -0.0031386015 0.00014762787 4.4743065e-06 0.001559958 0.00066782645 -0.00021744389 0.0036189652 -0.0032810178 0.0026892098 0.00031605715 0.0022755195 -0.0030047928 0.0011669553 -0.0021132329 -0.00010507589 -0.0032692356 0.0012211605 0.0006186869 0.00043311063 0.0006818239 0.00086738705 0.0028265866 -0.0006727792 -0.0023036038 0.0032223323 -0.0016161749 -0.0037971777 -0.0025801088 0.001993601 0.00069961866 -0.002445672 -0.00039929055 0.0005527663 -0.0017962861 0.003633375 -0.0007668329 0.002703041 0.0026671735 0.0021236553 0.003724871 -0.00016378387 0.0013328601 -0.0010752511 -0.00046477973 -0.00075842213 0.0030543206 -0.001437841 0.0017717464 0.0025347492 0.0031100814 -0.0036025408 0.002398411 -0.0018209104 0.0007097317 -0.0017974318 0.0014171187 0.00074268016 0.00093556463
26 0.0007499455 0.0027541886 0.00080098043 0.002471108 -0.0027552827 0.0023572047 -0.0021785889 -0.0020878536 0.003353835 0.0035470037 -0.0036336868 -0.004067127 -0.0029287986 -0.0017541681 0.0037368482 0.0034865062 0.003508103 0.00015310154 0.0038338327 0.0038609083 -8.282951e-05 0.0024319263 0.0014045028 0.0010999847 -0.0025337946 0.0032514168 -0.0036245903 -0.0009803696 -0.0009081002 -0.003720365 -0.0004803548 -0.0014618755 0.0027363156 -0.0024675562 -0.0029464995 -0.0027557954 0.0014034748 -0.00023260787 0.0012135657 0.0017933871 -0.001566186 0.0021425146 -0.0027023624 0.0030169543 0.0017137219 -0.0033236416 0.00060171005 0.00064552075 -0.00083561876 0.0023224193 -0.0020083522 0.002750203 -0.00343258 -0.002595023 0.0013590979 -0.0031526685 0.0027385268 0.0031646332 0.0028486485 0.0036067055 -0.0003435284 -0.0027618166 0.0007975781 0.0032407737 -0.0023583446 0.0026275187 -0.0003173614 0.0033313667 0.00017256796 -0.0025869955 -0.00067204196 0.0011494107 0.00046471332 0.0015267282 -0.0029179142 -0.00043893926 0.0010025421 0.0031127117 -7.616929e-07 0.00022917443 0.003430996 0.0004997139 -0.002081022 0.00081624114 -0.0037627346 -0.0030662625 0.0011137053 0.0012657497 -0.0028509542 0.0036324093 0.0033189992 -0.0028504485 -0.0015562166 -5.864878e-05 0.00046744698 0.0029222053 -0.0009744259 0.0025074119 0.0018661951 -0.00097085297 -0.00018400169 -0.0035173153 -0.00041555645 0.0018070277 0.0019362648 -0.0021518224 0.0029448362 0.0034883565 -0.0033585946 0.002916728 0.0021147588 -0.0005813419 0.001557665 0.0019742427 0.0035758817 0.0008845179 0.0025306821 -0.0017184787 -0.003636877 0.0021896488 0.0022513266 -0.0035148654 -0.0010294705 -0.0039104186 0.0001320382 0.0037229056 0.0019234177 -0.002646008
9 0.00056808855 -0.002965605 0.002656875 0.0015373088 0.003479696 -0.0021997963 -0.00301674 -0.0028525398 -0.0007108733 -0.0016514617 0.003692135 0.0026663037 0.0029806388 0.003231658 -0.00074649294 -0.0006327948 -0.002989476 -0.0021076377 -0.001566147 -0.00061172346 -0.0020523241 0.0026836668 0.0035122507 0.0022012398 0.0009152972 -0.0009235969 0.0020027352 -0.0026686431 -0.0030623043 0.0010189052 0.0016928449 0.001632465 0.0018011734 -0.0010244179 0.0007987871 0.002036277 0.0026174278 -0.003521324 0.0012334054 0.0007458995 0.0007013907 0.00017824808 0.00011588386 -0.0036326773 -0.00045676407 0.0017837748 -0.0011950972 -0.00070463255 0.0013354174 -0.002323825 -0.00097242004 -0.0021833603 0.0013965108 -0.0028811982 0.0030740695 0.0027604266 0.003059353 0.001798649 -0.0035035978 -0.002981221 -2.8976552e-05 0.0009448085 -0.0006441599 -0.0012524262 -0.0030733806 -0.0030031365 -0.00019676411 -0.0032189093 0.0006195786 -0.0024536594 0.0006040428 -0.0013938876 -0.0021717125 0.00032086342 -0.0034735913 -0.0019872193 0.0016026729 -0.0029212018 0.002779026 -0.00060753955 0.003318868 0.0029872376 0.001957338 -0.0028740512 -0.0030860256 0.0016464377 0.0032172704 -0.001236548 -0.002509082 -0.0019032328 -0.0033220192 -0.0030360867 -0.00080246566 0.00043259969 0.0027000618 0.0029352747 0.0037422222 -0.0014603555 0.0021677448 0.0002663862 -0.0015084017 0.0038786004 -0.0014703033 0.0026336822 0.0026535993 0.00047851505 0.0022005278 0.0036842371 -0.0019159297 -0.0031551153 0.0020048663 -6.860636e-05 0.0032383387 0.0029072608 0.0024001256 0.003142898 -0.00084443967 0.0011497184 -0.0023721352 0.0025862744 -0.002777228 0.0022063644 -0.0022089304 0.001502466 -0.002746905 -0.0004383555 -0.0007842007 0.0025320847
3 -0.0022335246 3.4023553e-05 0.0036504387 -0.00095955894 0.0016372981 -0.0015519377 -0.00078820955 -0.00085436204 -0.00035911455 -0.0013012886 0.0003790432 -0.0011988195 0.0011365063 0.0025805791 -0.0032774818 -0.001794726 0.0025886532 0.0011202737 -0.002724792 0.0036684144 -0.002687635 -0.0020005472 0.00247823 -0.0038408055 0.001947917 -0.00012257294 -0.0013048695 -0.0027651412 0.0032241023 -0.0029670724 -0.00028417344 0.0023241215 -0.0026798754 0.0029618721 -0.003694874 -0.0037530516 -0.0015637624 0.0035639477 -0.0030021064 -0.001194997 0.0021356037 -0.001093385 0.00021623734 0.00246233 0.0017837208 -0.00027918877 -0.0030300645 -0.0012609911 0.00086543657 0.0038993724 -0.0030896617 0.0008037598 0.0011987023 -0.00087712926 0.00049885863 -0.000317758 -0.0034844987 0.00094181544 0.00079879054 -0.002023558 -0.0004868907 0.0021027212 -0.0028318835 -0.00068202364 -0.0015811527 0.0009325827 0.0022764558 -0.0020535446 0.0006450255 0.0026994427 -0.002817351 0.0025368496 -0.0018572698 0.0033928605 -0.003264853 0.0038138654 0.0025766173 0.002170854 0.0033412646 0.0007066409 0.0037733638 -0.0030507443 -0.0027408781 -0.0021150133 -0.002898163 0.003866394 0.001571903 0.0030927996 -0.0024815823 0.0035236585 0.0020644236 -0.0003951344 -0.0019516114 -0.00069708005 0.0004683896 -0.0028910374 -0.0017309 -0.0011656167 -0.0018650624 -0.0010159743 -0.0022631222 0.0028498645 -0.0029187775 0.0032641212 0.0027360648 0.00040366594 0.0004696453 -0.0012485125 0.0024120891 -0.0017515137 -0.0014047298 0.0034029128 0.0010419161 0.00090411433 -0.0012881048 -0.0010825454 -0.002202599 -0.0017821202 0.0039157425 -0.0022057595 -0.0024232843 0.0022450048 0.0010129804 0.0032544446 0.0016115159 -0.0021587138 -0.0032433437 0.0010498308
22 0.0012699426 -0.0026542684 -0.0010166013 0.0026740439 -0.0013716626 -0.0008782986 0.0023630837 0.0005903013 -0.00011344453 0.0035876636 -0.00134895 -0.002385969 0.0010902347 0.0023639647 0.0020787525 0.0017941626 0.0014141923 0.0030738763 0.0012664555 0.0029861564 0.001170817 0.0024205386 0.0023749745 0.0015150118 -0.0009586827 -0.002802998 0.00014127014 0.000898593 0.0025832532 -0.0033375404 0.00096468447 -0.00077903643 0.0014834171 0.0030602706 0.0024785392 0.0008516877 0.0033439982 0.0028745376 -0.0021854166 0.0037149491 -5.8024154e-05 0.0024459846 0.0028860841 0.003730361 -0.002602231 -0.0017408831 -0.001381407 -0.0036380328 -0.00084833463 0.00027441164 -0.00034873592 -0.0025473451 9.456687e-05 0.002943544 0.0012373999 -0.0015212703 0.000933463 -0.0023837017 -0.0001131202 -0.000938228 -0.00053194916 -0.0020828652 0.0023877579 6.296805e-05 0.0028186196 -0.002760987 -0.0018329036 -0.0023597004 -0.0026411405 0.0031273502 -0.0011540496 0.0007177455 -0.00255428 -0.0031257763 0.0017539446 0.00048568277 -0.0017014634 -0.00090045325 0.002954225 -0.003392085 0.0039070128 -0.0026712832 -0.0018784472 0.00059663435 -0.0022982492 0.003526775 0.0004598059 -0.00068760477 -0.0035543956 -0.0020277125 -0.0035921999 0.0023594908 -0.0032893717 0.00014390801 -0.0034133357 -0.0015069643 0.0028352658 0.0008938928 0.002402703 2.9353232e-06 0.0012079 -0.0013654196 0.0029514984 -0.0006578311 0.0023585458 -0.0025072147 -0.0011609679 -0.0028889515 -0.0022088995 -0.0016522346 0.0015406798 0.0035991531 0.003841882 -0.003082862 0.002689079 0.002919828 -0.003451807 0.0032617773 -0.002260139 0.0006691563 -0.0035301156 0.0037208474 -0.00016305842 0.003463614 -0.0038755587 -0.0036265613 -2.8244838e-05 -0.0017892179
18 -0.0037719107 0.0027755464 0.0038735382 -0.0010276395 0.0033693942 -0.003815516 -0.0035559775 -0.0021526832 0.0028504569 -0.0016211111 -0.0022041458 -0.0038936643 -0.0023623246 -0.0013133081 0.0013594015 0.0028641424 -0.00028813301 -0.0013002281 -0.0009992918 -0.0029646845 6.0274582e-05 -0.001133549 0.00020772956 0.0020170093 0.0037063856 -0.0014254921 0.0007871075 -0.0036090105 0.001190894 0.0015874114 -0.00026217962 0.003428168 0.00022475692 0.00044882525 -0.003367491 -0.0034228738 0.0013721216 0.0015838274 0.0034196163 -0.0032555144 -0.0018062681 0.00055441825 -0.0020608546 -0.0036482522 0.0014275708 0.0024816997 -0.0006792399 -0.0016067771 2.927395e-06 -0.001579443 0.0017349205 -0.0017943431 0.0026754325 0.0017740567 -0.002439657 -0.00081781176 -0.0015009064 0.00020489616 -0.00033017562 0.0038592783 -0.0017753957 0.003290199 0.0019636576 0.0006424721 -0.003231252 0.00042475588 -0.0036339536 -5.483346e-05 0.0036062733 0.0007389004 0.0012239997 0.0026345383 -0.0021444708 0.00047195324 0.00036972453 -0.002804709 0.0037944282 0.0028820457 0.0020123166 0.003105675 0.0015974151 0.0017440388 0.0036226513 0.0024931985 -0.0031626823 -0.0035614404 -0.0037217224 -0.0007596938 -0.002052809 0.0032687497 0.0037291816 -0.0020241465 0.0029544563 0.0017961437 -0.0016625657 -0.00065427285 -0.0014174047 -0.0025504099 0.0031199579 -0.0023410094 0.0028359266 -0.0013614208 0.0032812916 0.00015239256 0.0017020708 -0.003769638 0.00085963216 -0.00048153658 -0.0021564446 0.0016867823 -0.0024568068 -0.0038693966 -0.0011437042 0.0014747705 -0.0030554251 -0.0011582817 -0.003728117 -9.435466e-05 0.001159872 -0.00086659146 -0.00058037456 0.00020467462 0.0011899236 0.0009880367 -0.0014822192 0.0023130293 0.003590648 -0.0014948042
31 -0.0025816662 0.0018102659 -0.0010543363 -0.0010860577 0.0018378283 0.00033155648 -0.0015123889 -0.00092397945 0.00082704495 -0.0032623066 -0.00287523 0.0033077202 0.0035543991 0.0038053128 0.00230577 0.00078847463 0.0022089246 0.002021286 0.000743044 0.0032739695 0.001761397 -0.0015080812 -0.001276192 -0.001708465 0.0017508398 0.0004917478 -0.002413676 0.0007096324 -0.0026577266 0.0021413579 0.0038400313 -0.0016433683 -0.00056335854 -0.0019671 -0.0032766152 0.0033645649 0.00071627775 -0.00018040766 -0.0030226423 -0.0027933395 -0.0012719736 0.0007918918 0.0022348126 0.00069722475 -0.00026621597 0.0029768304 0.0031206827 0.00051964243 0.00016195033 0.0013322592 -0.0016017515 0.0005206119 -0.0017454117 -0.0028294015 0.002458511 5.959877e-05 -0.0021580108 0.0032887154 -0.0036775295 -0.0034763068 0.00062391744 -0.0012459477 0.0023385028 -0.0037010952 0.0007424943 -0.0010312754 -0.0029758587 -0.0025918635 -0.0028651403 0.0011005665 -0.0035833085 0.0034368322 -0.00060612883 -0.0035942318 -0.0036612083 -0.001464387 -0.003130086 -0.0017160806 0.0010532046 -0.0027799404 -0.0007896237 -0.00022922877 -1.6950433e-05 0.0014223859 0.0037269127 0.0031525258 -0.0025568507 0.00030260082 0.0027614299 -0.0021757658 -0.0018814928 -0.00036496788 0.0031403766 -0.0038041496 -0.0010476668 -0.00013025884 -0.00075494364 0.0030492689 -0.0015189777 0.0034725918 0.0013871406 0.0029831333 -0.0008998707 0.0011517759 0.0011523612 0.0016013082 0.0024883957 0.0019236772 -0.0023536365 0.0034383703 -0.00030760295 -0.00025427184 -0.00044586067 0.0017049393 -0.0033728878 0.002740801 0.00013780736 0.003678167 0.0030390646 -0.003381818 -0.0033809068 -0.0037915283 -0.003563466 0.00044332887 0.0016897642 -0.003843682 0.0036550476 -0.00058940396
29 -0.0021689944 0.0005325876 0.0031447874 -0.0020198075 0.0034818356 -0.003857528 -0.001676097 0.0033588114 -0.0030850132 0.0028068577 0.0034317784 -0.0026580587 0.0011919127 -0.0007023565 -0.0027675352 0.00048206662 -0.0021614954 0.002738601 0.00029483897 0.0012686375 0.0011439578 -0.0012083009 0.0028931121 0.0009931546 -0.0025926519 0.00092256133 0.0028424074 0.00021669474 0.0032555808 0.00032538845 0.003172497 -0.003598062 0.0018175534 -0.0015916977 -0.00089737575 0.00043828797 -0.0025200015 -6.3177504e-06 0.0014055133 -0.0028669406 0.0009531459 0.001735463 -0.0021651858 -0.0017691078 0.003560186 -0.0025536087 -0.002481541 0.00020185794 -0.0016870087 -0.0038400039 0.0012268593 0.0019672252 -0.0028791446 -0.0012134538 -0.0018662628 -0.0029337988 -9.05663e-05 -0.003645424 -0.0034473427 -0.0023182754 -0.0023880294 0.0035118556 -0.0033356596 -0.0004036133 0.00095590437 -0.0023647267 0.0008013501 0.0017796841 -0.0007958702 -0.003614425 -0.0029252304 0.002678086 -0.0037285062 0.00015948724 -0.0016034981 0.0034831846 0.0026052743 0.0016066093 0.0024238531 -0.0033352927 0.0030836812 0.0028163055 -0.0038249588 -0.0010518775 -0.0022451472 0.0021916043 0.0034414819 -0.0006156275 -0.0031675731 0.0004981165 0.0006619624 0.0017053889 0.0018230586 -0.0020154938 6.822392e-05 0.0038959978 -0.0038988246 0.0004345982 -0.0019225669 0.0038862657 -0.0016294873 -0.0031610453 0.0016664889 -0.0007230417 -0.0029082235 0.002397016 0.0035019056 0.0031164407 0.0030047654 -0.0028549575 0.0024617158 0.0030521273 -0.001258149 0.0035530312 -0.0023437869 -0.0014442963 0.0025501356 -0.0008582956 0.003115415 -0.0015501576 -0.0018626476 0.0038639114 -0.0022028582 0.00042445568 -0.002421616 -0.00071541005 -0.0016478599 -0.0018980539
6 -2.9282844e-05 -0.00331233 0.0038659272 -0.0038681244 -0.001902759 0.0021641215 0.0032573368 -0.000102351936 0.0016486623 -0.0010460991 0.0037438858 0.0018233106 -0.0026338296 -0.0022004142 0.0023882117 -0.0020609933 -0.00044743947 -0.0009293922 0.0028349985 0.0037187492 0.0034798926 0.0030699295 0.0013341137 -0.003151994 -0.003056047 0.0038231597 0.0009676493 -0.0025807326 -0.0020875246 -0.0024505008 0.0014879155 -0.0025540963 -0.0025020712 0.0005612834 -0.0011769503 0.0018304812 0.0026643206 0.0025639832 0.00034281946 -0.0014754107 0.0024215807 0.0030031172 -0.0008566084 0.0014197739 -0.003957785 -0.0014947492 0.00045456452 0.00038177028 -0.0016526047 0.0020048507 -0.0016946024 -0.002965382 0.0030823709 0.00031429133 0.0019371454 0.0019831844 -0.003212381 -0.0030585313 0.0028317997 -0.0009871295 0.0011309955 0.0019678492 0.003586827 0.0022010424 9.398846e-05 -0.00050046114 -0.0018888877 0.00042667554 0.00081078266 0.0025586975 0.0036382955 0.0022286917 0.0019540035 -0.00020683654 0.002832249 -0.0018506555 -0.0013335174 -0.001008793 0.0018102572 0.00048442668 0.0016576486 -0.0026496612 0.0010122594 0.0022439915 0.001584826 0.0014245263 0.00038061873 -0.0019325203 -0.002166671 0.0033813666 -0.0023364846 -0.001697155 0.0003455506 -0.0039101425 -0.00066569325 0.0026189531 -0.0020863032 -0.0036922186 0.0005089604 -0.003005846 0.0032504168 -0.0035810617 -0.0006106471 -0.0015170008 0.0013887873 0.00019450631 -7.112063e-05 0.0015882658 -0.0037689453 0.0021093267 -0.0036249717 -0.0035262585 -0.0022021818 0.002723642 0.0024906404 0.003368206 -0.00034116465 -0.0020935768 0.0010927827 -0.0029643453 -0.00025198533 0.0021641483 -0.0002496182 0.0030120492 -0.00087627175 0.001174264 0.00085114565 0.0021245882
20 0.0024952004 0.0019161779 -0.0033293131 -0.00029662056 0.0022028226 -0.0027467918 0.0032576132 0.0010796889 0.003029819 -0.0034224333 0.00043124097 0.0003366845 0.0037527124 -0.001575146 0.0025663541 -0.0036229063 0.0033305667 -0.0035391469 -0.0021952938 -0.0022362631 0.0013781737 0.00207203 -0.0033828542 -0.0017714145 -0.000568212 0.0027039817 -0.0028010004 -0.0033098725 -0.0013687775 -0.0036033767 -0.00018380638 0.0017736913 0.0016798313 -0.0028019205 0.0016649397 -0.0029916763 0.0008026096 -0.0013488041 -0.00029836647 0.0008022172 -0.0016605494 -0.0020720137 -0.0014340796 0.0025841363 -0.0018332327 0.0036556663 0.0034598922 -0.0033849208 -0.0036192692 -0.0023399456 0.0013702135 0.000968444 0.0034110546 0.0012504566 -0.0014843601 -0.0021934777 -0.0018887554 0.0005662808 0.0022966838 0.0016891563 0.0024959338 -0.002335541 -0.0023653486 0.0006414074 0.0020742086 -0.0015242245 0.0031610269 -0.0022586228 -0.0005091218 0.003096378 -0.0012633018 0.0014720812 -0.00040653278 0.0013500572 0.0011054805 -0.0006936931 -0.0013563713 -0.0018947549 -0.0012983908 -0.003629924 -0.0022996785 -0.0014559471 0.0026424313 -0.0031879742 0.0009000178 0.003557733 -3.2660406e-05 -0.0008419315 -0.0023638897 0.003476451 -4.2529282e-05 -0.00034017744 -0.0034431608 0.0022958824 0.001143149 -0.0036107555 -0.0016982493 0.0038996607 -0.002600244 -0.0008436299 -0.0027457157 -0.0010265469 0.0018586067 0.00031195206 0.0034529287 -0.0010773769 0.0033920528 0.0028382782 0.001945524 -0.0030741289 0.00053654454 0.0009427808 0.0030524433 0.0019265979 -0.003137537 -0.0018883392 -0.0011298802 -0.0038784202 0.0016577358 0.001334939 -0.002031692 0.0026561567 0.0029162907 0.00063964474 -0.0014923181 -0.0013951586 0.0033561718 -0.0029658654
10 0.0025391292 0.0023298012 -0.0014676559 0.002967867 0.0011870982 0.0011137234 0.0025999998 0.0014012723 0.0021774464 -0.0005619218 -0.0009905109 0.0026556833 -0.0038123112 -0.0022381295 0.0005995355 0.00048328852 -0.0009794757 0.0012029536 -0.0037516956 -0.0025405567 -0.0027470938 -0.0023465003 0.0015956439 -0.0021848797 -0.0008376754 0.0024856902 0.003239638 -0.001076491 0.0009868024 0.00039734642 -0.00055318436 0.000375818 0.002072253 0.00338645 0.0031826522 0.0033965865 -0.000567402 -5.1745923e-05 -0.002242584 0.0010597287 -0.00014209023 0.0013303352 0.0029209114 0.0027370618 -0.0037663088 -0.0030607071 0.0015533415 0.0028009242 0.0017039045 -0.0006866817 0.00235758 0.0023578696 -0.002792176 -0.0038364655 -0.0025264006 -0.0030890645 -0.0023257677 -0.001188258 -0.00202469 -0.00075716333 -0.0033684904 0.00020417047 0.0019268628 -0.002833844 -0.0030280994 -0.0037036575 0.0016078221 0.0010711629 -0.0038339752 -0.0035198834 0.00055209565 0.0034983654 -0.0023554964 0.0024992418 -0.002057943 -0.0016570142 0.0038971996 -0.0028253167 0.001266232 0.0017443657 -0.0029556612 -0.0019565905 0.002426429 0.0024103904 -1.0610354e-05 0.00052937237 0.0027919041 -0.002104877 4.1382013e-05 -0.00039883223 -0.003661903 3.638006e-06 0.00033996542 0.0037765207 -0.0016395268 -0.00074445264 -0.0038591612 0.0009448367 -0.0024260236 0.0031351945 -0.002179367 0.0034193103 0.0034446367 0.002513641 -0.0010166455 -0.0036368957 -0.0009190669 0.0029957092 0.00074592023 -0.0020693147 0.0036849808 0.0017319338 -6.931061e-05 0.0024560126 -0.0021161619 0.00045724883 0.0019383846 -0.0014643671 0.00075682224 0.0005542831 -0.003226062 0.0037298817 -0.0026836307 0.00027426562 0.0004689684 0.0021879242 -0.002657805 0.00082739413
5 -0.0016967406 -0.0028864106 0.0012598496 -0.0027014401 -0.0024430347 0.00035697315 -0.0014856695 -0.00081243337 0.00064024195 -0.0036480513 -0.0026289735 -0.0035554979 -0.0027930648 -0.0026859255 -0.0029554933 0.0037743652 0.0026577793 -0.0016708751 0.003052765 0.0036065672 -0.0036418666 0.0016855284 0.0019705324 -0.00084386364 0.0035274397 0.0013508552 0.00022512433 0.0028872788 0.0010669008 -0.0039928863 -0.0038825024 0.00019910332 -0.0023215357 -0.0019798314 -0.0015711295 0.0027929517 0.0002494828 9.834423e-05 0.0038568731 -0.0030888373 0.001483479 -0.0033810872 -0.0037116841 0.0036385292 -0.0012821901 -0.0016924646 -0.0033912198 -0.0031604208 -0.0036391104 0.001257201 0.00096135045 0.0021684917 -8.244268e-05 -0.0018242801 -0.0021880986 0.0010193957 0.0035062602 0.0015270167 0.0039970567 0.0039031655 0.003368772 -0.0031786817 -0.0027813208 -0.001348648 0.0019333923 0.0020319188 -0.0018953515 -0.0029024514 -0.0010117625 -0.00182287 -0.00059853424 -0.00030723982 -0.0008325813 0.0013715253 -0.0016306895 0.0011712372 -0.0019462517 0.0005752213 0.0004074695 -0.0009896891 -0.0006959585 0.003060086 -0.003267353 0.0037980354 0.003501153 0.00010605544 -0.0020619554 0.003051699 -0.00050238625 -0.00024567277 -0.0031109545 -0.002525058 -0.0029091083 0.00017818832 -0.0018385025 0.00032965356 -0.0020961016 0.0001539199 -0.0037559585 0.0031752975 0.0029202446 -0.003465116 0.0031160247 0.00078705477 -0.00036111567 0.0022378832 -0.0002599333 -0.0010043037 0.00352014 0.0011640893 0.0005531404 -0.001280965 0.0018440455 0.00033905794 -0.0025829969 0.00027082217 -0.0010415952 -0.00046925087 0.0022471133 -0.002835319 -0.0010509947 -0.0026816842 0.002954473 0.003532404 0.0015162957 0.00057339546 0.0012064035 -0.0033037765
2 -0.0022966529 0.0017173962 0.0016796401 -0.001992704 -0.0005625087 0.0015170188 0.003790689 0.0027836252 0.0018923492 -0.0005450796 0.0038423399 0.0014563933 0.0022174139 0.0029701144 -0.00061828445 0.0027269255 -0.0021261647 -0.0032522262 0.0007650536 0.0007293061 0.0014278404 0.0038760155 -0.001585318 0.001847382 0.0032129711 -0.0005449774 0.0035086873 -0.0022713065 0.000112056674 -0.0017075723 0.003472034 0.003021939 3.0283518e-05 -0.0005286839 0.0035745418 0.0010057391 -0.0017649884 -0.00020356163 0.0008986484 -0.0007664636 -0.0030830333 0.0012875044 0.0023687086 -0.0028876702 -0.0029695728 0.0021445183 0.00067560887 -0.0011457436 0.002894499 -0.0016838117 -0.002414538 -0.0012482763 -0.0038771003 -0.0020300166 0.0013001029 -0.003091764 -0.0018989319 0.0015016538 0.0026659903 -0.0003836385 -0.0010959123 0.0029119297 0.002438507 0.0007504859 0.00056842976 0.00023070688 0.0019393725 -0.002279463 0.0015736019 0.002594679 0.0021778792 0.0011233959 -0.0010722094 0.0033152183 -0.0029985418 -0.00037136668 0.0016676576 0.00019314581 0.0022330813 0.0026919742 0.0031117308 0.0010216631 0.00028435714 0.0020210727 0.0018405311 0.0027510824 0.0009451493 0.0020188778 0.0031022194 -0.0039110244 -0.0038496777 -0.0025889792 0.0029471482 0.0026875436 -0.0013495059 -0.0013524164 0.0009438739 -0.00036422815 -0.00020747204 -0.0024783616 -0.0009407361 -0.0031891593 0.0010778412 -0.0034999412 -0.0023119177 -0.0008410686 -0.0005719632 0.0008999225 0.0016172375 -0.0030164167 -0.0011731675 -0.0025952347 -0.0034363847 5.7992227e-05 -0.00094814866 0.0018275649 0.0012128415 0.0030563662 -0.000482852 0.001831192 0.002762516 -0.0011427077 -0.0014651249 0.0013530036 -0.0031005086 0.0018398633 0.0023846216 -0.0018423351
25 0.0027498566 -0.0010571191 0.0008108093 -0.0008771761 0.0029104154 0.0028273445 -0.0014884295 0.0032492394 0.0011911293 0.0019746157 -0.00044032748 -0.0005874146 -0.00095384853 -0.00088306086 0.0032047934 0.00256375 -0.0013892555 -0.0018294365 -0.00050402776 -0.0015879478 0.0024389431 0.002756469 -0.0019107978 -0.0004625893 -0.0003280236 -0.0017308693 0.0022976906 -0.00082135416 0.00021766407 -0.00278479 0.0020004995 -8.3556086e-05 -0.001133184 -0.002491109 -0.0035033314 0.0027533227 -0.0027546177 -0.0006899592 -0.0025506993 -0.001426275 -0.00030564226 -0.0028173015 0.0017230479 0.00376451 -0.00053081906 -0.003783143 -0.0016379979 -0.0026309788 0.0038231106 0.0036028915 0.0018834047 0.0028486343 0.0028401043 -0.0029937571 0.0015295655 -0.0029541976 0.0016819726 0.0039102384 0.0037167417 -0.003259356 -0.0011033046 -0.003772758 -0.0008707382 -0.0018134014 -0.0015523067 0.0028809498 0.00202966 -0.0025331841 -0.003046756 0.0020179737 0.0037078704 -0.001967522 0.0020849023 -0.0035288949 0.0031451029 0.0034249362 0.0024757024 0.0018321585 -0.0029348559 0.0037058415 -4.033555e-05 -0.0035728423 0.0017536752 0.0028411597 -0.0014175047 -0.002562431 -0.0018622171 0.003164075 -0.000415779 -0.00028906393 0.0007735117 0.0019193542 0.0012530058 0.0038665032 0.00014492829 0.0008051494 -0.0032902546 0.0002771174 0.0014620664 -0.00018278798 0.0005985898 -0.0037610983 0.000972864 0.001650506 0.0028317997 0.0034967184 0.002787813 -0.0009741081 0.0027144768 -0.0030144642 0.0005150695 0.0010215689 -0.00016339871 -0.00078854326 -0.0010036579 0.003730313 -0.0037371004 0.0027397384 -0.0016627094 -0.0008444759 0.0030068315 0.00044166995 9.366132e-05 0.0036299464 -0.0013734982 0.0033729016 -0.0019809364 -0.0015453708
27 -0.0028375462 0.0021652556 0.0028739744 -0.0020478594 0.0005488108 0.0013450478 0.00012254406 0.0011089212 -0.0025562558 0.0008022583 -0.0037940321 0.001875706 0.0008946193 -0.000373316 0.0036507212 -0.0013537823 -0.0021389131 -0.0023392416 0.00020177187 2.0408032e-05 0.002189767 -0.0028665666 -0.0012881488 -0.0021322067 0.0027440838 -0.0033353367 0.0013263049 0.0005601784 -0.0018533987 0.00076220516 0.0016494277 0.0013608309 -0.002563528 -0.0021570555 -0.003157982 0.00097442075 0.0033001327 0.0010644725 -0.002546036 -7.033892e-05 0.003349915 0.0022432688 0.00018071535 0.0036581291 -0.0022589045 0.0027559584 -0.0039025405 -0.0011904471 -0.0038401443 0.0038111275 0.003297009 0.0021388854 0.0033965134 -0.0036488199 -0.001016583 -0.0012012665 -0.0015980814 -0.0007893445 0.0012134388 0.0006302084 -0.0010754379 -0.0016904048 0.0025153882 -0.00045283302 -0.0032392144 0.0008258987 -0.00100871 0.002353849 -0.00096837705 0.002726489 0.0022357423 0.0019158635 7.120212e-05 -0.0003837687 -0.0032034724 -0.0038089612 -0.0025567296 -0.0011141443 -0.0015202624 -9.8885415e-05 0.0019645353 -0.00073989446 0.00067941647 0.00011152754 0.0029191785 0.0014318599 0.0012894147 0.003142287 -0.0036087835 -0.0028891643 0.0011291989 0.002397285 0.0012632378 0.001397133 -0.001425836 0.0037686927 9.307932e-05 0.0009334382 0.0023048015 0.0017958133 -0.00088850374 0.0031564 -0.0006798061 0.0037602475 0.00012737355 -0.000854591 -0.0034778414 0.0020222398 -0.0019644292 0.002171495 0.0032138915 -3.3747754e-05 0.0038807613 -0.001451014 -0.0020440547 -0.0016651577 0.0038128374 -0.0006588214 0.00095480913 0.003729362 0.00047289618 0.003726027 -0.000288986 0.0033515487 -0.0005258526 -0.003258026 0.0011079173 -0.0032687776
23 -0.00010052352 0.0022561827 -0.0014011161 0.0035377746 -0.0012872764 -0.0035189248 -0.00037735785 -0.00010273917 0.0003402157 0.0019102449 -0.002294725 0.00024118545 0.00089933566 -0.0025202695 0.0028645995 -0.0032181556 0.0038385447 0.0024415366 -0.0013766474 -0.00030830447 0.00377926 -0.0013882199 0.000719282 -0.0012819482 0.00015677768 0.0015018422 0.0021204364 0.0023468158 -0.003292202 -0.0009818936 0.0024926 -0.0007555034 -0.001222132 0.0025203943 0.0020016544 0.00025827563 0.0038496165 0.000952084 0.001381181 0.0010962212 -0.0032585608 -0.0033085404 0.0028114563 -0.000817977 -0.0032932058 0.0017412868 -0.002000304 0.0018539449 -0.0010283622 -0.0022878894 0.0010211301 -0.001066332 -0.0032608511 0.0038366308 0.0038262175 -0.001480195 -0.0027987566 -0.0021776664 0.0037911516 -0.00026660875 -0.0038705312 0.0023422062 0.0017697175 -0.0028671687 0.0026092744 -0.0027058423 -0.00061559206 0.0012908839 0.0011788876 0.0018270921 -0.0038814843 -0.000539153 -0.0032368428 -0.0010242342 0.0014174794 0.0022554495 -0.0030485583 0.0035011547 0.001818027 0.0014756924 -0.0023492635 -0.0027183695 0.00062183244 -0.0032208674 -0.00094290497 0.0025555708 -0.0030352776 -0.0017044421 -0.002682104 -0.002842535 -0.003549436 -0.0001058728 0.0013950402 -0.0013883703 -0.0019209881 0.00018216558 0.0029886889 -0.003508717 0.0002408639 -6.352456e-05 0.0019198649 -0.0004341339 -0.0011990631 0.0019426577 0.0034706586 -0.0034552258 -0.0015216097 0.00070267025 -0.0016477262 -0.0019268424 0.0003443464 0.001783002 0.00030288388 0.0038782316 0.00345905 0.00261085 0.0024311587 0.003802388 0.0011793328 -0.0032698354 -0.0037114497 -0.0014669986 -0.0028813307 -0.001218982 -0.00013530489 0.002081279 0.003493356 0.0028161253
16 0.0029913236 -0.0031955873 0.00026151875 0.003661025 0.0025889936 -0.0015783884 -0.0017213481 -0.00049645384 0.0023086153 -0.0024695806 0.0006215894 0.00020566571 0.0027736367 -0.0036781088 0.0003192922 0.0037418248 -0.0030052685 -0.00024323129 0.0033386431 7.604849e-05 0.003750213 0.0008173334 -0.0007386283 -0.0025657637 -0.00026652764 0.0029321383 0.0025281236 -0.0035181686 0.0026314969 -0.00017294308 -0.0008898358 0.0017586743 0.0008571016 -0.00022519492 -0.0023136148 0.0013395909 -0.0026967907 0.0015524237 -0.0017609488 0.0019577274 -0.0027001416 -0.0013656674 0.00060918933 0.0018272961 -0.0030555069 0.0032800809 0.0003859141 0.0028260674 -0.0013500651 -0.002818359 -0.00075511937 0.0037941062 -0.0009998704 0.0032168434 -0.001877384 -0.0011333636 0.00054704456 -0.0011583017 -0.0027601323 0.0018010855 0.0018432108 -0.0016678537 0.0034761282 0.00031975497 -0.000114792914 0.0012448629 -0.0024176158 0.003702207 -0.003110049 -0.0020918322 -0.0007405618 -0.002255942 -0.0026825557 0.002794808 0.002756129 0.0030423668 0.0006160873 0.00077878917 0.0014015356 0.0029459954 0.0026497205 -0.00033920901 -0.003198175 -0.0014856262 0.0025477204 0.0020796438 0.0013755346 -0.0012376138 -0.0022534519 -0.0016389573 0.0017194982 0.0033997882 -0.0032496382 0.0006841193 0.0016475709 0.0028435914 0.00065913255 0.003336306 0.0026606913 -2.7367038e-05 0.001959553 0.002644858 -0.0022366438 -0.0012385115 0.002468786 -0.0033265138 0.0014748562 -0.0024391406 0.0019282971 0.0014649101 0.002876732 -0.0031770305 0.000636846 -0.0024180398 -0.0015877354 -0.0009905829 -0.003389472 0.0020613424 0.00045092517 -6.125743e-05 0.000578624 0.00094397174 0.0019897232 -0.0034211143 -0.0016199347 -0.0016088024 0.0008465189 0.0037028322
15 0.0019362672 -0.0026205925 0.0022796968 -0.0014959009 -0.0025295126 -0.0024312085 0.0031274068 -0.0023576755 -0.0025726312 -0.0032467935 0.0038135094 -0.0018976316 -0.0009186116 -0.00046711942 -0.0020279598 9.364972e-05 -0.00091861625 -0.0011107706 0.0035568485 -0.0032953126 -0.0021657 -0.0007749994 0.00054480723 0.003225583 0.00065279985 -0.0012526357 -0.0031159453 0.00079080736 0.0032371795 0.0019809105 0.00060413464 0.0019105445 0.0028436314 0.0011894848 -0.0011997806 -0.0014702533 -0.0010644769 -8.414035e-05 0.0027963864 0.0012970901 0.0006054588 0.0037579592 0.0009249614 -0.0025397253 0.0015473793 0.0021117795 0.0034771976 -0.0014513633 -0.0004225868 -0.0033118294 -0.0018077313 0.0022260747 0.0024525723 -0.0009236298 0.003685091 -0.0018852978 -0.0027149597 -0.0032981767 -0.0018515268 0.0022700194 0.003393161 0.0031316434 -0.0016161107 -0.0006859969 0.0008828964 0.0013106653 0.0019951086 -0.0011648141 -0.0012706046 0.0028767192 -0.001402688 -0.0010520761 -0.0035241349 -0.0037872763 4.6784717e-05 0.00056883536 -0.0027614683 0.0037855192 -0.0038529413 0.00013297555 0.0016501327 -0.003268909 0.0018004061 0.0013725784 -0.0018183581 -0.00070594234 -0.0017042697 0.0025990854 4.807198e-06 -0.00056363706 -0.0014427479 0.0020950022 0.0019347899 0.00017168741 -0.0031087864 -0.0013537402 0.0034959714 0.0033039919 0.0022009646 0.00062592 0.0032677955 0.0010780442 0.00040258217 0.0013273567 0.0017880424 -0.002902093 -0.0021277918 -0.0037668906 -0.0029020903 0.0014594747 0.0006618468 0.0015146577 0.003006037 0.0022649528 0.00044140988 -0.0018473073 -0.00056389626 0.0016264508 0.00013004309 -0.0024409476 -0.003566296 0.0030069903 -0.0018705577 -0.00084551 -0.00084393757 -0.0014455937 0.00079496286 -0.0031288436
12 -0.0016239316 0.0013886259 -0.0029117789 0.0029204886 0.0026642007 -0.0021362596 -0.0010767139 0.00077665393 -0.0035561726 0.0013893924 -0.00078144565 -0.00073163596 0.0007183403 0.0038470975 -0.0003129465 0.003262383 0.0038316154 -0.0033010133 -0.0019738807 0.0027961924 0.0014579418 0.0021107104 0.0019760374 0.0015779266 -0.0034115305 -0.00070647587 0.0033113798 -0.0010343677 0.0020478694 -0.00023258428 0.000719563 -0.0011688854 0.00086340454 -0.0026142646 0.00050727936 -0.000838119 0.0038124768 -0.0026049372 0.0034189192 -0.0030573525 0.0031952437 -0.00101172 -0.0019290334 -0.0028814347 0.0027054464 -0.0025991008 7.07621e-05 -0.001637977 -0.003802492 0.0015600626 0.0019455557 0.0023291914 -0.00078998035 -0.0017463898 0.001529412 0.0016488534 -0.0019167388 0.0036037783 -0.0004921303 0.0036789638 -0.00019696444 0.0008193159 -0.00012345996 0.0006357378 0.0029646885 -0.0014101156 0.002841118 -0.0037454008 0.0019127375 0.0021038896 0.0024077932 -0.003802407 0.0011954036 0.0004315825 -0.0013787475 0.0027756623 -0.0015078789 0.0012964031 0.001979428 0.00017867924 -0.0012481663 0.0012573758 -7.636489e-05 -0.0014107955 -0.0037637781 -0.002511283 -0.0012165811 0.0025216304 0.0026884663 -0.0022581927 0.002442792 -0.0018996637 0.0012203039 -0.00072087295 0.0016608014 0.0028969324 0.0026040706 0.0005313275 0.0030659493 0.0023021174 -0.0037801503 -0.0003508199 0.0023542186 -0.0036956158 -0.0015849305 -0.0021738624 -0.0017243534 -0.0024916355 0.0024878175 0.0035521148 0.00094790553 0.00026992414 0.003757031 0.0012184728 0.0033883536 -0.0014392391 -0.001405939 -0.0009322489 -0.00038027478 -0.0030149028 0.0030238691 0.0035594043 -0.0019508918 -0.0029749586 -0.0014124323 -0.0016837302 0.0035881568 0.0024462093
19 0.0007746943 -0.0020305433 -0.0017721112 -0.0018037236 -0.0021494864 -0.0006730673 0.0012158002 0.0023772882 -0.0011396769 0.002854927 0.00020094198 -0.003437233 0.0025295853 -0.0010992844 0.003584563 -0.0020703916 0.0025371313 0.0005883922 -0.0004980614 0.0016419581 -0.0030537625 -0.001975141 0.0022379584 0.0038140998 0.0021009855 9.891178e-05 0.0023757534 0.0030769324 -0.0016694962 0.0023527953 -0.0025407416 0.0031226259 0.0013656 0.0014700979 -0.0020538536 -0.00071727915 0.0037528195 4.7066816e-05 -0.002454567 -0.0027439827 -1.9440467e-05 0.00029770954 0.0022028848 0.001379681 -0.0037194956 -0.0033479882 0.0031082428 0.0012320522 -5.4996715e-05 0.001871692 -0.0011374312 -0.001604349 0.0014998352 -0.0014623287 -0.00040830686 -0.0008305194 0.0011250082 0.0003337671 0.0020620176 0.00042483967 -0.000545008 -0.0024606795 -0.0034025458 0.0029876155 -0.0034946906 0.0030296834 -0.001927735 0.00016092905 0.0020816291 -0.003357924 0.001962299 -0.0033694257 0.00064366194 -0.0017857997 0.0031854308 -0.003710502 -0.0002599025 -0.0021347231 0.0033135554 0.0010010037 0.0005153669 -0.0010204668 -0.0022256658 0.0015300731 0.002652459 -0.0012408112 0.003364928 -0.00045341972 -0.0012615585 -0.0017667015 0.00033700047 -0.003431383 -0.0002362714 -5.0584666e-05 0.0020266748 -0.0031446824 -0.0037737302 -0.0033456946 -0.0027370648 -0.0010275131 -0.0023244089 0.003766384 -0.0010202227 0.0030056764 -0.0010490115 -0.0034249967 0.00074640726 -0.0017977015 -0.0033576346 -0.0018030481 -0.0011194494 0.0037452145 0.0038072173 -0.00070389605 -0.00037782884 0.0033991889 -0.002255597 -0.002604812 -0.0027701426 -0.0012883394 -0.0014538803 -0.0010727597 0.00067904097 -0.0021234762 -0.0020165173 -0.00077792956 -0.00086081435 -0.0015172948
24 0.0013274599 -0.0030630564 0.003143961 -0.002972289 0.001398558 0.0006850018 4.219391e-05 -0.0013495703 0.002381494 -0.0012343065 0.003676015 -0.00035241476 0.003073955 -0.0016479543 0.0017415254 -0.001691856 -0.000104472594 0.0026185983 0.00021473238 -0.0035365915 0.001426323 0.003425231 -0.0009895444 -0.0031029838 -0.0023050478 0.0032713208 0.0013911219 -0.0035237714 -0.00029844683 0.0016684671 0.0006224642 -0.0023379852 0.00025562797 0.0016061495 0.0030215853 0.0011085182 -0.0026157945 0.0028406589 0.0029531515 0.0018937577 -0.0033625723 0.0011265565 -0.001242934 -0.00032174613 -0.0027686448 -0.0020375308 -0.0018409047 -0.0032290914 -0.0003376633 0.0006459246 -0.0033010407 -0.0030826728 -0.0012784441 0.0024266383 0.0014661932 0.0031119785 0.0029990647 0.0011167631 0.0032205177 -0.0023393144 -0.002696901 -0.0018203894 0.0024419914 -0.00045517026 8.088814e-05 -0.0021655571 -0.002586504 -0.0005459938 -0.003462864 0.003813521 -0.002134621 -0.0013810439 0.0013142322 -0.0026648636 1.686547e-08 -0.003426233 -0.00039628087 0.00030218915 0.0006207994 0.0022415014 0.0014602274 -0.0038692963 -0.0015180268 -0.003509421 0.0015983458 0.0034306783 0.0011057894 0.0019273813 0.0015299058 0.00061777286 -0.0011025269 0.0005838785 -0.0005841609 0.0017698802 0.0025079686 0.0035574806 0.003770024 0.0028472524 0.0026896016 -0.002963583 -0.0016498223 -0.0027894655 -0.0027354104 0.002978657 -0.0019136094 0.0008460376 -0.0017877575 -0.0021379853 0.0010769586 0.0032162662 -0.0017111514 -0.002255717 0.0013347575 0.0028427346 -0.0011133341 -0.00019598479 -0.0028496736 0.003923783 0.0007786985 -0.0013499853 -0.0014141733 0.0012538816 -0.0005497251 0.0013312197 -0.0036517945 -0.001227005 -0.00079130754 0.0025629778
21 -0.00024264943 0.0008652021 -0.00054368074 -0.00095837895 0.0011257135 -0.0024202703 0.0030829464 0.0016419932 -0.002346393 0.00052648847 0.0004240461 -0.0038672225 0.00061108393 0.0028095003 0.0036853277 -0.0029260349 -0.0010177938 0.0035240175 -0.0020752714 -0.0021848558 -0.0016972198 -0.0021429092 -0.0013082584 -0.003498056 -0.0036996002 0.0033411966 0.0035831688 -0.00036207697 -0.0022268405 0.0013274648 0.0032180548 0.0014841844 -0.0029946421 -0.00040738552 -0.003332839 -0.0015207846 -0.0026749503 -0.0022180916 0.0014544025 0.00046335135 -0.002620999 -0.0018054153 0.0010672797 -0.0009012882 -0.0031481027 0.0037673044 0.0011567608 0.0009494779 0.00014300982 0.0004663717 -0.00063834176 0.0033794425 0.0017458623 0.0036971213 0.0025849084 2.7606948e-05 -0.0013088121 0.00024827785 -0.00045406495 -0.00263456 -0.0027909658 -0.0038890492 9.773904e-05 -0.000101675185 0.0022675942 -0.0028150624 -0.0026881981 -6.6411114e-05 -0.0008148957 -0.0015460566 0.0009894541 -0.0036802825 0.0004806224 0.0036947592 -0.001909136 0.0011182663 0.00022335976 -0.003736458 0.00014631938 0.003602755 -0.00044823284 -0.00088259956 0.0015323807 -0.0037795713 0.00036664127 0.00030341273 -0.00033189758 -0.0029693516 0.0020117972 -0.00086345914 -0.002474976 -0.0015228827 0.0017630375 -0.0026520446 -0.002268073 -0.0025647695 -0.0027682646 -0.0014427834 -0.0025326225 -0.003263421 -0.0013536732 -0.0026350114 0.0021348067 0.0036422687 0.0031360944 0.0037489205 0.0014370853 -0.0011255734 -0.0026014035 -0.0026672552 -0.0032108445 -0.0012346352 -0.0033384457 -0.0030071177 -0.003152096 -0.0035943624 -0.0009805878 0.002450797 0.002186353 -0.002559235 0.0008128545 -0.002014457 -0.0011083966 -0.00047840172 0.0019621372 -0.0016988568 0.00084125786 0.0031828508
1 -0.0009140123 -0.001862879 -0.003187609 -0.0030502914 -0.00093369535 -1.5193133e-05 0.0036144035 0.0013375317 -0.0028537724 -0.0010535652 -0.0019389427 -0.0035124726 0.002528897 0.002967796 0.00040800212 -0.0029276744 0.0030666708 -0.0038375189 -0.002285893 0.0037348478 -0.00082037906 -0.0031523972 -0.00093023817 0.0020891076 0.0017357393 9.951065e-05 -0.0012578882 -0.0038594832 -2.4357427e-05 -0.0012733913 -0.0015460041 -0.0010860827 0.0021878341 0.0038443618 0.0029139898 0.0036021573 -0.0021597182 0.001819931 0.00047146456 0.0002526401 0.0012583293 -0.00016212165 0.00031374424 0.0033771568 -0.0020848352 -0.00054778083 6.8557765e-06 -0.0025757116 0.0005587064 0.0037331048 0.0031554615 -0.002632961 -0.0007781654 -0.0017589494 0.0014615915 -0.0023014727 -0.00062130886 -0.0037450918 0.0015842891 0.0038436404 0.0029403558 0.0013142278 -0.0033191661 -0.00037561072 0.0033312773 -0.0017554974 0.0010449563 -0.0026002615 0.0012129777 0.0027967065 -0.0025891862 -0.0027304448 -0.0013922957 -0.0018438721 0.001993285 0.0028161425 0.0016854461 0.0027913023 0.0026811159 -0.0006546872 -0.0017202647 -0.0002879364 -0.0009562907 0.002090094 -0.0030222312 0.0009455255 0.00384762 0.0013681368 -0.0035490403 0.0013782177 -0.0022347288 -0.00096707547 0.0030052094 -0.0032227405 -0.0010175325 0.0017771772 0.0022188758 0.002069987 -0.0036923517 -7.6309516e-05 -0.003940785 -0.0010823116 0.0024744784 0.0026880822 -0.0009408512 -0.0004144002 0.0020273332 -0.0019238738 -0.0015381387 -9.1618094e-05 0.0009150476 -0.0024044516 -0.0021288826 0.00096935965 0.001015791 0.0018614866 -0.0035816166 0.002145649 -0.0020487427 -0.003733 -0.001070914 -0.00247117 -0.00081871083 -0.001628174 0.00019330817 0.0034954278 0.002352118 -0.0018516765
