1920 128
240 0.16536129 -0.05717091 0.142861 0.14457208 -0.21917984 0.15125453 -0.16634628 0.33299914 0.40077487 0.023027606 0.119573586 0.5217319 -0.03586803 -0.14083862 -0.087731 0.28872833 -0.23014864 0.48796356 0.38437957 0.099350795 0.11052915 0.0771492 -0.020717282 0.22936566 -0.058283564 -0.26955605 -0.033772383 0.17796761 0.21357681 -0.26251402 0.15971941 -0.22683619 0.2800033 -0.11340988 -0.28482112 0.28475812 -0.24945815 -0.045060713 -0.11791751 -0.2175219 -0.20351636 0.03929512 0.11289655 -0.12893589 -0.28504676 -0.057306785 -0.230701 -0.38798264 0.50226873 0.16647649 0.48624682 -0.14727432 -0.7792034 -0.18792665 -0.18198992 0.17336898 -0.046152826 -0.09344309 -0.018973053 -0.00064541324 0.14659137 0.21843936 0.22804922 -0.48174638 0.13420314 0.032727078 -0.44188717 0.03339565 -0.14956637 0.12447773 -0.15622388 0.11869483 -0.09584735 -0.2295491 0.026577653 -0.42553103 0.20935147 0.3310114 0.349084 0.053602017 -0.38786942 0.083978325 -0.1366942 -0.03802823 -0.2119303 0.12674163 0.27484772 -0.35600376 0.049503185 0.34932297 0.40757427 0.25836498 -0.04511027 0.068588674 -0.1045326 -0.032196786 -0.021717152 0.10486376 0.043733194 0.006478351 -0.40617374 -0.015389178 -0.23262776 -0.18325518 -0.37345698 0.054704264 -0.018803943 -0.2119519 0.10691955 0.017559668 -0.0034893127 -0.38393217 -0.3940532 0.108171456 0.17362615 -0.30816716 0.34898266 0.016289521 0.19918042 0.2017994 -0.03212326 0.19127423 -0.055780534 -0.059500843 0.066550724 -0.3741786 0.0074598123 -0.12655443
1538 -0.11443752 -0.22079116 0.25020847 -0.22788821 0.017701752 -0.14000733 0.43940824 0.24029462 0.23145324 0.2551936 0.06267897 0.31313893 0.37352103 0.11222703 0.15195377 -0.17547706 -0.00803533 -0.13299926 0.145633 -0.27235505 -0.08152776 -0.29457605 -0.2284287 0.21802287 -0.12504794 -0.3769696 0.36147854 0.41207424 0.11840195 0.17039984 0.08090646 -0.016588904 -0.1342468 -0.10750253 -0.41703022 0.33140397 -0.2290599 -0.27199966 0.1310632 -0.10558825 -0.1499782 0.1845226 0.043565005 0.010534078 -0.060663786 -0.19092429 -0.07607224 -0.22043245 -0.2321079 -0.1612053 0.80180764 -0.022493089 -0.25198075 -0.017361563 -0.27700254 0.011665704 -0.16058952 0.34673375 0.019370131 -0.2787255 -0.18053891 0.30293688 -0.02760677 0.036972288 -0.21970218 -0.5394059 -0.03483708 -0.24893588 0.1076143 -0.21944505 0.29730535 0.08745108 0.16583179 -0.21860404 -0.08121859 -0.24444276 0.023347463 0.054473333 0.3945343 0.19637744 0.07519363 -0.10895038 -0.13728726 -0.03652553 0.021229364 -0.1339007 0.052700695 0.00345248 -0.24883007 0.04093786 0.4737761 0.24133217 -0.63565326 0.31572247 0.27340302 0.031756915 0.17857975 0.1358632 0.4717708 -0.032240752 -0.06862851 -0.15193692 -0.014787462 -0.3540883 -0.060892157 0.16975494 -0.29021677 0.12522845 -0.12885842 0.029283496 -0.052076235 -0.08443466 0.27366865 -0.06723077 -0.36849836 0.059095625 0.19224334 -0.20005146 0.48938617 -0.1276835 0.18620145 0.22523052 -0.2922576 0.039552916 -0.04987554 0.02910559 0.06731416 -0.22346532
9 0.15467031 -0.61354685 -0.2608785 -0.6079245 0.11608902 -0.36185318 0.16489056 0.29056388 0.037486717 -0.03995496 0.1321906 -0.13922139 -0.12214972 -0.022208728 -0.17353465 -0.13099533 0.28392008 -0.015131138 0.16844118 -0.31080619 0.23308423 -0.34691644 -0.5281503 0.23548932 -0.09178713 -0.5026628 0.15513894 -0.08197543 0.30012494 0.12763502 0.16730729 0.4658464 0.14967299 -0.30580834 -0.3747676 0.40056375 -0.371145 -0.46325997 0.46146923 -0.051348906 0.33759585 0.28512475 -0.2648278 0.011586146 -0.16435112 -0.4732572 -0.083621986 0.21739598 -0.028422713 -0.12191139 0.45795932 0.13945323 -0.6588648 0.10974067 -0.45752844 -0.19844955 0.052600477 -0.080652036 0.16812517 0.24357 0.18132806 0.09740573 0.47619173 -0.13709384 0.06644021 0.11570987 0.1842373 -0.34894207 0.11857018 -0.121522516 0.3983198 0.19075814 0.21913502 -0.1313333 -0.19500066 -0.011761064 -0.03992943 0.26594704 -0.050210074 0.18047944 -0.011515939 -0.04077758 -0.13869189 -0.13347271 0.01547896 -0.19143833 -0.041573778 -0.15480387 0.29217675 0.20010634 0.12346208 0.20912097 -0.33925194 0.66844094 -0.31462255 0.09607214 -0.22630541 0.124418356 -0.09468967 -0.3254121 0.12654845 0.16271603 -0.12621696 -0.30367038 -0.14419317 0.35306224 -0.27900162 -0.010036134 -0.016583404 0.3423893 0.23914865 -0.28883424 -0.2617154 -0.099406265 0.014655769 -0.47205254 0.44425964 -0.0014662241 0.35705698 -0.35780382 -0.05345316 0.26212814 0.0495826 0.30400518 -0.2408665 0.11902654 0.059436817 -0.13381258
1668 0.35088894 -0.30565733 0.23913038 -0.048056595 0.085432194 0.10638696 -0.036088005 0.10554408 0.19467685 -0.0801028 -0.2559735 0.4305296 0.061499633 -0.20447417 -0.23021527 -0.371493 0.20738746 0.25475368 0.24187768 -0.56347907 0.091517985 -0.23175034 -0.35903984 0.13056974 -0.108292244 -0.52035016 0.28081062 0.49876225 -0.01474852 0.43810087 0.34445298 -0.30328536 0.08082802 -0.09641636 -0.45246843 0.1708032 0.21993637 -0.23160431 -0.08626784 -0.100076646 -0.08540733 -0.055554427 -0.13868347 0.11313493 0.119143106 -0.18288499 0.06539306 -0.20131077 0.28895143 0.24031843 0.2661287 0.072559774 -0.27695382 -0.29636636 0.0071400683 0.25274724 0.08944918 0.33029008 -0.092963964 0.27795288 0.21509482 0.29473963 0.7541218 0.27194303 0.052916866 0.047031946 -0.31257904 -0.3551584 0.13238262 -0.024730125 0.40649885 0.2127629 -0.4460222 0.24278343 0.06387245 0.2999461 -0.0645101 0.2931384 0.34662482 -0.035974596 0.09930607 0.119134896 -0.09418796 -0.32897854 -0.22212721 -0.0295532 0.13475768 -0.25053883 -0.088928536 0.047204487 0.21020801 0.4375505 0.33221126 0.3100313 -0.07193504 0.21272084 -0.02225362 0.59282017 0.16679068 0.06523982 0.06417398 -0.17569569 0.10649626 0.099088326 -0.08260097 -0.18388598 -0.04131743 -0.24937749 0.16201766 0.40015814 0.40058842 0.32094282 0.004081466 -0.044707987 0.37438843 0.18551609 0.5388844 0.02600255 0.6240045 0.12625752 0.5146503 -0.07008734 -0.24507092 -0.16739951 -0.0020915426 -0.20869903 0.013072913 -0.26193085
835 -0.2138897 -0.28105772 -0.15377857 -0.11784267 0.079079315 -0.30582973 -0.11664613 -0.09484938 -0.06823279 -0.3411096 -0.049564324 0.33963874 0.11948923 -0.05525799 0.28697926 0.107345566 -0.17943135 0.36673692 0.6237582 0.14254591 0.32112652 -0.32882005 -0.29335952 0.53111416 -0.1998685 0.18003045 0.0074943644 0.14397153 0.6002915 0.3898809 -0.10595188 -0.4570165 -0.009043721 -0.46594113 -0.6442648 0.39157462 -0.4222108 0.13180774 -0.041055404 -0.33425173 -0.27950728 -0.30794057 -0.10529339 -0.12987702 0.0580508 -0.25883022 -0.1056889 -0.07566999 -0.041077103 0.26004943 0.6292284 -0.1396163 -0.4539469 -0.23412205 0.03951294 0.38603634 -0.05306167 0.34899214 0.47337598 0.34434292 0.14098592 0.11139863 -0.05257107 -0.31257653 0.49053255 -0.06503723 -0.17500556 -0.06706693 0.22403051 0.51476437 -0.13991092 0.54702014 0.14159195 0.15452258 -0.5569113 -0.33702257 0.007884048 0.18627594 0.18297845 -0.08959626 -0.060589936 0.39482874 -0.30340737 -0.2052898 0.14749084 0.00729794 0.16135594 -0.20107609 0.04994295 -0.08168431 -0.058404136 0.26664552 0.025897339 0.4562591 -0.11937525 0.028872894 -0.0031231265 0.0032092005 0.0539418 0.043488648 -0.34119606 0.06468785 -0.14696334 0.1655452 -0.3964167 0.09042545 0.09419863 0.20034356 -0.1397792 0.08690066 -0.58403826 0.13246308 -0.21774557 -0.1950476 0.23559004 -0.30121967 0.7885084 0.3007652 0.08256769 -0.16123743 0.0041172123 0.032674827 -0.19372067 0.17803206 0.19996364 -0.14213935 0.12072981 -0.2043596
259 0.103201866 0.34697857 -0.20483124 0.12559375 -0.09923982 -0.27943465 0.22313498 0.36438173 0.31931752 -0.42835408 -0.13842283 0.22494826 -0.016129795 -0.32556707 0.1515751 -0.085261375 0.07360659 0.16347887 0.41563374 -0.5941427 0.39246616 -0.25725606 -0.25838086 -0.044355508 -0.14110413 -0.4768365 0.062471796 0.41528967 0.005842667 0.1435643 0.2045917 -0.0107531445 0.08700966 -0.32561755 0.04791531 0.59640616 0.068867244 -0.042879205 -0.07671916 -0.48171726 -0.104777075 0.09615259 -0.5103111 0.18253879 -0.026734756 -0.10034729 -0.20963445 -0.21850136 -0.18984365 0.43373042 0.47164467 -0.054257806 -0.5370256 -0.3761047 -0.64673394 0.32957882 0.0072474866 -0.17402989 0.21004935 0.08922023 -0.42344686 0.021776902 0.19028237 0.111307666 -0.078251004 -0.08409895 -0.07875748 -0.30283767 -0.064297535 -0.21355478 0.13642494 0.009531358 0.26243597 0.105195954 -0.2773884 0.2185153 -0.00016102692 0.2696111 -0.08689295 0.09892828 -0.27508664 -0.41138676 -0.23220177 -0.4714944 0.23349456 0.35560113 0.1838785 -0.19875011 0.051513415 -0.04564505 0.20996079 0.26778686 0.009818979 0.10111082 -0.18129048 -0.07476751 -0.09988623 0.38929763 0.2438227 -0.07963038 -0.08566328 0.029769193 -0.07141861 0.021110613 -0.04622193 0.02581358 -0.4770005 -0.53601336 -0.032061614 -0.07726714 -0.12680866 0.086028166 0.11221356 -0.1584309 0.079913355 0.20181148 0.036608104 0.06641611 0.514383 0.050848503 0.17161253 0.41632187 -0.2955975 0.05283563 -0.035638157 0.05735819 -0.76472074 -0.28383964
1613 -0.17641367 -0.052977398 0.071754344 -0.056460533 -0.1133823 0.32181796 0.25249752 0.22650033 0.57395416 0.15476145 -0.26581526 0.025890945 0.070168614 -0.082316056 -0.096281 -0.30207863 0.25910437 0.45797092 0.1645261 -0.2886159 0.28437144 -0.49367076 -0.04963983 0.4312745 -0.2669027 -0.05706571 0.24433658 0.33446792 -0.14335957 0.45503548 0.4568805 0.014650436 0.31990048 -0.14541253 -0.2956462 0.390521 -4.5954323e-05 0.27527824 -0.24173196 -0.22707246 0.27600512 -0.10644387 0.10932694 0.10473748 0.055345103 -0.3854723 0.34075838 -0.4997909 -0.1898236 -0.02564185 0.09609365 0.03761272 -0.6036599 -0.39813098 -0.04992686 -0.044831086 -0.20671766 0.39517665 0.12090757 0.1328403 -0.300433 0.2645154 0.9144469 0.36051145 -0.0072691357 0.05461699 -0.026041456 -0.25748852 0.10919734 0.08449714 0.4636135 0.15821868 -0.27423745 0.2851224 0.11062552 0.4106519 -0.20190635 0.1412848 0.5091467 0.091669 0.31976023 0.064009376 0.1283187 -0.20434448 0.120568976 0.21186858 -0.018434579 -0.1661272 -0.024637375 0.13857257 0.095730975 0.2585487 -0.0064788945 0.23279652 0.16423137 -0.2805686 -0.07646742 0.4464244 0.088271916 0.018228801 0.11067789 -0.014484591 -0.056649182 -0.012779014 -0.051805556 -0.054480713 -0.24718963 -0.11511933 0.15554215 0.43746853 -0.20809306 -0.059583027 0.04491603 0.10604709 -0.26050934 0.13385125 0.762184 -0.24278727 0.43462437 -0.14499673 0.32543197 0.008321379 -0.11022062 -0.053984053 -0.41924155 -0.14018077 -0.039781373 0.1192105
1396 0.26833734 -0.2036016 0.06715035 0.072641395 -0.102378264 -0.32744235 0.14971973 0.338846 0.5577044 -0.17562313 -0.38726008 0.30426142 0.38973334 -0.24528441 0.037359215 -0.2963046 0.5711478 -0.08329619 0.1136239 -0.319909 0.39414787 -0.11758827 -0.08727209 0.27445954 -0.29303825 -0.43789843 0.40514216 0.08483829 0.032611772 0.18599299 0.26407585 -0.17378022 -0.34513605 -0.19940822 -0.28789467 -0.22127692 -0.20104542 -0.11264588 -0.051866762 0.053855587 0.14950705 -0.17457429 -0.42745957 -0.10863956 0.085221924 -0.26132965 0.06437234 -0.29022968 0.18986972 0.34546074 0.25828025 0.28560063 -0.3886321 -0.3277397 -0.046661202 -0.12706845 0.039031632 0.18823853 0.24574272 0.30608478 -0.4525912 0.117665924 0.7323842 -0.016964499 -0.27599218 0.00968113 -0.23764871 -0.27944124 0.31383526 0.05995191 0.16085799 0.47692722 -0.28027576 0.17534646 0.08076199 0.23878196 0.15895046 0.43820623 -0.020464513 -0.20533933 -0.14810161 0.18719818 0.09741384 -0.4263673 -0.16271023 0.20804088 0.20608196 -0.42201006 -0.09368705 -0.02625915 0.24374107 0.12935631 -0.16569261 0.20988165 0.05919657 0.06369218 -0.02657484 0.45568168 0.19449674 0.2979843 0.026900016 0.027868267 0.09706098 0.26253644 0.1305543 -0.069841325 -0.16748749 -0.07719289 -0.28089753 0.40756482 -0.13655233 0.007177868 0.17194803 -0.20841658 0.63934547 0.177794 0.5398833 -0.21975112 0.4001383 0.3465038 0.032672115 0.47271022 -0.35797405 0.16795866 0.15970473 -0.11951999 -0.19962764 -0.074602544
1410 0.10129434 -0.38754737 -0.16801286 -0.3129889 -0.1167043 -0.1148329 -0.050737157 0.044289943 0.17053613 0.0037418157 -0.16857569 -0.0087592965 0.36849242 -0.019780472 -0.10374967 -0.12901281 -0.10605086 0.644484 0.6410834 -0.1556535 0.021430865 -0.379692 -0.026716223 0.2947241 -0.37632447 -0.32372612 -0.18088713 0.04700235 -0.25163597 0.13058977 0.25480908 -0.081707716 -0.19742076 0.04828581 -0.61943614 0.049699664 -0.13001308 -0.26222152 0.38800976 -0.53245443 0.1699396 0.08216895 -0.44011834 -0.11158304 -0.370263 -0.44779024 0.2551158 0.22599038 -0.04428589 0.20158687 0.47083345 0.20817296 -0.33425605 -0.48304623 -0.0917168 0.028246135 -0.22868966 0.5355448 0.091001496 0.07189203 0.06383684 -0.040901534 0.11343804 -0.25781003 0.112769604 0.0923955 -0.7616904 0.10007283 -0.019522259 0.030622631 -0.19339128 0.3579369 0.08059091 0.28581113 -0.26033056 0.015768979 0.20017032 0.31445965 0.35832605 -0.540546 -0.02768754 -0.07278685 -0.3609231 -0.008682547 0.3227077 0.06711824 -0.057660356 -0.6354147 0.20076413 0.20913222 0.51423424 0.21596356 0.005655321 0.021357637 0.42553872 0.011313091 -0.2318415 0.64509314 0.077604376 0.13213332 -0.16746709 0.07280756 0.39630136 0.21113296 0.069490954 -0.13781673 -0.26711553 -0.15470731 0.05555985 0.06659869 0.044698395 0.38712442 0.21813464 -0.16137019 0.016735697 -0.12769437 0.20858169 0.0060894177 0.25224254 0.24095231 0.0043706484 -0.1531729 -0.37622514 -0.43721828 -0.17552039 0.07317062 0.08271641 -0.15633358
444 0.00423473 -0.070238225 -0.2699522 -0.21949223 -0.29527983 -0.1512951 0.013652275 0.38764837 0.040512692 0.06307871 -0.44048756 -0.26794913 -0.14116783 -0.3086393 0.070024915 -0.22620593 -0.2347084 0.28546643 0.18890557 -0.0692837 0.4886199 -0.06061516 -0.12306106 0.4801568 -0.04332586 -0.325812 0.22756036 0.010950998 0.009053376 -0.0912572 0.009601021 -0.53363657 0.22526465 -0.071692586 -0.4986939 0.3881748 -0.6193639 0.10639998 0.39861345 -0.22646682 -0.35992697 0.28160846 0.0050396207 0.34943578 -0.16534157 -0.2269702 -0.29371092 -0.10327121 0.1848263 0.06390104 0.3320697 0.27324206 -0.19989045 -0.08167663 0.3934434 0.027907474 -0.10794649 0.65665615 -0.01816182 -0.12828763 -0.021125663 -0.07339509 0.37470722 -0.56151515 -0.16311692 0.004765932 -0.4469815 0.096585475 -0.35321364 -0.10974068 -0.18451744 0.1234694 -0.2481133 0.0019131114 -0.56606644 -0.05306003 0.034129113 0.20718722 0.34112594 -0.059948802 -0.116878815 -0.010525308 0.06392604 0.19798428 0.29736796 -0.03904233 0.45252246 -0.308964 -0.06518398 -0.18431494 0.28644222 -0.18670586 -0.18529579 0.576809 0.068185315 0.31298855 0.0014418608 0.39808545 0.7234588 -0.020866137 0.101023614 -0.06459605 0.15703073 0.587048 -0.0462418 -0.34357134 -0.3068653 0.107993715 0.19377056 0.17552501 -0.07851455 -0.089797854 0.25135526 0.13155031 -0.009131456 -0.1986542 0.29722968 -0.2923392 0.3652826 0.19640714 0.2996935 0.24214734 -0.5057009 0.13262133 -0.036384232 0.04735219 0.1332011 -0.1576411
145 -0.013763407 -0.14182726 -0.053000953 -0.39486316 0.09010089 0.08284238 0.098066516 0.5184282 0.45809203 -0.12227847 -0.13272423 0.0060057035 0.27170476 -0.15273851 -0.24071793 -0.11184799 0.30754745 0.097189054 0.21230589 0.21442755 0.4116345 0.2158812 -0.35316685 0.47055325 -0.044958096 -0.07256389 0.1786482 0.24020496 0.29072326 0.3789095 0.44709784 -0.010959234 0.6150555 -0.36128378 -0.47911036 0.055732977 -0.24844205 -0.011550744 0.68392676 0.15604325 -0.2996879 0.176414 -0.36557052 -0.31098977 -0.16984628 -0.3674213 0.046966787 -0.25405157 0.0686333 -0.03513444 0.40592313 0.3651456 -0.34216848 0.121367306 -0.32228696 0.22156712 0.25274146 -0.11800981 -0.035279587 -0.20651723 -0.04330445 0.01905718 0.18506713 0.058140986 0.25523052 0.20947424 -0.4464123 -0.05173232 0.18490054 -0.23518007 0.07091476 0.28775766 0.15561175 -0.12713982 -0.38090098 0.12792064 0.16998462 0.32877684 0.18964595 0.499084 0.089278184 -0.24124402 0.062069643 0.058712803 0.08401933 -0.2162778 0.09037714 0.08465734 -0.032798875 0.06700468 0.36123776 -0.07320297 -0.21963193 0.7258549 -0.1913227 -0.58687466 0.14103116 0.48375964 0.6193691 0.041535556 -0.006090669 0.14886032 0.264797 0.09081483 -0.2067015 -0.1248771 -0.08656169 0.020916216 -0.29701555 -0.2696586 0.11300849 -0.31394967 0.1263461 -0.15173489 -0.14489534 -0.2549979 0.3734775 -0.083761625 0.1756846 0.27556854 -0.09211556 -0.24489129 0.0051804096 0.11371166 0.01113568 0.3806469 0.13304274 0.05309652
1344 0.28315642 0.07392543 -0.4968975 -0.43813765 0.3966634 0.038658194 -0.05777466 0.21354026 -0.32978192 -0.11196195 -0.46788245 0.5494521 0.076375306 -0.30835718 -0.04805824 -0.26586184 0.6719374 0.5096062 0.26457956 -0.50666225 0.34260318 -0.028141182 -0.1461699 -0.16549845 -0.39410338 -0.28015944 -0.4954764 -0.00959927 0.23435521 -0.17084017 -0.13432866 -0.44015792 0.36607337 0.3256259 -0.22262408 0.34730247 0.14796251 0.099958755 0.1188931 -0.007749917 -0.3947733 0.1586961 -0.087310456 -0.06643174 0.072379276 -0.0534817 0.11461953 -0.2063 0.09853747 -0.2612895 0.5160562 0.08937985 -0.43543065 -0.53694034 -0.533541 -0.36645794 0.036855947 0.0065964656 0.25603536 0.5366736 0.13990998 0.064774334 0.2536383 -0.028482994 -0.06684775 -0.14664148 0.106858745 -0.07645682 0.032024264 0.18927668 0.20649093 -0.06787832 0.21779886 -0.36671305 0.120507896 -0.51238436 0.23719746 0.37825224 0.22169118 -0.22984286 -0.09451001 0.0068892045 0.2000291 -0.26887813 -0.1807951 0.3949591 0.011111185 -0.017215598 0.07021452 0.038952846 0.05092497 -0.04853835 -0.11289262 0.23888168 0.11427521 -0.07414337 -0.4031281 0.062256947 0.38819432 0.11658519 -0.30316335 0.19555062 0.08536309 0.26169682 -0.26821792 0.09605577 -0.49766546 -0.19752568 -0.39838356 0.07873095 -0.2570129 -0.05876782 0.43854225 -0.31289694 0.0053688916 0.07541602 0.49480996 -0.23890394 0.37279347 0.22314379 0.11784681 0.41343954 -0.3337757 -0.4679802 0.23035099 0.0085473 -0.24422298 -0.2823819
275 -0.010790571 0.022182165 -0.051755328 -0.1704608 -0.22873983 0.20678808 -0.17328715 0.32230076 0.14799924 -0.11659839 0.17219786 0.38008505 0.25101787 -0.13577731 0.14671895 -0.5406039 0.22444153 0.264171 0.029756665 0.11917598 -0.15889949 0.054792497 -0.050794426 0.114279926 -0.20634684 -0.51569873 0.30723396 0.46633968 0.044671465 0.29238778 0.35576504 -0.45191342 0.028860942 0.19994888 -0.09724854 0.54406226 -0.18694654 0.18361564 -0.004662537 0.037031796 0.18887007 0.0063469415 -0.27184525 0.3235781 -0.016360391 -0.2961117 -0.41724265 0.034761477 0.041715074 0.2837226 0.5253013 0.391196 -0.4336525 -0.41022846 -0.064616844 -0.48664132 -0.35068977 0.121333934 -0.24972488 -0.058374498 -0.46428514 0.13150325 0.50716686 -0.0638682 -0.16988248 0.040416103 0.10924959 0.113629006 0.24118137 0.28691173 0.33525273 0.9082511 -0.31466058 -0.0931696 -0.60749704 -0.11357442 -0.21344657 0.68746865 -0.14507568 -0.20981108 -0.1514488 0.22369169 -0.14141485 -0.074067004 0.2774124 0.39257553 -0.21455967 0.121310726 0.057456452 -0.08155913 0.3090187 0.18068703 0.048355494 0.43770573 0.11651037 -0.1160214 -0.08160706 0.2172717 0.3162141 -0.16823809 0.16391096 -0.2056318 -0.35250798 -0.15867701 -0.0642295 0.07388807 0.0291491 0.06586706 -0.10148552 0.16635227 -0.06744237 -0.005508896 -0.21950224 -0.34532958 -0.21610363 0.006019121 -0.003290065 -0.1736365 0.34314707 0.0610553 0.16826668 0.31721845 -0.26125205 0.14553769 -0.25902772 -0.1666978 -0.3885389 0.06512564
1329 -0.09525586 0.15613899 0.07555044 -0.22933613 -0.25810874 -0.35664123 0.31300092 0.3153189 -0.30921757 -0.06044261 -0.42424768 0.3118235 0.088421516 -0.08813701 0.011257627 0.23390627 -0.009729809 0.3694927 0.36638442 -0.0032179242 -0.01312656 0.2690625 -0.30467075 0.26262057 -0.008718905 -0.13577844 0.41426376 -0.12496813 0.027087834 0.22673342 0.079613626 -0.12052811 -0.07222951 0.043017663 -0.43501794 0.3041244 -0.5152727 0.2812666 0.19094911 -0.4230497 0.2710387 0.53877586 -0.27491602 -0.33917373 -0.10382359 0.058177292 -0.03238503 -0.01796278 0.21339034 0.07796272 0.42491484 0.6940096 -0.30765826 0.27863657 -0.028179636 -0.33385238 -0.00030868163 -0.0015260236 0.11900188 -0.026485391 0.095440805 0.2029945 0.05862162 -0.10963811 -0.0016881074 0.26250342 -0.65957314 -0.27456307 0.22980228 0.10691815 -0.09192977 0.6648633 -0.2307556 -0.09644747 -0.07549176 -0.08467216 0.25788167 0.12665482 0.60587907 -0.29802704 -0.013788005 -0.008977621 0.14978127 -0.42785013 0.49297056 -0.0038972506 0.2730957 -0.4168054 -0.051604092 0.6322304 0.3456749 0.26928854 -0.19558024 0.64311415 0.1896408 -0.43492153 0.054955706 0.039875202 0.55564606 -0.22985764 -0.107748926 0.18701346 -0.34010753 0.4289833 -0.18580258 0.057054617 -0.40073636 0.12671293 0.20883334 -0.1936407 0.08491535 0.35680723 0.37419778 0.16084528 -0.21155927 -0.22331119 0.007816566 -0.13496016 0.0790317 0.24350457 0.3616143 0.21471396 -0.21031862 -0.4001283 -0.08345626 0.07831712 -0.085246846 0.009101909
1504 -0.07162203 -0.1520386 -0.10220985 -0.10937971 0.022113908 -0.20566249 -0.0002998725 0.4065849 0.21420994 -0.41697493 -0.08387653 -0.007252564 0.16512473 -0.18765758 0.15050259 0.037590507 0.37637663 0.03609265 0.16375256 -0.20353483 0.19518796 -0.35277516 0.1633986 0.39859384 0.12218939 -0.025418917 0.03428831 0.22218555 0.50477433 -0.22191794 0.17715928 0.38788882 -0.20299011 -0.2453052 -0.37569168 0.5490443 -0.50870323 -0.016862027 0.57236713 -0.17123404 -0.04082626 0.2683168 -0.18608738 0.027639778 0.310015 -0.053850144 0.008305889 -0.0003104254 0.28911453 -0.19999318 0.41843963 0.21587798 -0.49701223 -0.28062358 -0.26330784 0.3861588 0.16430092 -0.017569322 -0.09623028 0.25487345 -0.27038744 0.67813134 0.28906545 0.15918572 -0.27096093 -0.36237958 0.026275361 -0.08701007 0.6239587 0.16493616 0.51997966 0.020784253 -0.12542698 -0.1437177 -0.12657055 -0.030421857 0.07418722 0.39139542 0.3871828 0.23687711 0.028426623 -0.16229916 -0.39710203 0.008560226 0.18241633 -0.18103053 -0.20975284 0.032532964 -0.29549444 0.07139255 0.22527558 0.49338338 -0.0018457897 0.63617903 0.023991762 -0.1522803 0.07774315 0.43817964 0.2501748 0.3403628 0.6602357 0.048425548 -0.08945029 -0.40006462 0.31608492 0.09445491 -0.20051028 -0.12204831 -0.09220416 0.08013527 0.11025005 -0.38368535 0.2273544 0.1506981 -0.4752119 -0.23826382 0.23367244 -0.0028160785 0.20182025 -0.44836617 0.08940424 0.15602751 0.13360226 0.33642548 -0.4293332 0.0782681 -0.07965843 -0.02283061
30 -0.10420814 -0.34882998 0.028329417 0.4076884 -0.10279581 -0.25551736 -0.15767466 0.46628195 -0.30445266 0.05462369 -0.3705927 0.25987527 0.28322402 -0.07056851 -0.14815146 -0.057199486 -0.057412952 0.65854985 0.10620854 0.23036501 0.38615164 0.038161997 -0.39395773 -0.12997875 0.19716498 -0.12307354 0.13715473 -0.45250583 0.38136587 0.48929033 0.21384904 -0.11809573 -0.12274798 0.15824714 0.16440842 0.21168697 -0.5227584 0.07274153 0.35215092 -0.1641681 -0.09527037 -0.008455702 0.1005036 -0.0454235 -0.24464619 -0.002637403 -0.048930686 0.0021101276 0.34026593 0.27016023 0.3201534 0.086084016 -0.45780128 -0.16729882 0.106115974 -0.01083164 -0.15779994 0.0992618 0.12410325 0.066026665 0.07717057 0.17832287 0.18057838 -0.21535866 -0.26297522 0.22180374 -0.2381396 0.080512404 -0.06312844 -0.006305891 0.12552023 0.26986805 0.084107146 -0.057210833 -0.15510403 0.10459489 0.40654898 0.32764527 0.26906723 0.04687409 0.1059203 0.058509488 0.01384573 -0.11365179 0.18554102 -0.15708956 0.028951865 -0.48658648 -0.14065975 -0.19555707 0.9729661 0.22817847 -0.14108245 0.12721808 -0.003395877 -0.15459675 -0.18699706 0.4724663 0.214276 0.12581475 -0.0890412 -0.12830615 -0.41530105 0.044120975 -0.21954072 0.10755139 -0.7189331 0.12804294 -0.14470115 -0.00062087417 -0.01306738 0.0896235 -0.16801538 -0.5844066 -0.49458253 0.1950352 0.3599159 0.14472668 0.5601284 0.47665462 0.22074382 0.35790986 -0.8074954 0.107366994 -0.10532568 0.2982037 0.085247114 0.20155261
1762 0.22215511 -0.23240054 -0.09013702 -0.09671445 0.043782502 0.0005121479 0.058740333 0.1023082 -0.22686812 0.17594059 -0.059644986 -0.33288878 -0.07229702 -0.190857 0.06495061 -0.10003151 0.38979995 0.11791365 0.11471355 -0.18049477 0.5936054 -0.16112562 0.0075310855 0.66708285 0.24849977 -0.024623424 0.37115183 0.38320416 0.48161647 0.09664237 -0.09132728 0.3430413 -0.3584268 -0.15930155 -0.48328868 0.8143273 -0.19002064 -0.2192502 -0.028574653 0.14632683 0.32888502 0.13351776 -0.18776946 -0.19463436 -0.04594938 -0.09745104 -0.09101644 -0.117826566 -0.04259536 -0.07695288 0.52274907 -0.13473262 -0.17348923 -0.24410588 -0.3746256 0.06060961 0.35705766 0.21222463 -0.17019103 0.18020025 -0.071215846 0.22620761 0.16174495 0.18363318 -0.09820875 0.43962944 -0.21654518 0.069143705 -0.057352908 -0.026790284 -0.013675658 0.12134515 0.4315081 -0.37408647 -0.3146523 0.0042516054 0.02716901 0.5935793 0.041683882 0.04596339 -0.45836708 0.26043937 -0.26466334 -0.2104444 -0.12859496 0.03305677 -0.13144954 0.055847753 0.09047671 0.20981738 0.68955 -0.0049656956 -0.30795145 0.8463415 0.2648723 -0.26499063 0.03792644 0.3201148 0.043959018 0.10850521 0.188969 -0.06983145 -0.10019645 -0.38251153 -0.17657124 0.40232757 -0.15461703 -0.117127895 -0.1896607 0.34573025 -0.014014473 -0.36143017 0.24699764 -0.05022745 0.01519779 -0.5821359 0.49531752 -0.34010598 0.22828908 -0.03436387 0.3456831 -0.074238606 0.122158706 0.5693828 -0.22639927 0.06998535 0.1844335 0.24132954
279 -0.42800197 -0.13353258 0.15271254 -0.42659906 -0.15497792 0.06471814 -0.28571326 0.54821754 0.14492539 -0.40743512 -0.0041700937 0.29999375 0.03703936 -0.45949167 0.20101167 0.08227121 0.033714697 0.25986484 -0.03437298 -0.27530703 -0.0026395454 -0.29085928 -0.16890718 0.26165113 -0.070318475 -0.48041627 0.23655385 0.34375376 0.44206208 0.39090642 0.0009847822 -0.2839601 0.045745365 -0.18521088 -0.13309118 0.37053502 -0.42919397 -0.113197304 0.06344174 -0.08071727 0.41012323 0.12262244 0.2861867 0.10033788 -0.04466644 -0.30512935 0.08919901 0.15961891 -0.23158461 0.061364554 0.8002222 0.14103653 0.07494269 -0.28751326 -0.34817612 -0.10122847 -0.05638512 0.20823197 0.3113481 -0.11887805 -0.47494605 -0.3468784 0.71397525 0.271705 0.056707706 -0.09804733 -0.27708638 0.13916795 0.41649917 0.35945833 0.11135192 0.21508421 0.22553512 -0.21261409 -0.22852917 0.47538793 0.18152937 0.4484318 0.26822618 -0.1689433 -0.2207803 -0.32406053 0.35267416 0.06582253 0.35356277 0.36274293 0.30967283 0.016459474 -0.27051976 0.074083164 0.7032335 0.0033146853 -0.28081968 0.36560354 -0.21204832 -0.087952785 0.012540174 0.16480257 0.4553057 -0.011118945 -0.30429778 0.115373336 -0.01958654 0.13706434 -0.23530501 0.06870951 -0.40943143 0.19220866 0.27566844 0.45940512 0.15147835 0.1263058 0.0075213 -0.090244345 0.035632677 0.29891446 -0.00868335 -0.38979796 0.11411497 0.07103962 -0.032917637 0.32708728 -0.233819 0.0051221 -0.13957858 -0.083799295 -0.10690889 -0.23225155
358 -0.26528135 -0.05421732 -0.34790912 -0.14839378 -0.040189695 -0.106655166 -0.060064 -0.006080682 0.050367445 -0.45104274 -0.27113017 0.18018308 0.31557187 0.08076295 0.22878446 -0.053254142 0.42904606 0.2062272 0.327661 -0.30118257 0.28372744 0.1141849 -0.39152345 -0.047121067 -0.15456808 -0.27790082 0.35447377 0.4447342 0.013623688 0.28592554 0.17206825 -0.2967583 -0.01615254 0.08646098 -0.06064027 0.51268005 -0.38094887 0.005359763 0.3761596 0.14212899 0.23267664 -0.13108228 -0.25945356 -0.02471752 -0.34591234 -0.16222298 0.07553771 0.019539258 0.027575355 0.36016446 0.3542097 0.0985364 -0.7760978 -0.2979935 -0.32269892 -0.42734218 -0.14889276 0.15708604 0.2702793 0.3397702 -0.23618665 0.47945088 0.19621032 -0.24440098 -0.056374136 0.23754784 -0.21039559 -0.11412036 -0.11807375 0.019441409 0.5210594 -0.045976307 -0.063528374 -0.26276192 -0.2596876 -0.11001233 0.016503232 0.40513545 0.18614389 0.29564267 0.1511516 0.013582958 0.067562036 -0.13703752 -0.39259484 -0.17173614 0.085624084 0.10174057 0.2219729 0.23879862 0.47375444 -0.14747263 -0.0857823 -0.051934704 0.15655258 -0.026872216 -0.011686475 0.6795201 0.42904007 -0.12269308 -0.50656104 -0.47661147 -0.062329974 0.14373773 0.16786039 0.16078393 -0.045743704 -0.23405555 0.45067316 -0.15457545 -0.3710325 0.12697896 0.20747264 0.041498195 0.5103241 -0.07254482 0.22433084 -0.13182054 0.35806102 -0.09298504 0.2441946 0.23422502 -0.034882177 0.19996986 -0.34920222 -0.15743406 -0.0064144023 -0.82087123
1501 0.16232467 -0.2503145 -0.24300547 -0.37477502 0.449981 0.0502528 -0.48568624 0.13311632 -0.109590754 0.08892101 0.16974944 -0.21411729 -0.18656723 -0.006188532 0.09050269 -0.4526228 0.21254042 0.036608778 -0.014856965 -0.3993262 0.31077355 -0.36046267 -0.6665985 0.28247097 -0.007469714 -0.4618621 0.19565003 0.14710219 0.32557878 -0.15197796 -0.06664512 0.27826503 -0.3090439 -0.5351096 -0.44471636 0.057404865 -0.20337833 -0.048057932 0.1562814 -0.25970012 0.4463543 0.15172172 -0.044229772 -0.37693062 0.18141142 -0.106321245 -0.002986781 -0.20982808 -0.044676147 0.19618793 0.39385167 0.06655605 -0.55411345 0.03963061 -0.19616963 0.111926325 0.21462934 0.14891697 0.084512845 0.21707359 -0.36445478 0.77523726 0.18917601 0.28437543 -0.006338991 0.049212262 -0.12549137 -0.32263997 0.13469228 -0.22163579 0.21180874 0.14086697 0.04859006 -0.6788164 -0.0700354 -0.25049692 -0.04849361 0.3711911 0.0981118 0.2373029 -0.23587655 -0.21554956 -0.12257009 0.043830536 -0.18300837 0.22512987 0.06310206 -0.19306043 -0.1850766 0.413525 0.5105266 0.29923669 0.019977868 0.6918631 0.20689432 -0.13873182 -0.05920716 0.32533064 0.2905918 -0.107948154 0.25271916 0.22657126 0.25354666 -0.59195673 -0.1046057 0.2687939 0.06792449 -0.23502085 -0.257642 0.00047882512 0.07253629 0.08113754 0.019574385 -0.027093587 -0.56076425 -0.5129712 0.050938386 0.24393898 0.36586842 -0.31941295 -0.18636017 0.24453986 0.1387148 0.09113454 -0.35956168 0.05361244 -0.20320675 -0.099419646
1029 0.31779143 -0.27157018 -0.12663186 -0.14412257 0.011699201 0.028683033 0.098472744 0.14415574 -0.026115026 -0.07099546 -0.54571396 0.09756494 0.47700447 -0.14314084 -0.24770088 -0.42710403 0.09443583 0.20556271 0.1611388 -0.5898206 0.1549472 -0.3670921 -0.09274831 0.38705838 -0.43697223 -0.34563044 0.3144639 0.26504597 0.090398595 0.17184432 0.03384897 -0.15245812 0.12653592 0.031192591 -0.06589775 0.3988807 -0.033780083 -0.09342829 -0.37305608 -0.22040202 -0.04106454 0.02577311 -0.33670342 -0.1676163 -0.14358138 -0.11376389 0.015605766 -0.292683 0.4585625 0.17767018 0.12406452 0.089168094 -0.27568156 -0.5797042 -0.07390741 0.35737222 -0.22350498 0.48341525 0.10309746 -0.08180333 0.15996428 0.18464053 0.63965106 0.110033914 -0.020494914 0.4550008 -0.40096486 -0.16189507 0.19633791 0.2411063 0.47401562 0.34032303 -0.49640033 0.062382568 -0.060222737 0.033563122 -0.27733198 0.42271107 0.3658658 -0.11916648 0.062827826 0.0045298594 -0.0046778657 -0.36674795 0.14876162 -0.18329714 0.015611436 -0.68843925 0.18317927 0.1808391 0.20246725 0.47812423 -0.21228331 0.16107629 0.38059542 0.39381692 -0.0666825 0.7421888 0.020325657 -0.015669262 -0.25983065 0.072769865 0.1745935 0.096946456 -0.23747262 -0.197699 0.11883423 -0.2227511 -0.05782402 0.26568654 0.01481781 0.06473096 0.1660642 -0.13253967 0.32237786 0.38760522 0.4423229 0.1915853 0.6481271 0.23161197 0.030292243 0.13122548 -0.09637101 -0.22630318 0.24878217 0.059563503 -0.2147836 -0.16616341
630 -0.18443592 -0.36508116 0.017497398 0.046499096 0.099686444 0.16804403 0.11322351 0.5403906 -0.28928947 -0.34155512 -0.36995235 0.11905677 0.08217053 -0.13487858 0.19475356 -0.1961802 0.06934556 0.21170865 0.21633664 -0.1102105 0.003441551 0.02672657 0.006991414 0.31219828 -0.29081783 -0.1791173 0.17184012 0.055821083 0.004740208 -0.3308825 0.34162867 -0.35577446 -0.1389016 -0.30748388 0.029161174 0.4547125 -0.0018392465 0.12897591 0.20562324 0.22819823 -0.22405905 0.5089805 -0.082552046 0.06850277 0.039619055 -0.27985623 -0.045259193 0.0611303 -0.45479894 0.2010546 0.6870619 0.31591773 -0.5811222 -0.29488492 0.053415168 -0.036915243 -0.19760019 0.0029285897 -0.0120449485 -0.010540811 0.16547503 -0.10404538 -0.009236179 -0.24884951 -0.38193673 0.44822603 -0.4935911 0.0052043465 -0.43575978 -0.30658227 0.105779506 0.5040568 -0.2659278 0.3599516 -0.381234 -0.40323463 0.28986534 0.16056536 0.71783215 -0.07424791 0.020355321 -0.08663249 -0.49945995 -0.10719742 0.2825015 -0.11226684 0.39960372 -0.27527383 -0.2156895 0.4813362 0.3903603 0.2166084 -0.16224922 0.433635 0.14457195 0.033187374 -0.07345238 0.33315584 0.53803945 0.25848347 0.03292091 0.19032875 0.109479435 0.3404668 -0.08236984 -0.38282108 -0.064116076 0.0011239237 0.15049712 0.12617281 0.14509675 0.17309247 0.3144177 -0.12229543 -0.292398 0.14065133 0.3305501 0.101540245 0.33434987 -0.09280572 -0.091398776 0.10184394 -0.37060297 -0.17678536 -0.24756768 -0.08191371 -0.0018353408 -0.19083598
71 -0.18901703 0.43795195 -0.30551308 0.37997568 0.120596185 0.051701646 0.052813455 0.63084924 0.16659684 -0.48179585 -0.30406532 0.15151976 0.3330889 0.01722419 -0.14607182 0.07798254 -0.2520273 0.4449507 0.24855272 -0.074682094 0.28127488 -0.21487303 -0.37087965 0.35704356 -0.14614224 -0.43992588 -0.13617945 0.059134506 0.0024996593 -0.015618051 0.21807021 -0.20437585 -0.20119968 0.22031511 -0.65573126 0.05206866 0.25135377 0.1781536 0.119642735 -0.31058607 0.40768686 0.35104358 0.113555364 -0.018461583 -0.4354936 -0.29935324 0.121335365 0.07662239 0.43125272 -0.018803848 0.6353325 0.115813315 -0.47020343 -0.15361755 -0.0698918 -0.054477245 -0.59776366 0.15447587 0.1305627 0.31936297 -0.33255342 0.27449825 -0.14884745 0.29654923 0.085074194 0.34597376 0.08515848 0.011339883 0.2013383 0.37629792 0.056393895 0.5862163 0.37445384 -0.14734127 -0.04701436 -0.14237258 -0.040483456 0.34849972 -0.07182438 0.29985806 -0.04981031 0.04190698 -0.034722444 0.031191686 0.26763606 0.2723128 0.2215255 -0.12184555 -0.02951922 -0.33264825 0.54048514 0.10480696 -0.1859694 0.6034036 -0.27236545 -0.21482196 -0.12613943 -0.033194087 0.31719974 0.14611739 0.053176165 -0.00828353 0.30367884 0.22941144 -0.08303538 0.0077532446 0.042290177 0.2704508 -0.09936 0.424207 0.058099736 0.15314245 0.46775186 -0.5562372 -0.2110987 -0.3789925 0.3772114 0.25689065 0.2577434 0.25999027 0.34320784 0.19441423 -0.7604546 0.15776055 0.059438 -0.029808868 0.33851853 0.08273061
1399 -0.09558939 -0.18017563 0.24247561 -0.0657698 0.31214595 0.1923432 -0.07922804 0.9912833 -0.11059294 -0.4021975 0.009598459 0.14090809 0.0539494 -0.076985545 0.22261332 -0.46336406 -0.26560414 0.14645524 0.055012092 -0.024053821 -0.11862642 -0.36505526 -0.38318774 0.34174055 -0.46493262 -0.3773272 0.2484369 -0.062550016 -0.052069247 -0.30227545 0.42575613 -0.24953552 -0.02189401 -0.34297076 -0.23924814 0.52799207 -0.51829374 0.15046062 -0.25006226 -0.10401011 -0.20770405 -0.43029174 0.23762366 -0.04038179 -0.25733602 -0.17757314 -0.10954645 0.19810827 0.11019489 0.33364385 0.19264762 0.094378494 -0.34193128 -0.12270758 -0.21969295 -0.01321709 -0.28545433 0.26597145 -0.4016549 0.058938973 -0.26655018 0.0753508 0.46466678 -0.057638455 -0.16392069 0.03069229 -0.24695173 0.19473754 0.27971113 -0.26778814 0.30216977 0.37808916 -0.37605247 0.06015359 0.044227835 -0.21962002 0.19727033 0.5439294 -0.13780119 -0.23209596 0.084916495 -0.2583668 -0.00627035 0.032379836 0.19049709 0.11333076 -0.1250557 0.12736274 0.1164902 0.20630255 0.522509 0.28345096 -0.29317182 0.35053733 0.049383607 -0.03236633 -0.19259466 0.44346383 0.31841233 0.23911163 -0.41287437 0.35788515 -0.1029761 -0.039956674 -0.060362723 -0.064148396 0.003727715 -0.23679268 -0.068365514 0.16960365 -0.2796058 0.53699714 0.047077477 0.3148337 -0.05519036 0.06126188 0.20076908 -0.331481 0.5085032 0.12036482 0.52994424 0.7306124 0.31654093 0.056311365 0.052844595 -0.22980122 -0.23874594 -0.32744822
1505 0.34749597 -0.6411869 -0.19696513 -0.33374527 0.10902248 0.12220393 -0.22718713 0.49714154 -0.083811864 0.16703995 -0.1845245 -0.08740556 0.16459629 -0.13159774 0.2006657 -0.058877394 0.45994714 0.085854515 0.18640298 -0.1719164 0.44504228 -0.38646308 0.18136062 0.2544492 0.13503754 -0.23702979 0.33280402 0.40120393 0.5601567 -0.15311812 -0.19494724 0.8184099 -0.29769668 -0.29585174 -0.4212071 0.6434218 -0.3542418 -0.06840823 0.6018479 0.1797557 0.1350398 0.19971044 -0.26609161 -0.25743112 0.106229946 -0.20376363 -0.10210029 0.02651136 0.22239797 -0.10837367 0.47546998 0.21295525 -0.53906894 -0.31124124 -0.21877663 0.2659476 0.16424817 0.0788722 -0.06671131 0.18012004 0.032351963 0.5139886 0.2911312 -0.0038275095 -0.0060293125 0.16361989 0.1169451 -0.4760655 0.3091804 0.13300647 0.08167821 0.23793966 0.26494712 -0.16891333 -0.23729259 0.0033277099 -0.24998327 0.28594437 0.37954322 0.39646277 -0.33648115 0.040984217 -0.122910336 -0.21682732 0.07641855 -0.15392679 -0.116921276 0.0855394 0.17184219 0.34157485 0.37822646 0.17842253 -0.4179308 0.8021798 -0.05202177 -0.033386756 0.08372428 -0.041606937 0.06416406 0.11921491 0.16250758 -0.23944055 0.020354874 -0.15569945 -0.038697924 0.14728607 -0.013575578 -0.06755183 -0.15209879 0.07654235 0.3063163 -0.44166517 -0.35472107 -0.1379255 -0.3716501 -0.17769152 0.12952225 0.010275183 0.057518426 -0.16491924 0.124061935 0.09369022 0.05075441 0.02301877 -0.40226823 -0.2622014 0.1238809 -0.14744739
52 -0.22516131 -0.04698457 0.053517114 -0.069555156 -0.120922714 -0.14973702 -0.13874458 0.35769865 0.29867086 0.03331649 -0.19899893 0.1967577 0.21178852 0.31015772 0.22473809 -0.3162142 0.25859466 0.15912694 0.24414904 0.18218602 0.08313234 -0.42015845 0.12396413 -0.053517766 -0.09614392 -0.5198899 0.22572693 -0.25276324 -0.34789997 0.1332203 -0.08042594 -0.44706252 0.25958937 -0.012138575 -0.31434435 0.4735697 -0.26827678 0.13116315 -0.1981464 0.004087215 -0.059080265 0.21673857 0.12074656 -0.15931943 -0.44348523 -0.2946551 0.093214236 -0.0053678825 0.1984495 0.39714637 0.17340659 0.4861185 -0.61574453 -0.27614444 0.0530533 0.050402857 0.031452324 0.4110723 -0.06610128 0.37812513 -0.063270375 -0.116502136 0.71851975 0.18825905 0.052262247 0.34758255 -0.4328951 -0.048049636 -0.053620327 0.3040791 0.39135358 0.15530184 -0.25546125 0.070411 -0.18968876 -0.20841318 0.18136357 0.6261398 0.20697084 -0.22700705 -0.2843572 -0.19928826 -0.39080057 -0.24979661 -0.39201373 -0.16236007 0.37071657 -0.19370967 -0.32865804 0.016994942 0.11717001 0.22601783 -0.07756605 0.6021027 0.11354968 0.37631896 -0.3549197 0.44467705 0.34826776 0.16575392 -0.38339677 0.4574127 0.14890899 -0.113883466 -0.12884179 -0.1289975 -0.16195442 -0.27485937 -0.20220263 0.07315816 -0.18187983 0.29586056 0.15733169 -0.157226 -0.02355704 -0.15464309 0.18401748 -0.039981075 0.570818 -0.015559903 -0.016636595 0.14388387 -0.06556213 -0.41368604 0.20277113 0.008776501 -0.51106375 -0.27171212
49 -0.16751876 -0.33210948 -0.5697948 -0.115338705 0.23144655 0.07632138 -0.19669347 0.26389518 0.14036283 0.11646619 -0.14752388 0.07352818 -0.3800425 0.21404888 0.172579 0.184142 0.20421632 -0.08638123 0.69142157 -0.22699891 0.60244423 -0.17082517 -0.23952141 0.030815978 -0.036908433 0.2362487 0.5619621 0.07243907 0.62450475 0.5623392 -0.10292133 -0.010609735 -0.116200686 0.039022215 -0.51554775 0.40259564 -0.3080191 -0.2706029 0.37853283 0.30889827 0.042691197 0.38188443 -0.5822236 -0.16030367 0.34631786 0.13825715 -0.21959363 -0.12307601 -0.33984843 -0.15907158 0.40007374 -0.26815802 -0.45019004 -0.34161785 -0.11465851 -0.026737833 0.072133794 0.24157484 -0.057103697 0.14387894 -0.022979878 0.40087932 0.6990999 0.22130598 0.31641906 0.48046693 0.062127434 0.12847559 0.24774742 -0.06256175 0.037293267 0.15338472 0.014821226 -0.23436289 -0.1942705 -0.25640333 -0.095062144 0.30514464 -0.043006856 -0.05148774 -0.13123952 -0.16244607 -0.43582246 -0.17443496 0.12587675 -0.14956512 0.064875595 -0.28146216 0.44576898 0.10163321 0.69951844 0.13911381 0.07182776 0.52719986 -0.107794 -0.5297421 -0.42306972 -0.1179371 0.09045099 0.34322837 0.18047476 0.41633433 -0.039874703 -0.13959488 -0.2204905 0.30566254 -0.62280345 -0.132079 -0.001247502 0.15941767 -0.16569455 -0.510465 -0.095745824 0.13931149 -0.1970236 -0.1690522 0.28618866 -0.31055608 0.43694857 0.20793362 -0.31504503 0.39234665 0.27263972 0.017437628 -0.15612589 -0.2789217 -0.0049412968 -0.40792602
966 0.13763432 -0.09235114 -0.085916445 -0.1250233 0.116205655 -0.24154276 0.118362404 0.33665296 -0.1239406 -0.03138521 -0.52225214 0.14413166 0.16664256 -0.3835517 0.23695949 -0.075771 0.0674344 0.12611601 0.069745086 -0.18360148 -0.024974672 0.16452757 -0.2979789 0.5948468 -0.19327532 -0.22382063 0.19848935 0.29028752 0.6540492 0.09945879 0.005683805 -0.5079993 0.26912397 0.29567233 -0.06535972 0.42388022 -0.4475187 0.20688625 0.4456324 -0.08201683 0.24043156 -0.11019179 -0.13295132 -0.21372727 -0.7259887 -0.036163736 -0.2700404 0.29053146 -0.40524766 0.24709322 -0.11653186 0.14494029 -0.25936362 -0.20725052 -0.21453004 0.13296804 -0.3747968 0.14149831 0.21687189 -0.09574117 -0.23054977 0.28716248 0.31092957 0.10658055 0.0472869 0.14012687 -0.17373526 -0.06553593 -0.43431363 -0.27823737 0.09611773 0.26288217 -0.120080136 0.54088885 -0.14134172 -0.30119896 0.5148503 0.10003612 0.6012612 -0.3333438 -0.20419557 0.17952397 -0.30050117 -0.09669158 0.24233021 0.40220755 0.35739133 -0.35254622 -0.22876984 -0.1408317 0.19417635 0.052808918 -0.38225767 0.513436 -0.19657224 -0.22147155 -0.17320785 0.49778172 0.24437168 -0.11519136 0.13794187 0.06419286 0.34033903 0.11156099 -0.29897842 -0.35499015 -0.5246489 0.035430092 0.010253891 0.057129882 0.08627358 0.31810725 0.5010047 0.34646574 -0.1461057 -0.4198503 -0.23039825 -0.111306205 0.46419936 -0.12440379 0.2780046 0.86283803 0.13736027 0.027140632 -0.13637803 -0.22109842 -0.039150376 -0.35430023
1487 0.117262095 -0.15939593 0.034745738 -0.5206899 0.36044276 -0.49408615 -0.15175632 0.4538094 0.1567642 -0.021772113 -0.11339046 0.17513713 0.04951662 0.09141043 0.19409226 -0.066151656 -0.08452418 0.10645312 0.3797605 -0.30873606 -0.29704916 -0.04171883 0.09794343 0.38480645 0.007591495 0.101696044 0.28672495 0.29972127 0.012319406 0.1361448 0.47653162 0.35569125 -0.5146715 -0.64990866 -0.5163156 0.36307353 -0.19118388 0.2251804 0.28938982 -0.5686156 0.4807597 -0.13116382 0.28068665 -0.0024208894 -0.22486244 -0.043225855 -0.0098024085 -0.10030368 -0.07989353 0.42387652 0.33630964 0.16389935 0.0124604525 -0.12978378 -0.54095936 0.03820971 0.7585355 0.19845161 0.23197085 0.14014196 0.16601881 0.2969966 0.32112017 0.39509207 -0.16859683 0.2614777 -0.1558677 -0.057304285 0.27043673 0.07611851 0.33582237 0.040296555 -0.072934 -0.18359692 0.10979374 -0.092158325 -0.6332438 0.18538289 0.51241094 0.4940591 0.0871147 -0.08054584 -0.36384675 0.22916201 0.14389518 0.43253046 -0.25360635 -0.09172356 -0.116768494 0.7168545 0.30564412 0.38570535 -0.32636783 0.35330704 -0.05422489 -0.35192636 -0.624269 0.24410535 0.6867166 0.13360505 0.5875494 0.062428914 0.22862075 -0.44826922 0.2583611 -0.26108748 -0.15139732 -0.16794053 0.007874544 0.32373005 0.0987866 -0.4842818 -0.010042129 0.09484044 -0.11122481 0.2912508 0.54452646 0.25141647 0.6714271 -0.13406518 0.21916707 0.1803829 0.17980477 0.3207319 0.06854666 -0.20448631 0.016892733 0.38209358
1404 -0.13294256 0.03781898 -0.015141509 -0.078403436 -0.26615974 0.12177727 -0.15513955 0.20504443 -0.33270374 -0.39153898 -0.057260435 -0.07632775 -0.4446348 -0.21369916 -0.3721441 -0.29038984 0.06956402 0.29437405 0.27365616 0.03511552 0.1935555 -0.047160666 0.01358124 0.3091839 0.20472966 -0.7315336 0.007197156 0.05025768 0.28467736 0.36596444 0.5085842 -0.22149117 -0.07561365 0.020763984 -0.2147144 0.1814703 0.061221346 0.36855462 0.1706951 -0.04162011 0.22747907 -0.003332491 -0.52343166 0.27664596 0.07518524 -0.41836235 -0.32729498 -0.5868958 0.07266581 0.10039637 0.31704414 -0.18068413 -0.33437437 0.16403542 -0.3522893 -0.12833759 -0.22640014 0.41766423 0.07295738 0.0129769165 0.02664162 0.3831463 0.20570382 -0.044895455 -0.21775785 0.2305128 -0.7740463 -0.33983523 0.08323559 -0.021315778 -0.046136323 0.17884448 -0.07531035 -0.035268046 -0.300625 0.25993583 -0.1450659 0.34565768 0.28490245 -0.23656072 0.011537017 -0.22108965 -0.26760492 0.19616248 0.17780432 -0.076161444 -0.047087003 -0.27740976 -0.32705542 0.016980814 0.19520576 0.092781246 -0.3139494 0.48268247 0.01869625 0.15219145 -0.3233748 0.40022296 0.5684649 0.5164266 -0.39159063 0.14810053 0.2929848 0.15576112 -0.41505432 -0.20707932 -0.51871896 0.25609338 -0.28575426 -0.2694698 -0.06364925 -0.07139985 0.4250174 -0.37484312 -0.314768 0.08386607 0.36269322 -0.2131848 0.17339273 0.12904464 0.0064912452 0.4630694 -0.0853048 -0.43944025 -0.38669193 0.06030958 -0.1199371 -0.26555225
266 -0.15219985 0.37825948 0.14364354 0.089733675 -0.24602519 0.0029380175 -0.32117417 0.52315706 -0.1370229 -0.5267491 -0.02568909 0.040131122 0.2867395 0.025245892 -0.01410893 0.13221039 0.4897998 0.51829535 0.2111911 0.120664544 -0.26502004 -0.31849506 -0.46297386 0.33581227 -0.16507433 -0.7697626 -0.063053995 -0.23188761 0.72251534 -0.028379919 0.23968183 -0.17584568 0.10833139 0.07946492 -0.46003082 0.2781908 -0.20050552 -0.11710477 0.4929382 0.2609758 -0.34316683 0.4012835 0.043010287 0.065056585 -0.3386984 -0.29325336 0.0011978806 -0.12009583 0.111822166 0.33453944 0.50721866 0.5666677 -0.03553518 -0.22847514 0.2665466 -0.098315895 -0.2082636 0.587773 0.023261918 -0.18839428 0.19173773 0.45110577 0.009823796 -0.22637628 -0.124812484 0.0029260025 -0.35481173 -0.12987784 -0.2697851 -0.11806592 -0.2256614 0.1990841 0.19020522 0.1368067 0.12236119 -0.012828784 -0.20062731 0.14491259 0.28338706 -0.15243433 -0.25704587 0.033413656 -0.076688856 -0.20128468 0.2891354 -0.0101279905 0.33004433 -0.513603 -0.15775415 0.17483865 0.42123628 0.3316952 0.09085493 0.61612946 -0.16459833 -0.35091835 -0.46246397 -0.018238 0.37915608 -0.22504133 -0.122484736 0.15921977 -0.38144752 0.18097562 -0.081118494 0.086199835 -0.33880192 -0.33426556 0.18712081 -0.020078493 -0.5895671 0.33862218 0.23597252 0.017604599 0.0005366759 0.29461458 0.3968534 0.01108227 0.35757744 0.12961403 -0.15444298 -0.046721656 -0.6812816 0.30628154 -0.18050554 0.007629562 0.003186618 0.25462297
1140 -0.066760875 -0.17366041 0.06653387 0.2431172 0.16775551 -0.30517006 0.40482703 0.4719218 -0.27981564 -0.37054175 0.062513985 -0.020958507 0.12863433 -0.26167035 -0.065812826 -0.09174583 -0.14619732 0.60767484 0.40289176 -0.09779312 0.090881854 -0.20507346 0.08668195 0.43352503 -0.35345984 -0.288167 0.21939231 -0.096235804 0.0072165797 0.26498285 0.23567411 -0.24607761 0.27275705 0.22437325 -0.258707 0.5164376 -0.49736735 0.0063368003 0.45450178 0.19167475 -0.21509014 0.12634149 0.2086 0.0019338877 -0.1484392 -0.04655438 -0.17767578 0.13983653 0.14209786 0.3713133 0.66403663 0.7078638 -0.5649527 0.15036185 -0.17779413 -0.3286214 -0.4234065 0.3800838 0.14669627 0.0831842 0.053791903 0.04220599 0.16091292 -0.21670306 0.4533759 0.09684275 -0.30966535 0.2783962 -0.44750017 -0.00993862 0.3544594 0.03778326 -0.16139044 -0.32244384 -0.060433455 0.10866628 0.26556808 0.48804858 0.3133141 -0.41271758 -0.21828169 -0.16543294 -0.27358747 -0.22320083 0.45815596 -0.09684761 0.14730698 -0.16902821 -0.11077018 0.21279004 0.29274625 0.19900838 0.022236079 0.4062087 0.09484531 0.059699353 0.052494194 0.31693855 0.63211375 0.28587347 -0.0031311754 -0.18931584 0.4194018 -0.037949454 -0.34469554 -0.19271186 -0.11611838 0.13866374 0.14579672 0.113185644 -0.18923791 -0.31945363 0.118496664 0.2762786 -0.5453976 0.20777571 -0.03187981 0.17442562 0.14022791 0.16726829 0.012741438 0.019824652 -0.46574077 -0.060746223 0.054852717 0.23870541 -0.04074508 -0.20729984
834 0.037292603 0.06704971 -0.1492777 0.041643083 0.15899171 0.124419175 0.15040632 0.32477307 0.152295 -0.43781388 -0.2673317 -0.2104879 0.048593327 0.06634648 0.44479844 -0.23485197 -0.37881947 0.3595187 0.54495305 -0.12357524 -0.38160688 -0.18201146 -0.09801938 0.9302377 0.52746236 -0.5420452 0.07417336 -0.064983256 0.50082254 0.3260363 0.35237125 -0.37649566 0.10320961 0.0008711898 -0.52963555 0.5122629 0.27284527 0.23283227 0.64543134 -0.056965567 -0.0485853 0.019372685 0.019211583 -0.36239114 0.061119746 -0.18860923 -0.14994122 -0.29900557 0.36305407 0.11636198 0.25779414 0.41162702 -0.39491305 -0.53600067 -0.0120061105 -0.42336312 -0.21117727 0.5197551 0.037014324 -0.1874331 -0.13120449 -0.017135993 -0.033118542 -0.2077819 -0.078255855 0.2419134 -0.25703806 -0.04692746 -0.084318295 -0.012858326 -0.15402733 0.20294341 -0.100396745 0.2685696 -0.22888966 0.05951336 0.45300353 0.19580008 0.054909285 -0.068389185 0.024400026 -0.17623504 -0.23342653 -0.17342955 -0.16727576 0.015662408 -0.044750374 -0.2401453 -0.38028622 0.21204875 0.57734936 0.23677011 -0.47547624 0.5415366 0.1522452 0.016776212 0.24376059 0.3089339 0.23840226 -0.1201983 -0.1060778 0.24867575 0.035978086 0.18260713 -0.5091854 -0.29639983 -0.4316677 0.29978365 0.41151848 0.13693748 0.020945158 0.45001668 -0.13043746 0.16116326 0.052442804 -0.082486235 0.075055316 0.10068012 0.30473143 0.06804837 0.017075282 0.3308521 -0.063819386 -0.28224844 0.04308463 0.20329924 -0.1844005 -0.13123828
1649 0.09884355 -0.60680217 -0.13974215 -0.07963014 0.11960134 0.027494913 -0.035302065 0.4234048 -0.28469703 -0.61175376 -0.21963702 -0.37887266 0.028385106 0.080725715 -0.2843007 0.03815456 0.24521892 0.044401407 0.18966289 -0.07920666 0.1098767 0.17635112 -0.092915386 0.2576736 0.2579378 -0.6126593 0.24501783 -0.0042300243 0.6140248 0.11975174 -0.112204455 0.599518 0.028308386 -0.0807426 -0.4971661 0.3989168 -0.28731966 0.21183288 0.17142422 -0.5437987 -0.025397811 -0.21215229 -0.121000014 0.16075546 0.042817295 -0.14243427 0.09342972 -0.44414753 -0.37822336 0.10779387 0.7629357 0.29350036 -0.04859407 0.057745557 -0.43624428 -0.1794468 -0.13467148 -0.12600398 0.17135754 -0.022848124 -0.25626996 0.27182373 0.081992716 -0.1247847 0.07611862 0.47392118 0.26296172 -0.025722211 0.36475104 0.24478944 -0.121805124 0.62426794 0.25418434 -0.46946648 -0.18203585 0.06337583 -0.031067383 0.08694751 0.33637837 0.46498194 0.104602195 0.27885482 -0.27121192 -0.6719594 -0.016101738 -0.13081218 0.03685131 -0.14227405 0.04432392 0.09995094 0.5320602 -0.06910727 0.006423385 0.4782139 -0.047418427 -0.47065556 -0.10801661 0.60213655 0.11624496 0.23698595 -0.24113464 -0.31410167 -0.19823997 -0.46688494 -0.09764481 0.13806324 0.20866625 -0.032613825 0.11000683 0.6550485 -0.12655911 -0.4265067 -0.109384425 0.06405469 -0.28230798 -0.62005043 0.31297782 -0.14638963 0.731897 -0.15620624 0.27360603 0.09409537 0.28608882 0.2342946 0.27344295 0.31754333 -0.06977184 0.014363532
1177 -0.11234347 0.06475658 0.06137152 -0.13303585 -0.14360748 -0.12369926 -0.09901236 0.34186003 -0.2690354 -0.034955543 -0.08320633 -0.018817492 -0.15720393 -0.41732767 0.07773971 -0.3425066 -0.15276061 0.27439424 0.56204414 -0.31747186 0.14070697 -0.39965492 0.16755717 0.5686912 -0.1870459 -0.39344284 0.40348515 0.0049698045 0.31214243 0.35947502 0.36444822 -0.5064458 0.038537003 0.07949772 -0.3112979 0.56449205 -0.092070855 -0.4051918 0.18252088 -0.3682299 -0.09369248 0.32103357 -0.47647062 -0.12374761 -0.19555703 -0.099094436 -0.43597588 -0.26719335 0.38172713 0.2926857 -0.08531789 -0.030938536 0.101814486 0.063518554 0.11317002 -0.161074 -0.020564342 0.22411036 0.03571986 -0.12971888 -0.007329248 0.10184614 -0.2505256 -0.3790328 0.055030763 0.2850325 -0.2928296 -0.10344691 -0.095746756 0.0016805965 0.24205835 0.103982985 0.19541195 0.21964408 -0.2676388 -0.4113823 0.4859113 0.56978846 0.1579668 0.33383077 -0.5742997 -0.11967876 0.24703747 -0.5409705 -0.07285625 -0.03346718 -0.1837372 -0.22274865 -0.3116604 0.27197048 0.4942535 -0.1427011 0.08280998 0.6456324 0.27579945 -0.37427923 0.11398602 0.23161112 0.521261 0.2799458 -1.0256891 0.3094147 0.41367918 0.036718067 -0.14260434 0.123714395 -0.03916216 0.21798241 -0.12154429 -0.1244179 -0.42772976 -0.11208367 -0.17511065 -0.33519137 0.19619587 -0.13854796 0.29440394 -0.07548201 0.3851435 -0.038202915 0.13450585 0.28658828 -0.15286584 -0.34294623 -0.03496758 -0.21722713 0.041109823 0.25863355
385 0.044194665 -0.31210768 -0.26076847 -0.19849166 -0.09910238 -0.39663565 0.10555518 0.6933554 0.6789879 0.0900758 0.036458556 0.24595217 0.2066505 -0.12863398 0.07577892 -0.21349506 0.33411622 0.021849873 -0.083667256 -0.6049982 -0.39504424 -0.30794838 -0.19120216 0.13509709 -0.018842388 -0.3044648 0.019641504 0.4278864 0.03740797 0.2049645 -0.15806162 -0.008477045 -0.13845173 0.11203045 -0.62355626 0.70462674 0.14820582 0.059837088 0.01563197 0.54076034 -0.086248934 -0.05470726 0.09556429 -0.24693531 0.097350374 0.21664247 -0.19519064 0.039190173 -0.068693005 0.36728185 0.34148207 0.40527153 -0.5653865 -0.3830413 -0.43002364 0.026102325 0.08405721 0.19547546 0.14369345 0.13673344 -0.35536107 0.01041799 0.6945992 -0.08819857 -0.05477444 0.30879092 -0.03887828 -0.1806633 0.30848268 -0.2628396 0.1858979 -0.13020703 -0.025141438 -0.115964435 -0.51199853 0.28267202 -0.10552007 0.4654009 0.3174025 -0.22213648 -0.21743931 -0.011818832 0.057652384 -0.08353491 0.10796747 0.29676315 -0.19974105 -0.47288525 -0.11945201 -0.5301529 0.45141414 0.07483381 0.16671813 0.5579255 0.023534339 -0.24216248 -0.027386174 0.442469 0.3048078 0.08510044 -0.33759826 0.12305886 -0.12828952 0.20500702 0.20491065 0.29317287 -0.004306667 0.00064737006 0.367045 0.22045705 -0.17872813 -0.1133611 0.038808078 -0.012643064 -0.13546751 0.020359226 0.29618335 -0.045509174 0.16070893 0.19607435 0.1144307 0.37705138 -0.18404543 0.21490902 -0.20564339 0.024920747 -0.51882595 -0.050979815
330 -0.26256874 -0.007395086 -0.30455488 0.1453882 -0.2128253 -0.55917084 0.21515825 0.2907433 -0.6239758 -0.3580178 -0.0028592278 -0.13762678 0.10296679 -0.10523388 0.19946396 -0.6467928 0.23586324 -0.12856574 0.123807035 0.3206818 0.53348047 0.07337865 -0.09306662 0.27638692 -0.029669276 -0.60941374 0.17247482 0.3255321 0.5614118 0.30471426 -0.65536046 -0.033538416 0.27990106 0.15947258 -0.45780298 0.002703678 -0.19873199 0.25127095 0.105851114 0.18760718 -0.04792998 0.15016913 0.07195162 -0.26862454 0.01784442 -0.53029346 0.44170886 -0.18946616 0.11541685 -0.11885095 0.6469111 0.26657858 -0.48812407 -0.2741678 -0.49163696 0.29831842 0.11576643 0.53273624 -0.3232493 0.38074625 0.03103942 0.62646383 0.12626924 -0.28085238 0.3084873 0.3019651 -0.014280074 -0.044966098 -0.2878619 0.08872652 -0.46575123 0.28091297 -0.022483125 -0.03231521 0.36217362 -0.26784027 0.11981863 0.18969938 0.56105644 0.56290495 -0.33107972 -0.27511266 -0.2866819 0.17709205 0.28324705 0.47929585 -0.34320396 0.010415652 -0.28062916 0.029440504 0.60291713 0.213994 -0.39877522 0.42706603 -0.15951261 -0.18176194 -0.047556292 0.5302471 0.34631327 0.18700291 -0.4705736 -0.039723843 -0.35982022 0.31846336 0.09537701 0.7857387 -0.17552485 -0.21148553 -0.06317622 0.49839514 0.09835694 0.46741596 -0.7319151 0.09312558 -0.045947637 0.023936532 0.20750855 -0.1180763 0.6670606 0.16733089 -0.20183378 0.37358198 -0.25636178 -0.18633707 0.10674354 -0.30847734 0.2957268 -0.038124006
415 -0.12121056 -0.14430362 -0.15312423 0.23967347 0.5945116 -0.025695736 -0.12760553 0.48237634 -0.08972364 -0.38659567 -0.046180457 0.8589753 0.2611054 -0.034506347 0.09108716 -0.14556386 0.09776641 -0.118428595 0.3854721 0.1547286 -0.021481318 -0.08034026 0.3852736 0.32628822 0.21129674 -0.4146446 0.29807457 0.25950828 0.0693079 -0.13577108 0.31861556 -0.42795673 -0.19364226 -0.3281668 0.18573199 0.5966371 -0.3264257 0.12388521 -0.4097213 -0.22398596 -0.049664456 -0.043031253 0.010914891 0.043268234 -0.122798696 -0.17789583 -0.16124608 -0.11564819 0.18752359 0.7203452 0.6100008 -0.027331866 -0.331963 -0.3452139 0.038770527 0.14016914 -0.067643076 0.57211995 0.11235575 0.5211999 -0.012441727 0.1033893 0.32180816 -0.6017009 0.07596082 0.08423813 -0.26895452 0.016651727 0.11296289 -0.27357653 -0.1297551 0.07133958 -0.49699292 0.4500329 -0.25710195 -0.3462301 0.13611455 0.33737877 0.30935475 -0.13460632 0.101741634 -0.13092397 0.15170464 -0.6051161 0.045668267 0.31402144 -0.20739414 -0.28625077 0.12343396 0.1347669 0.31200305 -0.02634648 -0.6165671 0.43257245 -0.031583186 -0.28801855 -0.23652564 0.66691786 0.16811189 -0.11961269 -0.1916807 0.19022946 0.09691184 -0.15505038 0.062120613 0.16579193 -0.24771339 0.02866505 -0.16591285 0.029870117 -0.35599115 0.12214784 0.09271067 0.10741775 -0.18599373 -0.21863398 -0.041402962 -0.24893658 0.0606739 -0.074362636 -0.18199317 -0.1852013 -0.43210965 -0.13166732 -0.16196224 -0.25831696 -0.039181627 -0.11409067
317 -0.18212478 -0.45804626 0.1719689 0.13964166 -0.32102188 -0.0109675145 0.00076119555 0.54628724 -0.14784078 -0.31520432 -0.5053703 0.45886314 0.22117163 0.08128519 -0.09043543 0.2373324 0.02807102 0.5882839 0.15816498 0.123328626 -0.19050169 -0.52714425 -0.055350333 0.50005037 -0.35348207 -0.3688888 0.05469814 -0.16674304 0.07811203 0.05683742 0.42282486 -0.16188402 0.04702988 -0.34774366 -0.44161248 0.4533959 -0.35256332 0.11624518 0.44520798 -0.4193635 0.23622322 0.61976624 -0.4001712 -0.32798395 -0.44816262 0.060202643 0.12860812 0.04892855 -0.04145352 0.20858334 0.48465794 0.4771053 -0.3482366 -0.021350311 0.19705413 -0.22524065 -0.123460464 0.5862891 0.123120286 -0.311219 -0.19494909 0.064165495 0.1858502 -0.056049213 0.3680977 -0.05227033 -0.7323742 -0.06860572 -0.23028862 -0.5650654 0.122858144 -0.2428138 -0.20432216 -0.19895941 -0.24890092 -0.33191317 0.073751 0.060819805 0.1865507 0.09424373 0.17154917 -0.4127678 -0.40533698 -0.088719144 0.41460916 -0.101615064 -0.28829947 -0.031161249 -0.22823304 0.22530314 0.31960857 -0.3251331 0.17787725 0.38667837 -0.19886981 -0.13731945 0.037417293 0.01891802 0.23300724 -0.027203504 0.1267224 -0.11012655 0.049378153 0.14669956 -0.33821163 -0.105747834 0.16128309 0.33708307 0.06477237 0.0420764 -0.15348351 0.069082014 0.013574024 -0.12152756 -0.3434174 0.0457861 0.17186464 -0.106830515 0.56106144 0.15058349 0.26732507 0.15052897 -0.6449505 -0.121625975 -0.047379676 -0.08683909 -0.48915124 -0.25961113
1109 -0.30757108 -0.20151177 -0.13013566 -0.43426526 0.13246092 -0.054635122 -0.08932038 0.5821369 -0.17980053 -0.57209456 -0.42005354 -0.07570324 0.110442236 -0.008178468 -0.3599063 -0.14648105 -0.019238774 0.013288495 0.32046413 -0.06402672 -0.012108586 0.1698685 -0.52118397 0.5290296 0.12983915 -0.32207727 0.40145552 -0.25155732 0.495579 -0.0019700073 -0.084464766 0.28696096 -0.1389984 0.19230744 -0.6822667 0.25234967 -0.11768318 0.08774735 0.38060445 -0.19074544 -0.5306742 0.115792446 -0.31201145 0.31277215 -0.27854323 0.030730799 0.089849114 -0.39160946 -0.33132148 -0.063478515 0.30780074 0.2207254 -0.11698858 -0.27272797 0.008593711 -0.37446496 -0.58618987 0.043245554 0.4060669 0.3710156 -0.44969183 0.27740666 0.39780942 -0.1416105 -0.13982052 0.02864421 0.082434274 0.3564047 0.18440637 -0.2920143 0.0631275 0.22348079 -0.05842665 -0.44100168 -0.5504517 0.16774254 0.19733845 0.15567754 0.62247825 0.8396419 -0.505502 0.18158352 -0.39192164 -0.11368979 0.09679346 0.08704941 0.037676584 -0.12642619 0.5689845 0.100947306 0.3468415 0.027298803 -0.4599045 0.7103499 0.008863486 0.0238882 -0.23289579 0.3841762 -0.2954068 -0.21124217 -0.115408644 0.22477728 -0.06379434 -0.53118885 0.088890016 -0.28118274 0.043347243 0.4141056 0.40422666 0.107035846 0.012169202 -0.29450196 -0.15570755 -0.33946642 0.22179344 -0.22689201 0.09907574 -0.049322598 0.3661738 0.22528437 0.2576059 0.13076751 0.12565309 0.2118996 0.3818574 0.105167024 -0.31934476 0.03751934
1221 -0.103976525 -0.5512424 -0.14217193 0.100430764 0.21868461 -0.16403833 -0.068114184 0.46483842 -0.20832248 -0.29796433 -0.46422318 -0.04793923 -0.26549363 -0.16702144 -0.27449918 -0.2449525 0.109452486 0.16921355 0.42203328 0.28244847 -0.41143656 -0.6480734 0.0022461968 -0.018088246 -0.14980426 -0.20485029 0.22971676 -0.048309147 0.12871347 0.11041364 0.24788594 -0.5913275 0.029847687 -0.1928318 -0.22512347 0.35758525 -0.21905224 0.43924746 0.5788865 0.14161383 -0.3749101 0.5247092 -0.024954583 0.19072793 -0.21470669 -0.037983958 0.3213236 -0.298745 -0.41392598 0.20746148 0.41983467 0.5967152 -0.5421206 0.21505885 0.004808491 0.03182808 -0.006433042 0.37406656 -0.17937364 0.060861126 -0.21192029 0.50142676 0.34353733 -0.45246175 -0.29595786 -0.11992368 -0.24264054 -0.1319595 -0.32701695 0.33160475 0.16707148 0.3795465 -0.025622694 -0.39040866 -0.43088865 0.0100283725 0.36788687 0.19873823 0.37703982 -0.24259193 -0.10946652 -0.6790267 0.027964478 -0.34465352 0.52892476 -0.0813104 0.06698411 -0.3133784 -0.40224132 0.26822102 0.42883202 0.00834901 -0.26984543 -0.078396715 0.14233409 -0.40966344 0.053271964 0.48878792 0.31621826 0.13786468 -0.02104386 -0.16870649 -0.33159772 -0.014765686 -0.3419242 -0.0675734 0.06781675 0.12089425 -0.18309781 -0.0432486 0.34837452 -0.068985574 -0.098408386 -0.12358531 0.19525594 -0.3225047 0.4308956 0.119250596 -0.07765143 0.08891755 0.1665587 -0.2300253 -0.62228155 0.7685489 0.16411354 0.016724542 0.317739 0.16002604
1896 -0.5661481 -0.41368765 -0.17622651 -0.5590554 0.36785042 0.12306589 0.08446438 0.9216713 0.33794063 0.007862765 -0.0366932 -0.22785287 0.33808833 -0.37108213 0.46067274 -0.40240458 0.78640276 0.103986 0.5198863 -0.29518032 0.15206306 -0.12556067 -0.24624278 0.45432785 -0.057473533 0.035010103 0.3730944 0.60517764 0.21282801 -0.090285204 0.4500879 0.4821789 -0.665122 -0.61534715 -0.29379657 1.0206214 -0.6376238 -0.045498166 0.65682 -0.2103816 -0.053626712 0.19555034 -0.09317313 0.07698803 -0.2404334 0.124202 0.35422423 -0.024863405 0.29449284 -0.11127681 0.49176428 0.4800722 -0.2077148 0.04670261 0.078960426 0.47320122 0.40585986 -0.11957873 0.2518861 -0.049966164 -0.32536426 0.49483877 0.19105929 0.04666522 -0.23440588 0.56140816 0.4515192 -0.3869639 0.36258078 0.0638941 0.26004535 0.23220013 0.07562321 -0.6742389 -0.09943843 -0.14671819 -0.537479 0.63103795 1.044623 0.49478933 -0.023928953 -0.21214549 -0.37501314 0.338189 0.5341731 0.44776902 -0.46402565 0.0065358663 -0.030785074 0.10896621 -0.17280269 0.51990515 -0.10616866 0.55158484 -0.053744808 -0.15744074 -0.66968685 0.40385228 -0.2559415 0.27455005 0.35510632 0.07689172 -0.037323516 -0.33608624 0.111099795 -0.25374368 -0.438831 -0.34685564 0.0999927 0.022709414 0.12101965 -0.33745646 0.14541586 -0.102882996 0.049323797 0.17414357 0.26131588 0.43874907 0.17924355 -0.5015575 0.19918369 0.5010713 -0.22244415 -0.100115575 -0.41211957 -0.51037145 0.18546855 -0.25469038
1713 0.18047836 0.056655396 0.32078135 -0.4859975 0.025223903 -0.010992493 0.20384188 0.36270007 0.32245415 -0.26862407 -0.3862125 0.07069172 -0.07843469 -0.13369307 0.5802306 -0.09697764 0.116459556 -0.002729009 0.3842004 -0.42158732 0.15341064 -0.72035867 -0.26084864 0.43693897 -0.08853688 -0.4364468 0.42362252 -0.0130434055 0.28426054 0.3609749 0.20746092 -0.6967106 -0.22165711 0.105818614 -0.4355553 0.6473888 -0.16368064 0.8310344 0.3666409 0.071864955 -0.117684275 -0.29783016 -0.0793911 -0.5374441 -0.33596277 -0.22507967 0.17513473 -0.08853137 0.2592576 0.5051922 0.27560553 0.00039589402 -0.877749 -0.2034582 -0.35007453 -0.093704365 -0.35496387 0.039720166 -0.02635157 -0.46312416 0.27411038 -0.14541668 0.018773684 0.5160179 -0.18079346 0.2891109 -0.04175688 0.5005388 -0.17850377 0.006132714 -0.015336934 0.14231248 -0.20291387 -0.061781816 -0.39719886 -0.113797404 -0.03514738 -0.012688166 0.009275707 -0.37021342 0.025073431 0.13067102 -0.003690928 -0.20397767 0.035635374 0.18372321 -0.033426914 -0.39854273 0.031577732 -0.07643018 0.46081775 0.040029477 -0.2724031 0.23127727 0.35723248 -0.11907272 -0.13133118 -0.0023235243 0.3159497 0.14531161 0.50411576 0.08568457 -0.10993939 -0.20886339 -0.21845995 -0.016310338 -0.21638 -0.17347854 0.2684836 0.0646303 0.42676324 -0.06744422 0.07929545 -0.15298271 -0.13134134 -0.24557664 0.16623631 -0.19616885 0.26671204 -0.30498037 0.38524264 0.16784135 -0.19069941 -0.06046282 0.061445653 -0.123560876 -0.038116995 -0.47489
186 -0.03808211 -0.12053484 -0.22332516 -0.1657354 -0.24301216 -0.14659633 -0.064558856 0.65093815 -0.18917397 -0.52454466 -0.19742611 0.13819978 0.2709794 0.006505995 0.06684016 -0.27673665 -0.042815536 0.6213083 0.31491578 -0.19152178 0.107398205 -0.04546873 -0.31132978 0.14891478 0.10506779 -0.18102516 0.13218467 0.17019673 0.1219695 0.10185714 -0.047311224 -0.40865815 -0.38194445 0.12505057 -0.093207724 0.30851784 -0.3684587 -0.12713553 0.260073 -0.20690356 -0.027689558 -0.16865349 0.2945529 0.06700141 -0.57116747 -0.16536006 -0.0688168 1.2916411e-05 -0.16294196 -0.15487498 0.56454027 0.7414252 -0.43227163 0.32080084 0.7206706 -0.24496613 0.047706585 0.4117028 0.13093176 -0.36706147 0.20583612 0.4021685 0.22048502 -0.017959014 -0.06473968 -0.43779352 -0.26669335 -0.07165726 0.11360492 0.27821767 -0.037601177 0.06384354 0.22420587 0.34118113 -0.28869212 -0.12610985 -0.099695124 0.27851576 -0.0972152 0.18077914 -0.18472409 0.048723288 0.23177375 -0.2644347 0.4218567 0.1390861 0.25965077 -0.38228092 -0.23254998 0.2965617 0.33080393 0.1050187 -0.4726589 0.33346927 -0.14990577 -0.3748675 -0.42199072 0.55859023 0.39163104 -0.08791208 -0.02562783 -0.059162967 -0.099659614 0.22581561 -0.6116047 0.11483357 -0.14478217 0.09331731 0.2136659 0.2949481 0.19173655 0.13764669 -0.007120319 -0.24141954 -0.24766727 -0.00034831336 0.42206833 -0.18287009 0.14696106 0.41252413 -0.21469143 0.33974272 -0.4667004 0.119355716 0.18812466 0.35796785 0.19227627 -0.20737791
264 -0.06590888 -0.12528396 -0.3625123 -0.16928521 -0.26549992 0.03208775 0.069063336 0.29131815 -0.29741412 -0.19125134 -0.12281389 -0.11201068 0.22429238 0.04339631 -0.16898711 -0.5971058 -0.30625033 -0.052791264 0.32967338 -0.4974813 0.12272797 -0.7424078 -0.037873406 0.3111767 -0.10408025 0.03169556 -0.2051319 0.38250542 0.31414315 0.043455135 0.43441293 -0.3838274 0.10800074 -0.08963377 0.0550111 0.4298451 -0.010314244 0.5587636 -0.21257943 -0.51781964 0.3546798 -0.08780983 -0.1390871 -0.00067317666 -0.21910281 -0.086810134 -0.13005576 0.3335864 -0.12007812 0.14608206 0.59255266 -0.033773053 -0.21494915 -0.38959512 0.05309547 -0.17652237 0.08308635 -0.13711625 -0.14873518 -0.083142556 -0.13502188 -0.0114951795 0.6034849 -0.459275 -0.096199274 0.41195285 -0.6560478 -0.045209203 0.13452786 -0.07208875 0.24460346 0.5892099 -0.46716902 0.29737908 0.34960696 0.021314146 0.33850563 0.5911239 0.5137872 0.008076433 -0.3761736 0.01630034 -0.19709726 -0.36617395 -0.36868626 -0.06624505 -0.04506246 -0.62975067 0.10836723 0.31540525 0.311294 0.33168074 -0.2449208 0.43562645 -0.052924767 0.23541434 -0.21122602 0.11526804 0.26778775 -0.26022756 -0.27143994 0.031380232 0.3861369 -0.17008206 -0.3825641 0.19334053 -0.3221896 -0.26667172 0.15755482 0.03844245 0.025916776 0.15011701 0.048490647 -0.19932999 -0.08857501 0.20669188 0.13551399 -0.037398174 0.74606574 0.20041724 0.20580831 0.1988764 -0.26916695 -0.38457364 -0.10127849 0.046794772 0.07955842 0.1583476
1195 0.17170036 -0.32561427 -0.13010405 -0.072532475 -0.64875257 -0.3491698 -0.010535842 0.6217228 0.15611933 -0.394566 -0.25346878 0.4660769 0.14958924 -0.09812522 0.15692772 -0.48157105 0.4794626 0.24047206 0.15632136 0.10948366 0.019108871 -0.20112658 -0.5879043 0.44086283 0.093451574 -0.4496061 0.19521444 -0.2250582 0.4526317 0.11545563 0.037320483 -0.48220015 -0.06847341 0.104673654 -0.3839763 0.08529328 -0.19746035 0.47788396 -0.16753407 -0.18739739 -0.39996788 0.040193427 -0.20752247 0.019850511 -0.18370946 -0.63936347 -0.01860664 0.0035007892 0.47907478 -0.17849797 0.4438028 0.3010442 0.08657893 -0.10248546 -0.2993971 -0.21741092 -0.092106014 0.43301326 -0.16367255 0.09693294 -0.46478775 0.24587159 0.30636057 0.018627947 -0.054313336 0.11652239 -0.4121875 0.0855541 0.109524645 0.10857141 -0.27712795 0.13712993 0.13552971 0.06922885 -0.2640754 0.22824073 0.29893857 -0.05406983 0.036615744 0.30956838 -0.23896159 -0.28887275 -0.30777052 -0.050891943 -0.01846817 0.54372126 0.33991522 -0.043897577 0.19561449 0.50658274 0.29728216 -0.065482244 -0.1162936 0.22823095 0.04669181 0.17363569 -0.3053411 0.5400969 0.58753884 0.15703398 0.13431463 0.27689376 -0.094524376 -0.07470897 0.13396086 -0.31364653 0.073184654 0.29963928 0.12937273 -0.1966135 -0.01440769 -0.16737117 -0.16109075 -0.24574472 -0.11731805 0.035911467 0.30643 0.2695399 0.1891007 0.2887025 0.21500641 -0.127903 -0.74934494 -0.21078207 -0.16736022 0.031525195 0.4188174 0.12932126
844 0.22806107 -0.1893279 -0.088489026 -0.1805238 -0.09091991 -0.013612586 0.21399438 0.31800082 -0.069132715 -0.052705348 -0.24396469 0.21431388 0.43096128 0.038090046 -0.03445497 -0.10161383 -0.09781076 0.21085662 0.29406446 -0.32842144 0.3042194 -0.280106 0.2750296 -0.07054284 0.11775114 -0.76353407 0.06548734 -0.0011378912 0.32059073 0.04808621 0.4444707 -0.27613565 0.18119049 -0.15091375 -0.091207474 0.20255035 -0.08908235 -0.022636298 0.074700214 -0.12792487 -0.055271715 0.061490383 -0.057031564 -0.06089619 0.06351177 0.12747125 -0.16643418 0.17793599 0.021653617 0.06901991 0.30375874 0.0046785073 -0.49153006 -0.65298176 -0.37311324 -0.1940187 -0.118251026 0.19436671 0.2881297 0.1274313 0.049824543 0.3611737 0.5389477 0.19043565 -0.18218163 -0.08722409 -0.055806547 -0.20909125 -0.21400401 0.0946986 0.28917542 0.13069002 -0.10669335 0.16510892 -0.23572493 0.17327084 0.22782974 0.49210194 0.46027035 -0.18150973 -0.11234843 -0.038140018 -0.10743229 -0.10632193 0.03883444 -0.041031428 0.007459265 -0.39926112 0.0656376 0.24548747 0.104391515 0.18191957 0.0068957377 0.3553612 0.14149508 0.4041895 0.11042513 0.5792994 0.61718464 -0.27608305 -0.09215719 0.24967457 0.3386309 0.16927186 -0.3479548 -0.25884745 0.1015286 -0.28781435 -0.14749108 0.109318696 -0.3585169 0.09123112 0.0111892205 -0.16654551 0.071369015 0.06352803 0.4087743 0.11959176 0.26074612 0.49253762 -0.12536511 0.07270734 0.08855193 0.2127643 0.23094189 -0.32383224 0.14979638 -0.21068521
1660 0.072774634 -0.20617166 0.17457487 0.22515957 -0.27159008 -0.34634727 -0.06691908 0.16832767 -0.17123841 -0.38036746 -0.18108237 0.6558079 -0.07236587 -0.31969312 -0.01250082 -0.2852934 -0.092137374 0.2291585 -0.024076466 -0.06592111 0.34016252 -0.29733735 -0.54792905 0.1335318 -0.517691 -0.62319756 -0.024014086 0.43806118 -0.074599385 0.24082646 0.39099827 -0.254194 -0.02642987 0.23027141 -0.2905827 0.593108 0.105152786 0.032287717 0.2686281 -0.16882318 0.036617838 -0.46171987 0.20832902 0.44441724 -0.29172903 -0.080724575 0.022787359 -0.006181662 -0.09181878 0.32407105 0.13413917 0.564842 -0.17274815 -0.5844223 -0.08817897 0.10854372 -0.48034143 -0.22353254 -0.21820591 -0.18458244 -0.29140306 0.16917896 0.29842892 0.06111515 -0.26095542 0.49052525 -0.20426513 -0.2931858 0.282869 0.035071462 0.16604495 0.5952861 -0.29148003 -0.4267925 -0.5550323 -0.16200444 -0.092398226 0.39138895 0.48466283 -0.26291505 0.0060350527 -0.3210403 0.012472431 -0.13950717 0.38713658 0.47908568 -0.0905367 0.14495976 0.44442722 -0.25370112 0.39306605 0.2053443 -0.052008424 0.3091724 -0.16505072 -0.24586631 -0.05501929 -0.1724506 0.8145534 0.08653491 0.17531945 0.13362847 -0.17730749 -0.5834159 0.37703308 0.19412121 0.04983143 -0.056817375 0.17256196 0.12970728 -0.29488292 0.3009232 -0.02650853 -0.20069143 0.30654392 -0.30892423 0.382082 -0.0033660776 0.20702174 -0.02571145 -0.3178101 0.38156965 -0.26146188 -0.017121084 -0.24543731 0.023340048 -0.26423782 0.056599308
1516 0.1169841 -0.33120587 0.003566629 -0.247668 0.2706998 -0.2184929 -0.4330763 0.29329264 -0.25432315 -0.0012595134 -0.016965186 -0.21916637 0.35449496 -0.121476114 -0.34458458 -0.30481288 0.57176477 -0.18150237 0.29950052 -0.2694883 0.95706433 -0.2782822 0.1713328 0.42927104 -0.15554741 -0.17979059 0.07962496 0.07007182 0.70546377 0.36706328 0.10183454 0.78572744 -0.31601894 -0.1053636 -0.0033874733 0.451548 -0.34236243 -0.373211 0.48541966 -0.17633167 -0.03138566 0.16734023 -0.14400768 0.08652158 0.29019058 -0.32341295 0.10752893 -0.07845357 0.27528682 -0.18267387 0.36476156 0.08634072 -0.6629085 -0.21322612 -0.29231203 -0.09226555 0.04457773 0.11167523 0.23223259 0.032173727 0.15468508 0.36206096 0.4285159 0.42220023 -0.048965737 0.5328746 -0.11249625 -0.45507112 -0.10803413 0.28399542 0.15325396 -0.14731024 0.4052041 -0.34267408 -0.3557616 -0.06996796 -0.14954214 0.36253226 0.5068882 0.08133601 -0.4125881 0.24924362 -0.50697196 -0.044094633 -0.43380314 -0.3145459 -0.30699748 0.21633652 -0.12255371 0.20324053 0.8069682 -0.16173321 -0.49331492 0.9273956 -0.23598257 -0.3706655 -0.17578404 0.012010428 0.15403296 0.34305352 0.16090137 0.020022312 -0.31404015 -0.07708199 -0.31129643 0.31634688 -0.10646943 -0.026933834 0.36176595 0.12254709 0.04124717 -0.14961822 0.025688754 -0.42967284 -0.06896691 -0.12616079 -0.0035932707 -0.0017808178 0.0725629 0.037080474 0.5926608 0.14497563 -0.24006079 -0.3309941 -0.02544217 -0.15246356 0.06653926 0.33055684
1393 -0.16424619 -0.07715269 -0.07633868 -0.22744413 0.111392476 -0.18867783 0.17342424 0.56545544 -0.15232094 0.10309995 -0.432381 0.39481938 0.23649168 -0.46653885 0.34741026 -0.53369194 -0.07919449 0.0044766157 0.32970932 -0.45293978 -0.3953473 -0.30654725 -0.10151037 0.23617125 -0.15885514 -0.4236522 0.234214 0.18816075 0.53261787 -0.0335559 -0.11232827 -0.2568153 0.4997753 -0.079704486 -0.29494023 0.011194566 -0.34254143 0.2149351 0.25428927 0.10911004 0.1716466 0.036165256 0.08242208 -0.109947205 -0.4098557 -0.111618154 -0.2656027 -0.076985046 -0.075084694 0.19757693 0.058403917 0.43524048 -0.5822258 -0.68724287 -0.5274362 -0.07374136 -0.5018463 -0.13943028 -0.2096006 -0.23095006 -0.36511236 0.2603237 -0.2689183 -0.06992202 0.061740573 0.03562014 -0.48696762 -0.06737483 -0.01700557 0.11227513 -0.033127207 0.04331691 -0.0544657 0.25115064 -0.33027878 -0.20964402 0.2683316 0.89105546 0.58782256 -0.25880495 -0.11187116 -0.33516222 -0.22001697 -0.47246468 -0.10123036 -0.26875392 0.21099554 -0.26115036 0.2948037 -0.024732921 0.05671126 0.037799314 -0.02227615 0.34533492 -0.099036396 0.033602085 0.067949355 0.3171247 0.08258839 0.32961246 0.6154704 -0.3062202 0.15495184 0.23688388 -0.30396202 -0.09514193 -0.4031479 0.29891875 -0.26277187 0.47923282 -0.3860781 0.06444306 0.23956877 -0.35211974 -0.042044327 -0.027644644 0.30654392 0.044971906 0.17498475 0.19244055 0.40642968 0.13850892 0.11709635 -0.026834331 -0.25236252 -0.1600839 -0.08640998 -0.37371778
1408 0.0057404195 0.070198596 0.05585481 0.053473078 -0.05435431 -0.26626277 -0.12606736 0.3773656 0.0033524898 -0.11987528 0.35803783 0.0018307468 0.17330763 -0.25423232 -0.38020787 -0.34043166 -0.22844939 0.2697211 -0.027710704 0.0367134 0.1258321 -0.39470446 0.15389076 0.72478896 -0.18406281 -0.22559012 -0.24835223 -0.15907565 0.16091885 -0.014614418 0.0035652628 -0.43910018 0.053285643 -0.06727787 -0.31617165 0.5682999 -0.08172481 -0.11751459 0.30334204 -0.06065801 0.04739625 -0.2017197 0.019279083 -0.59488845 0.39677355 -0.36933848 0.15861677 -0.04508341 -0.06675792 0.16872242 0.32094997 -0.19429897 -0.41635352 0.023036204 -0.1867458 -0.46772555 -0.2744552 0.15495104 0.16289477 0.1576496 0.23376419 0.24673867 0.2601147 -0.005678009 0.17925143 0.1359414 -0.30376709 -0.10000952 0.03423426 0.08605651 0.3257398 0.22423574 -0.35321975 0.37328386 -0.20698649 -0.16612606 0.26335487 0.8301251 -0.05295029 -0.1006443 0.0764854 -0.46044204 -0.045725506 -0.4645005 0.19423504 0.56336075 0.45284465 -0.5282179 -0.126209 0.090968445 0.78683317 0.09248392 -0.71237993 0.4555822 -0.03603869 0.2067225 -0.20512544 0.63241637 0.520527 0.19500588 -0.08167054 -0.11775405 -0.2454705 0.18517311 0.06489864 0.12412007 -0.37516278 -0.008234645 0.32381013 -0.232853 -0.22542527 0.23322965 -0.004904034 -0.077790126 -0.28977728 -0.11675586 -0.13409157 0.12729834 0.2175677 0.1428048 0.52351964 0.16713536 -0.14573568 -0.1242203 -0.17155682 -0.26146892 0.044163622 0.0071909954
1687 -0.07947579 0.021230567 0.06629898 0.021185802 0.18628582 -0.4438191 -0.07003087 0.77425605 -0.35056493 -0.07162967 -0.22489968 -0.03761826 0.061529618 0.030359184 -0.12363016 -0.3249032 0.25893018 0.7532832 0.10791407 -0.104771204 0.07984977 0.4603657 -0.060228344 0.15776822 -0.11676352 -0.18452077 -0.18328676 0.28242093 0.008726258 0.048913084 0.9889445 -0.16435184 -0.05536076 0.13383305 -0.90180963 0.56456685 -0.5032881 0.15984233 0.26608378 -0.25079146 -0.13994649 0.2882823 -0.033705406 -0.41586185 -0.2864292 -0.20739996 0.09881351 -0.16853143 -0.1391713 0.061039116 0.43240345 0.08536616 -0.3105769 -0.105508246 0.25603044 0.11270949 -0.12885615 0.25437722 0.19114721 -0.054986365 -0.15643965 -0.05121947 0.05363105 0.0548682 0.38738716 0.3055265 -0.19398656 0.05422181 -0.14304996 0.11184205 -0.16748726 -0.11430227 0.39536652 -0.07046116 -0.16734324 -0.23496787 0.11056229 0.23510706 0.16115141 -0.20362054 0.009313616 -0.71534824 -0.021796694 -0.23752944 0.31763268 -0.17710423 0.35600823 -0.36563286 0.057452716 0.21196325 0.08084452 0.43397278 -0.007728976 0.5995298 0.075611524 0.021893665 -0.13498689 0.25403422 0.29702583 0.05573072 -0.078918345 -0.070332475 -0.0423142 0.1965659 0.2338004 -0.051541403 0.014830426 0.11421636 0.200666 -0.20189145 0.21922249 0.5946418 0.29634437 -0.4667956 -0.08454771 -0.08055874 0.24634309 0.015768776 0.10967639 0.110795386 0.106486484 0.3880131 -0.40851268 0.10432718 -0.18443432 0.04679936 0.09092546 0.085551
8 -0.344077 -0.19591191 -0.3831543 -0.04668547 -0.27177608 0.014980912 -0.121733755 0.38012722 -0.2289892 -0.58435243 -0.1859986 0.5653884 -0.03014568 0.051892005 0.31726775 -0.050182898 -0.099309616 0.2285833 -0.0797025 -0.15777297 0.0667563 -0.36995247 -0.20262149 0.34095937 0.0026177876 -0.735738 0.24520208 -0.12707764 -0.06472546 0.23180524 0.32079804 -0.29515576 0.28628215 -0.47809857 0.33262178 0.38176876 -0.23299985 0.08177176 0.14548779 -0.21313415 0.004751423 -0.055186547 -0.30681372 -0.2118674 -0.003511895 -0.43960446 -0.26152825 0.094562486 -0.3627535 -0.1679192 0.19953191 -0.6007539 -0.7881862 -0.28125063 0.012790177 -0.088199005 0.14278664 0.32118708 -0.20740697 -0.22057675 0.013907191 0.30633834 0.04029735 -0.91640323 -0.08047127 0.41746983 -0.31053957 0.10792208 0.15095784 -0.1349228 0.5717636 0.0994381 -0.059728745 0.18459235 -0.056584094 -0.018618543 0.060405094 0.57027537 0.24310002 -0.012199343 -0.0009506165 -0.2340319 0.07287427 -0.23416057 -0.16895396 0.07169073 -0.057027575 -0.44969007 -0.22814612 -0.24648847 0.07600481 0.35268968 -0.010075972 1.0034432 0.6379778 -0.15890102 -0.06949633 0.5665316 0.10442714 0.15896155 -0.030259944 0.17632018 0.1451272 0.27191284 -0.112517364 -0.33144802 -0.33612248 -0.048625685 0.07170781 0.14185894 -0.34436297 0.022510583 0.14550151 -0.12083076 0.19348776 0.059702247 0.18986496 -0.14282806 0.13773026 -0.029961305 -0.015575644 0.21414447 -0.05962487 -0.31412953 0.13907081 -0.10210979 0.087241165 -0.10155684
1493 -0.1937021 -0.28116477 -0.14858462 -0.35298523 -0.28399882 -0.20297499 0.13345204 0.29645023 0.40083793 0.1272899 -0.07787003 0.361072 -0.10882034 -0.23188695 0.0391728 -0.38263366 0.035782225 -0.25843114 0.16843916 -0.5434067 0.007845291 -0.109997995 -0.35436758 0.23422882 0.2758738 -0.19303599 0.0079640085 0.2848966 0.0495466 0.069604926 -0.18201369 0.4713617 0.020706095 -0.5685039 -0.32639486 0.76517165 -0.69075835 -0.17978162 0.5185862 -0.031196035 -0.008901861 0.04049806 0.051235043 -0.06757659 0.10838054 -0.25511733 -0.045884077 -0.19211763 0.21027298 -0.026392335 0.46970525 0.019090438 -0.44146922 -0.04855867 -0.23712693 -0.26678237 -0.29346412 0.091534264 0.12231171 -0.11405953 -0.18297064 0.17152572 0.6075911 0.13005075 -0.090627834 0.37416518 -0.08993331 -0.3792864 0.2835017 -0.025658831 0.14308698 0.11406279 0.077506006 -0.038955092 -0.07198852 -0.01986872 -0.03645365 0.40683448 0.37719148 -0.08936187 0.329691 -0.24433441 -0.24171163 -0.11213524 0.21234982 -0.3176133 -0.16332081 0.2912301 -0.37859863 -0.057685267 0.33469036 0.29360285 -0.21468954 0.056853514 -0.09851613 -0.3939427 -0.3638044 0.68649584 0.21874832 -0.054412972 0.24900763 0.20431405 0.46845323 -0.09854415 0.012317098 0.14162655 -0.27151757 -0.006734686 -0.09280473 0.37328565 0.25310245 -0.23815142 0.0783145 0.046132687 0.13854015 -0.09405253 0.57477295 0.14966516 0.1038108 -0.5655666 0.16213843 0.15737948 0.053114507 0.114356875 -0.27366543 -0.05980737 -0.101215206 0.12433454
1484 -0.19314218 -0.3708255 -0.35297245 -0.65957636 0.06595763 -0.0346816 -0.01624996 0.8753057 0.28063318 0.21713185 -0.26476035 -0.31450137 0.030081412 -0.20970225 0.4728199 -0.28129733 0.41379163 0.28216928 0.636497 -0.068793476 0.2653226 0.11462138 -0.036506087 0.45429114 0.05715439 -0.2956243 0.30305922 0.31476468 0.058096465 -0.10295956 0.43557593 0.52846545 -0.4582788 -0.45577508 -0.49265417 1.0247805 -0.49746257 -0.11835612 0.6641074 -0.18082397 0.037322674 0.35895196 -0.42994592 0.28771296 -0.036490463 -0.18334773 0.15693592 0.052086663 0.17004646 0.13146397 0.38709536 0.31781563 -0.2507411 -0.17927328 0.22998536 0.5798757 0.09918811 -0.030387988 -0.09076763 -0.10808481 -0.11353265 0.47118542 0.0811662 0.2182447 -0.24811353 0.32043496 0.3265254 -0.35234076 0.31967613 0.03162015 0.10298456 0.35071248 0.12807517 -0.4309389 -0.030409107 -0.12932093 -0.47137886 0.7912593 0.8432649 0.46327204 -0.15140535 -0.4043405 -0.5340985 -0.015628058 0.59490824 0.30358732 -0.048283525 -0.09494534 -0.22714521 0.045270298 -0.3383821 0.5135287 0.0051262975 1.0568885 0.2068748 -0.39620084 -0.4755874 0.20931545 -0.3289621 0.51880074 0.46668735 0.2392081 -0.05423154 -0.43261683 0.5878647 0.012733216 -0.12638824 -0.14584859 0.3096709 -0.03996853 0.31498712 -0.5482577 0.09504831 0.06257043 -0.33327568 0.3497552 0.40845844 0.2068038 0.12752901 -0.41766304 -0.0993978 0.44915414 -0.10317728 0.26116958 -0.26734984 -0.34160134 -0.036270898 -0.37377208
1403 -0.09092743 -0.32394746 0.07246408 0.47555465 0.042048875 -0.40533572 0.02865165 0.32063296 -0.07098357 -0.30531922 0.091664664 0.24165629 -0.08266802 0.29958934 0.3915699 -0.2123354 0.30328315 0.13891469 0.40424177 -0.42027354 0.14238684 -0.26169676 0.022212299 0.3035995 -0.020712096 -0.54070336 0.04938008 0.6445582 -0.031672824 -0.07762249 0.3798719 0.015776392 -0.31326273 0.3956953 -0.19191684 0.3124031 -0.12028119 -0.109517425 0.5975044 -0.3278523 0.17205851 0.3880996 0.38721913 -0.22229633 -0.38625634 -0.41142026 0.03710558 -0.55587894 0.0544929 -0.028638287 0.28565735 0.13472714 -0.51997304 -0.43732792 -0.7446703 -0.2947092 -0.2060278 0.14138325 0.14903955 -0.40143946 -0.10521086 -0.2005698 0.7586298 -0.45770535 -0.5339643 -0.32306197 0.13778125 0.018670486 -0.11085253 -0.47544143 0.20410983 0.29157743 -0.2958601 -0.13893469 -0.51745164 0.32125828 -0.2459256 0.4508967 0.39284503 -0.06496125 -0.2936674 0.3328773 0.09203656 -0.10467184 -0.10074605 0.1373134 0.46924374 0.20857286 -0.39825392 0.19748704 0.32226497 -0.22925554 0.00079597125 -0.054426283 -0.053249877 -0.11420158 -0.32210273 0.4161396 0.10463162 0.0026148579 -0.20275177 0.25046244 -0.41999397 -0.04204079 -0.09242269 0.030043192 -0.3651127 0.18104006 -0.5409754 -0.10099957 -0.059188362 0.10222652 -0.16891837 -0.12646243 -0.21633779 0.25138044 0.54029095 0.64213675 0.39375472 -0.06501993 0.034517575 0.2519646 0.018056883 -0.1037808 -0.035777867 0.17826757 0.04520814 -0.28821814
883 0.46826068 -0.07291336 0.22845855 -0.08159273 0.09542121 -0.18163453 0.19172302 0.11760261 -0.6527188 -0.14965354 0.12410031 -0.04880527 0.3610252 -0.014593491 0.4187765 -0.68234724 0.5717598 -0.02074465 0.5054767 0.038147 0.35287228 0.11961776 -0.15234435 0.68059766 0.38242298 -0.5832737 -0.009952601 0.30190617 0.39304972 0.1776593 -0.85589474 0.094145276 -0.04444706 -0.16855156 -0.013983077 0.52463704 -0.21740377 -0.3431505 0.34370786 -0.11879271 -0.17337947 -0.29990378 -0.13084811 -0.053956896 -0.350475 -0.851935 0.6047311 -0.35759142 0.00634485 -0.29834965 0.67355484 0.324907 -0.47288927 -0.65507674 -0.65982825 -0.11696683 0.28075004 0.3899604 0.0778179 0.15704906 0.53778654 0.42285714 0.4275091 0.3086707 0.22050504 0.16175663 0.12360145 -0.083323926 -0.30314517 -0.040168703 -0.25245604 0.4209576 -0.23618872 -0.60624295 0.019958822 -0.21238053 0.43158 0.22588205 0.2781775 0.7069721 -0.083013386 -0.2229498 -0.5316184 -0.05998129 0.34455553 0.23791976 -0.016716002 0.29955074 -0.22519264 0.101953864 0.5043778 0.27859092 -0.22998308 0.30288884 0.042438008 -0.42807838 0.2607716 0.81223226 0.26511577 0.30298153 0.024043873 0.0837601 -0.6024247 0.44834206 0.03097588 0.68508285 -0.04988906 -0.27932554 0.1809455 -0.04936074 0.12639858 0.07598312 -0.09006999 -0.34517282 -0.385913 -0.1330092 0.19160679 -0.16763659 0.13195662 0.13096964 0.15239601 0.014868822 -0.065534845 0.38257897 0.40396756 -0.7081276 -0.07070161 -0.19129467
274 -0.20636514 0.18525384 0.1486078 -0.09346213 0.25696716 -0.09942622 0.22626439 0.5702396 -0.09053023 -0.08885532 -0.42549437 0.43953726 -0.09860329 -0.11982407 -0.034936197 -0.408879 0.17690973 0.7632956 0.09112252 -0.0724165 0.19620146 -0.38531154 -0.07347438 -0.0035037354 -0.48627585 -0.48856583 0.047981307 0.48796058 0.47763553 0.001056281 0.5123656 -0.17888048 -0.2097303 0.2380113 -0.002114954 0.51256984 -0.54330534 -0.12974966 0.4245463 -0.10827886 0.022220435 0.0730128 0.44234473 -0.11794794 -0.092661 -0.3868816 -0.15716182 -0.13702336 -0.29912716 0.4338724 0.5149392 0.20678821 -0.31362283 -0.4477351 -0.13403551 -0.21486758 -0.5138162 -0.20543435 -0.05392248 0.11330527 -0.6564677 0.2698399 0.022468528 -0.15207364 0.06811018 0.24434438 -0.12949306 -0.34061292 0.4661853 -0.06657877 -0.023664312 0.22381912 0.16072738 0.4854585 0.26485488 0.106485814 -0.079582065 0.3902288 0.0923231 0.4215664 -0.14200889 -0.0020546967 -0.10222271 -0.037299175 0.48038465 0.31128696 0.0014220132 -0.211161 0.015165735 -0.34248948 0.43498382 0.18688965 -0.2713219 0.3003746 -0.13719027 -0.06483205 -0.3094981 0.040436346 0.6044206 0.11477813 -0.11469357 0.41926798 -0.11046641 -0.04970879 -0.056032307 0.2459732 -0.47126853 -0.11935051 0.031874936 -0.1349675 0.11230871 0.35410032 0.12495486 -0.2320455 -0.16398995 0.27957883 0.025326744 -0.15631889 -0.07091023 0.257764 0.1950014 -0.24419239 -0.011702997 0.017790254 0.31021586 -0.27442294 -0.27112544 -0.041655894
1153 -0.13964078 -0.22508208 0.44617665 0.329429 0.3172933 -0.11558152 -0.042174757 0.647647 -0.034950804 -0.47220105 -0.32979134 0.25798094 0.19626398 -0.007960157 -0.11793937 0.12644209 -0.10283301 0.49505866 0.15158677 0.3248419 0.26665846 -0.19745776 0.27421033 0.07520741 -0.04670316 -0.4711279 -0.04212525 -0.32706618 0.28555676 0.45208916 0.029172868 -0.602076 0.03625701 0.30089808 -0.73219085 0.41697457 -0.48124775 -0.28655386 0.008815138 -0.34354544 -0.10526791 0.46841058 -0.14163017 -0.25104 -0.29160085 0.06990092 -0.07616924 -0.22408263 0.09674681 -0.16635276 0.14314699 0.28823242 -0.41077334 0.083167486 0.09031731 -0.3916244 -0.11788038 0.2259539 -0.06170406 0.16785526 0.07937052 0.11838432 0.14923184 -0.40739912 0.2525857 0.43526834 0.16867915 0.09706812 0.16309771 -0.03232708 -0.08474206 0.69941056 0.4307288 -0.21184455 -0.0029368333 0.056256395 0.20560963 0.21347369 0.21532418 0.12630656 0.07394393 -0.11659188 -0.20344494 -0.031505074 0.31798065 0.045083445 0.24567641 -0.28500715 0.11792415 0.52201027 0.17924906 -0.031923443 -0.12352144 0.416367 0.050018437 -0.1308126 0.006169978 0.35538396 0.5288703 0.14225915 0.31287333 0.10989254 0.25348043 0.05475816 -0.37654787 0.1614542 -0.18694572 -0.12211972 0.42819858 -0.030307489 0.2713751 0.15861385 0.028942287 -0.69308954 -0.038093396 0.21086 0.35830843 -0.06224346 0.5587292 0.15289831 0.22204076 0.27504647 -0.7391032 0.21694672 -0.117748946 0.2896882 -0.26473096 0.17812555
12 -0.3893755 0.11049094 -0.060665343 0.0010962322 -0.17037605 -0.12996508 0.35994023 0.39873344 -0.23932621 0.17434815 -0.1108696 0.18209657 0.08285942 -0.14751032 0.45328778 -0.18209606 0.33091447 0.44731975 -0.031002278 -0.59525293 -0.012379265 -0.40040535 -0.049316365 0.27670223 0.022996398 -0.61961854 0.084499516 0.7245376 0.2782877 0.02862198 0.110311374 0.15335067 -0.1782044 0.30049375 -0.68259835 0.43474966 -0.3061496 0.03686992 0.5170286 0.3128426 -0.025758725 -0.12282033 -0.03746842 -0.0700808 -0.16814522 -0.25145966 0.13492699 0.20740664 0.2768413 0.28849673 0.5277306 -0.35766435 -0.2528313 0.053893626 -0.032936588 -0.10182243 -0.4049555 -0.33362564 0.29035994 0.027417302 -0.53391 -0.14282817 0.37708324 0.098536104 0.21912259 -0.21138395 -0.20394886 -0.46721816 0.46165428 -0.06092723 0.77210855 0.33438724 -0.12872441 -0.11564452 -0.17851964 0.12386589 0.0008264984 0.32914096 0.5124033 0.094284944 0.17725983 -0.32949725 0.037066933 0.06796603 0.37006962 0.05016705 0.0030393861 0.054148506 0.394481 -0.12793279 0.46814483 0.15431963 -0.22769809 0.35007364 0.12673503 -0.017955096 -0.031347986 0.32761347 0.28218883 0.33370724 0.2971058 0.38493752 -0.034651443 -0.36106634 -0.36164594 -0.042458467 -0.48749632 -0.36024195 -0.33186615 0.39221337 0.24390173 0.2654934 -0.5972424 -0.26833767 -0.1876212 0.115741685 0.07936396 -0.15714024 0.12133177 -0.045913745 0.23536041 0.15979856 0.060848717 -0.013149328 -0.13986926 -0.16739444 -0.22010063 0.057340067
796 -0.53928876 0.17004846 -0.483248 -0.21696669 0.14053589 0.048639514 -0.1842278 0.705908 -0.097834416 -0.35633168 0.1000945 0.21593055 0.10668419 -0.37132356 0.51152307 -0.14503267 -0.29763028 -0.032884367 0.45273122 -0.51268435 0.27854022 -0.00902881 -0.14000691 0.4986626 -0.11155587 -0.34408396 0.3455548 0.24706313 0.31240413 0.31432682 -0.033669442 -0.35223603 0.19224171 0.39476666 -0.37837744 0.43267816 -0.56969804 0.10232798 0.65238345 0.14259538 0.14831272 0.3412616 -0.39552262 0.1380813 0.31275132 -0.31993952 0.0068104733 -0.096562214 -0.12553741 -0.028117174 -0.16492166 0.30567592 -0.017876584 0.085491456 -0.49184358 -0.2684841 -0.34480602 -0.037094448 0.27744955 0.011883204 -0.09378613 0.26680568 -0.23812512 -0.21865237 0.12092739 -0.0066159433 -0.09955475 0.48520878 -0.09367296 -0.23727505 0.17077123 0.10675214 -0.27973077 -0.081804745 -0.21426317 -0.10213858 0.2055846 0.22390808 0.34777987 -0.008375035 -0.4239949 0.067707755 -0.41816097 -0.2713572 -0.0069595124 -0.20016384 0.05611953 -0.7786123 0.03017366 -0.1301489 0.45169967 0.07211428 -0.25596502 0.45526645 -0.297995 -0.30587938 -0.048804708 0.19061553 -0.32858545 0.26567936 -0.005355326 0.23788536 0.057120852 -0.2016937 -0.13956915 0.07805382 -0.35963315 0.20406221 0.18882854 0.27594894 -0.0043158107 -0.054152645 -0.16862167 -0.19102384 -0.15063666 -0.6817899 0.560881 -0.43607193 0.78966665 0.21151933 -0.05910457 -0.024810547 0.24507523 -0.08808426 -0.24508388 -0.15336044 -0.20033726 -0.35433942
1407 -0.03283152 0.31068948 0.17972676 0.028198833 -0.06145412 0.1037814 -0.18811381 0.48997864 -0.24901943 -0.41219065 0.38716802 0.34710175 -0.12747936 0.31619155 0.12837303 -0.396168 0.06154524 -0.0033100497 0.01216549 -0.098549694 0.554912 -0.036536634 -0.21272413 0.20405598 -0.19828838 -0.33887517 0.05279719 -0.2110407 0.04943345 -0.2809731 0.1919704 -0.3553535 0.110240616 -0.36418355 -0.25836182 0.42913467 0.08115178 0.37975112 -0.17065115 -0.19698115 -0.123727664 0.18229608 -0.09988685 0.36132523 -0.24084842 -0.6099297 -0.4539986 0.30595767 -0.028369883 0.13431141 0.20300142 -0.16074766 -0.5913113 -0.17579898 -0.11998484 -0.064492896 0.18155274 0.50603694 0.09176253 -0.16479252 0.035186436 0.29472968 0.08784975 -0.2560626 -0.22175792 0.065649964 0.1191678 0.10548634 0.44067818 -0.26433712 0.04126342 0.35499805 -0.5965431 0.09135462 -0.19863437 -0.20544115 0.49841645 0.6407644 0.79099596 -0.5223532 -0.090245076 0.02355084 0.06463614 -0.20953164 0.010002936 -0.06530761 0.2723577 -0.45584118 -0.18415248 0.2557628 0.31420466 -0.046645284 -0.13510574 0.44114944 0.0045540733 -0.29518256 -0.10427556 0.78604066 0.5947081 0.19353172 -0.6616196 -0.060904767 0.07610137 -0.3100818 -0.4713947 0.064767316 0.2117624 0.10205163 -0.07282386 -0.1723406 0.20260094 -0.05254658 0.21764298 0.18233772 0.25436175 0.5096416 0.4032091 -0.047212034 0.6737229 0.1184271 0.23145181 0.420988 0.10513707 -0.28009644 -0.087669596 -0.27560854 -0.17919722 0.110066116
998 -0.073045574 0.019567229 0.06303198 0.045106024 0.08773515 -0.11909793 -0.07056958 0.4438996 -0.06562698 -0.30839318 -0.265032 0.5066481 0.31229016 -0.21826528 0.9769786 -0.023300955 -0.2520232 0.39814723 0.252734 -0.2939646 0.1302926 -0.1818365 0.071857944 0.09282435 -0.23451142 0.027907927 0.12797706 0.503016 0.2953994 -0.016935686 -0.31110147 -0.06957963 0.10723915 -0.27840754 -0.62758654 0.37286478 -0.21496992 -0.16145995 0.29670033 0.2706737 -0.2111938 0.2033239 -0.23285487 0.52301043 -0.19901974 -0.013111319 -0.12001507 -0.055711165 -0.56682855 0.068441905 0.42602342 0.08678852 -0.71305597 -0.39293668 -0.3215917 -0.10415217 0.0519931 0.18356407 0.41371042 -0.32598597 -0.27981967 0.4411542 -0.21269065 -0.38483298 -0.012767314 0.347088 0.086198926 -0.08151352 -0.16230741 0.31503972 0.4339967 0.4417412 -0.55114496 0.12964773 -0.3296313 0.42129388 0.1901019 0.40838954 -0.0140128555 -0.3485359 -0.33975917 0.18200335 0.09736568 -0.019966079 -0.09932737 -0.42950642 -0.39674017 -0.30088916 0.2543074 -0.04345822 0.11008555 -0.019435897 0.21325102 0.7640415 0.028998131 -0.25963446 0.0033881213 0.3124416 0.26266044 0.33667186 -0.11371726 0.427001 0.16731443 -0.10562762 0.21915434 -0.009497498 -0.48638186 -0.10304647 -0.024421984 0.40413395 -0.28654104 -0.15022986 0.20644425 -0.3367774 -0.16297197 -0.08666128 0.12928818 0.16754961 0.21279253 -0.23672977 0.057743434 0.10498177 -0.17362201 -0.25286415 0.10156005 0.0069976877 0.042951636 -0.26291695
1 -0.072804585 0.08152227 0.1481152 -0.37185293 0.49323273 0.054275934 -0.24369052 0.68270403 0.2265615 0.004503113 0.019664489 0.13946274 0.029245853 -0.6177688 0.43469155 -0.1246321 -0.001542091 0.25872532 0.206016 -0.56739324 0.38905382 -0.3460137 0.28192863 0.15499572 0.3286604 -0.26232493 0.4045476 0.44648644 0.06099561 0.20395546 -0.17055903 0.38788557 -0.010424082 -0.37929142 -0.19628918 0.1659497 -0.2511865 -0.1989618 0.4994625 -0.48544654 0.09064863 0.032780793 -0.42452672 -0.09333681 -0.16814905 -0.32710698 -0.06529395 -0.033011757 0.14637007 -0.77533823 0.5601227 0.14438036 -0.43079436 0.15599331 -0.052169904 0.16677558 -0.0028728906 -0.28706893 -0.068092816 -0.11577919 -0.090437576 0.4105506 0.55667543 -0.32560757 0.050425738 -0.07389989 0.044828597 -0.470537 -0.07601529 -0.24105972 0.14238603 -0.16689695 0.07532822 -0.35269925 0.04143676 0.013991391 -0.011552411 0.59839904 0.13064198 -0.12754866 0.36802477 -0.15146361 -0.25522235 0.032769427 0.142019 0.030765861 0.097634695 -0.28713483 0.17638761 -0.18570514 0.2531644 0.7039949 -0.12131605 0.33704427 -0.26876885 0.13940303 -0.5242933 0.24729691 0.12792315 -0.010688416 -0.025963692 0.042377077 -0.058448154 -0.4722933 -0.14719301 -0.10254839 -0.23980519 -0.44112012 -0.18094018 0.14606157 -0.14239107 -0.16679315 -0.06332007 0.1228987 0.10357562 0.049188007 0.18837191 0.25056037 -0.14837416 -0.2400742 -0.03042626 0.23197709 0.0057426207 0.10246412 -0.07577866 -0.3367695 -0.20846862 -0.050680816
1220 0.012385318 -0.0142566925 0.11191044 -0.46845147 -0.033930168 0.42346492 -0.16951866 0.18087749 0.3080821 -0.4440115 -0.21814111 0.35211748 -0.07324439 -0.13489546 -0.15479599 -0.0492873 0.3527556 0.2743316 0.88469577 -0.2847147 0.3952917 -0.14715466 0.20885904 -0.066430196 -0.30497062 -0.7016666 0.5145343 0.10107039 0.5557291 -0.47057676 -0.09166549 0.061515115 -0.22245093 0.410226 -0.06829268 0.52893275 -0.16872567 0.05308048 -0.012485933 -0.30462155 -0.042592064 0.05114862 -0.010562062 -0.44950235 -0.47725677 -0.17300263 0.030942844 -0.17570558 -0.11569445 -0.10111729 0.7655929 0.021628099 -0.10502443 -0.22602798 -0.3982275 -0.07302845 0.30933723 -0.10905449 0.593911 -0.082447134 0.09167866 0.43900526 0.052744534 -0.18402863 0.52989537 0.5311178 -0.21663307 -0.3873354 -0.18872844 -0.09342486 -0.31608135 0.41924047 0.26312593 0.15014982 -0.27225113 -0.618472 0.25856405 -0.032717954 -0.19973896 -0.16339888 0.29588735 -0.097300105 -0.049806274 -0.06816063 -0.12354455 -0.31476882 0.53971964 -0.057444148 -0.1679319 -0.41776523 0.7517654 0.511568 0.015298476 0.7940217 0.24871974 0.21558458 -0.3699136 -0.018052783 0.15894368 0.39120266 -0.10708594 0.120651476 -0.2576341 -0.15325962 0.054172702 0.013968103 0.4569857 0.4540617 0.079969995 0.4926262 -0.20757149 0.3628622 -0.21258178 0.38177586 0.3322084 -0.305751 0.38592476 0.22821645 0.5041439 0.44328636 0.18174428 0.2802336 -0.14407137 0.09752524 0.11862339 0.48065892 -0.066483736 0.4108567
389 -0.3311438 0.1439487 0.01862698 -0.27773163 -0.002013262 0.119014 0.16648735 0.4391931 -0.1851515 -0.10742762 -0.2647621 0.78809524 0.36472678 0.52144045 0.09418702 -0.24138233 -0.41414174 0.16809075 -0.021543281 0.023796191 0.20613183 -0.10279688 -0.01690959 0.38742718 -0.26831764 -0.042277277 0.084699824 0.08253222 0.38144863 -0.011909864 0.17784268 -0.43999845 -0.034146085 -0.4125576 -0.44348043 0.7296786 -0.10195178 -0.102199376 0.15857273 0.0015724222 0.36549926 -0.08805195 -0.3102585 0.21507998 -0.4016589 -0.4386929 -0.07862068 -0.28330493 0.029174976 0.26608092 0.6066571 0.120854385 -0.30961266 -0.051105827 -0.12736143 -0.26440653 -0.13741283 0.13176838 -0.118836805 0.021455903 0.14602482 -0.10276152 0.9597218 -0.3834521 -0.12121371 -0.057622764 -0.41809076 -0.2127376 -0.40524247 -0.14868072 -0.08484095 -0.009501246 -0.13634309 -0.052413024 -0.3245031 -0.07514464 -0.039798446 0.32994846 0.5566975 0.15424946 -0.29388425 0.22448803 -0.19934516 -0.28236952 -0.1079444 -0.22073384 0.30400512 -0.28886768 -0.26835665 0.10287462 0.25453076 0.14222987 0.056903098 -0.024784338 0.59347063 -0.18756928 -0.22978954 0.4577912 0.47378868 -0.13413364 -0.07961939 -0.1447555 0.0041161207 0.37740374 0.6682357 -0.18613519 -0.22195037 0.05975123 -0.27120814 0.29791802 -0.20017497 -0.08051822 -0.4158951 -0.07725794 -0.2373912 0.45516428 0.030024603 -0.13352323 0.02043567 -0.25726452 0.29565373 0.4161204 -0.023676297 0.1854895 -0.1011352 0.42507154 0.03820829 -0.28574526
438 0.7765042 0.055132948 -0.09972467 -0.049446955 0.25715235 -0.18258567 0.034787945 0.21152635 -0.41598377 -0.078877054 0.011938991 -0.23831497 0.28402305 -0.2528385 -0.043995433 -0.43190032 0.68746 -0.5031494 0.16326897 -0.27522478 0.44461718 -0.3400149 0.16634384 0.26582158 -0.04576814 -0.13634314 0.10964326 0.3810031 0.19691546 0.20051867 -0.3483482 0.3169925 -0.39401656 -0.21734671 -0.23534091 0.42640117 -0.22792922 -0.38563555 0.3065892 0.02857122 0.07340421 0.10758959 0.2635334 0.16235606 -0.45982635 -0.66814095 0.18484326 -0.36895838 0.06582129 -0.0071934722 0.548155 0.05720472 -0.44984818 -0.3864791 -0.30222693 0.12667471 0.049376503 -0.007722693 0.13932174 0.15771516 -0.14747061 0.5309254 0.2577334 0.4066613 -0.49596718 0.29344648 -0.35098916 -0.08869485 0.31965452 0.05921824 -0.12090251 0.09164898 0.10868138 -0.5271535 -0.1815046 -0.40030485 0.35511678 0.6426296 0.41455534 0.36097303 0.041698955 -0.14042026 -0.7229111 -0.31223243 0.096308276 -0.08113044 -0.19582655 0.040432453 0.08589384 0.31241208 0.24972218 0.14609921 -0.27564427 0.5844961 0.19214852 -0.7003027 -0.09795213 0.10199366 0.13938425 0.028173935 -0.024717463 -0.33408532 -0.21523689 -0.14662498 0.117175736 0.24735638 -0.47018573 -0.26095706 0.12618643 -0.05693498 0.24926655 -0.08184023 -0.06505845 -0.14952672 -0.47467175 -0.28101707 0.3689817 -0.16534245 0.11546565 -0.2219931 0.000508087 0.12942451 0.09875352 0.19228198 0.06436228 -0.14689001 0.16167924 0.26824266
